128 16
-0.06004215 0.24625635 0.0657366 0.15825014 -0.14109173 0.065734304 0.021165542 0.025404435 -0.14536881 -0.15466934 0.13286652 0.0130600715 -0.20039251 0.03157923 0.09066367 -0.12489859 
0.14356883 -0.24909657 0.045554396 -0.26492366 -0.018359313 0.050544944 0.19296229 0.0894369 0.238081 -0.07541796 0.063621625 0.32268265 0.12898122 0.1138156 0.044774413 -0.14801401 
-0.059446305 -0.2464689 -0.2620465 0.28721923 0.04885849 -0.28987867 -0.15600891 0.025569934 0.3375641 0.054168884 -0.057807323 -0.12002526 -0.22236958 -0.2179977 -0.23920669 0.14210214 
-0.02855476 0.092718095 0.010680905 -0.023056157 -0.27405268 -0.29261988 0.30490246 -0.2630223 -0.19307983 0.40405732 0.25188437 -0.062115397 -0.019782018 0.01661611 0.012761491 -0.014842934 
-0.25273618 0.15522316 -0.0070286347 -0.17499793 -0.17534256 0.2527707 0.07223522 -0.00079140876 0.26037973 -0.09248151 0.12748371 -0.0074735167 0.024055354 -0.23871255 -0.10058249 0.21972702 
-0.050272994 0.02305734 -0.09082476 -0.15839675 0.14506857 -0.04002956 -0.19872302 -0.19306102 -0.07509668 0.13340108 0.2642848 -0.1930711 0.02720469 -0.23422909 -0.14264557 0.19062446 
-0.2899766 0.16185339 -0.326125 -0.14428373 0.023250015 -0.20448329 -0.2610264 0.2167276 0.18114193 -0.10288008 0.116518326 0.17282802 0.17954624 -0.06302496 -0.12882687 -0.039511498 
-0.075355336 -0.2289284 -0.07051416 -0.2646034 -0.1993346 -0.1528444 -0.14334354 -0.19125722 -0.11058908 0.10692184 0.10180643 -0.14630099 0.20184518 0.17849253 0.05473267 -0.1806962 
0.07350243 -0.2465848 -0.13906313 -0.005218555 0.1434843 -0.038278002 0.012570205 -0.00924115 -0.17011356 -0.066599764 0.25260994 0.20850642 0.08547088 -0.09610033 -0.1237205 0.06902243 
-0.14974234 -0.014463593 0.087684594 0.041636154 -0.07895475 0.14141206 0.2621964 -0.11966411 -0.16802746 0.059548635 0.07537452 -0.040497642 0.03795981 0.15399599 0.112363644 0.13722047 
-0.19725092 -0.16495852 -0.1288835 -0.26239896 -0.2330158 -0.025865396 -0.013307643 -0.23491362 -0.12458339 -0.16247857 0.14912775 -0.2004707 -0.051251717 -0.0594202 0.14811568 0.24370763 
0.09752952 -0.26616386 0.15311514 -0.16785865 -0.2635784 0.18985857 0.14834137 -0.008947438 -0.20509663 -0.09535605 -0.011986961 -0.011576425 0.19252704 -0.07046762 0.1113868 -0.004329553 
0.10604793 -0.07688467 -0.32006538 -0.2141253 -0.006676317 0.0067601223 -0.01109122 -0.07756515 0.34275824 0.29424876 0.15906355 0.31159553 -0.042497892 0.16197433 0.11267822 -0.025634453 
-0.14338256 -0.07176133 0.14622383 -0.38928494 0.107702024 -0.29699862 -0.10584354 -0.16878858 0.29247782 0.19881298 0.042296614 0.19421034 -0.1364865 0.2945252 -0.32057318 0.2682971 
0.12598301 -0.15442973 -0.009612444 -0.18395875 -0.00012723748 -0.14938772 -0.0013716209 -0.10381762 -0.28721702 0.26792172 -0.100604266 -0.024579749 0.12759979 0.023306115 0.110817514 -0.07113154 
0.14456944 -0.29235372 -0.21762028 -0.204181 0.14632343 -0.1931364 -0.2087851 0.2351284 0.19352823 0.14386372 -0.13714904 0.086246274 -0.1588192 0.23841198 -0.22639225 -0.0041377433 
0.09772885 0.19295107 0.086223885 -0.14951111 -0.2700216 0.06946322 -0.21092553 -0.07199991 0.17073369 -0.12114463 -0.02712292 -0.25418875 0.20088752 0.0959104 -0.077131845 -0.22430076 
-0.05469325 0.033361506 0.04884867 -0.068933696 -0.2676874 0.24234301 0.04512924 0.110186145 0.15529619 0.25649527 0.0997077 0.16584542 0.26745135 -0.20941179 -0.14193702 0.13737103 
-0.27390105 0.0152497105 -0.24908413 -0.19998637 -0.05294921 -0.11644965 -0.011190173 -0.17833376 -0.22224312 -0.031770077 0.05881773 0.022532586 0.25684288 -0.1885528 -0.19507664 0.20598845 
0.087435216 -0.10419701 0.23024254 0.042050146 -0.03735422 0.22752178 -0.019672835 0.058822032 -0.2953034 -0.22618023 0.28801462 -0.28034568 0.07022777 0.08861919 0.25784892 -0.08176524 
0.11137933 0.22985584 -0.15567891 -0.071726866 -0.19002248 -0.13665469 -0.18562882 -0.14570162 -0.14296316 -0.102154434 -0.061769832 -0.06305006 -0.2119706 -0.27335957 0.43109718 0.13707468 
0.14714573 -0.032050475 0.08380217 -0.004223422 -0.15015127 0.19362594 -0.039082006 0.25063697 0.3729592 -0.029574707 0.20078866 0.07104047 -0.20417853 -0.15072471 -0.16830666 -0.03808963 
-0.013382908 -0.17366087 -0.16607438 0.054014485 -0.12218395 0.049261533 -0.18563394 0.055617996 0.06047636 0.011070585 -0.011784802 0.014237483 0.15889014 0.14693193 0.10817252 0.25590652 
0.21402022 -0.06450363 0.004958453 0.13346894 0.078815944 0.012233627 0.13778669 -0.029867854 0.15873018 0.11738514 0.26305243 0.23468427 0.16748534 -0.10758624 -0.24221662 0.15150371 
0.18479231 -0.18869612 0.07453602 0.16276824 0.106973335 0.23396416 0.18889973 -0.18565679 -0.28460285 -0.12404445 0.39948052 -0.16561776 -0.020794876 -0.07712575 -0.09542289 -0.18507466 
-0.26244116 -0.12653486 -0.26057944 -0.09704638 0.110624455 -0.0994 -0.13815865 0.14314586 0.22533308 0.20813836 0.26281464 -0.07089976 -0.08693498 0.0940459 0.06496061 0.10311887 
-0.20689104 0.11282207 -0.26601914 0.10557504 -0.06811871 -0.076566346 -0.1532886 -0.14612523 -0.06739661 0.011131181 0.19299713 0.036476254 0.22597505 -0.24658704 0.015842546 -0.08487145 
-0.14010347 0.075850286 0.11694917 -0.15086362 -0.2050691 0.2604577 0.091935635 0.14441925 -0.058982365 0.29046217 -0.10325345 0.01406538 0.06519908 -0.06616538 -0.034030046 0.05894561 
-0.19880487 -0.029286085 -0.23822299 -0.06575064 0.08560058 -0.053232774 -0.1317942 -0.27059948 0.0089054415 -0.0148401335 -0.22480112 0.20946887 0.12851736 0.22141263 0.17124377 0.004555854 
-0.08826862 0.16370393 0.004111744 -0.11644498 -0.26290008 0.08834375 -0.21208662 0.12319986 0.07248198 0.14279571 0.039059732 -0.06090193 0.15738569 -0.12057288 -0.08685988 0.05250857 
-0.07425365 0.06611742 -0.12379515 0.2503352 -0.1273418 -0.07773715 -0.13039039 -0.08858225 -0.37563708 0.08284807 -0.34976378 -0.16949314 0.27109692 0.23875797 -0.33009678 -0.11536702 
-0.026139215 -0.18284674 -0.10955274 -0.011497537 -0.18858379 -0.23477167 -0.03336142 -0.29507846 -0.1349129 -0.10610588 0.055326257 -0.0693035 0.17528161 -0.05147582 0.13281092 0.09864902 
0.16990183 -0.08185158 0.15483142 0.036427986 -0.0392257 0.11007279 0.21323214 -0.021372166 0.1658867 -0.16280752 0.09436334 -0.17191017 -0.12721542 -0.03007485 0.084919035 -0.15949899 
-0.20894706 -0.19820869 0.16216978 0.17191719 0.15464684 0.22288972 0.13284783 -0.20544653 0.1798782 0.0057171453 -0.14308502 0.22131546 -0.120113745 -0.09709722 0.012604408 0.05228722 
0.04490704 0.21376517 -0.10817751 0.2595922 0.0073110857 -0.1387442 -0.12855506 -0.02310874 -0.21090508 0.16828702 0.23408945 -0.024765166 -0.15849559 -0.029120317 0.10250318 -0.12954725 
-0.24106963 0.055184506 -0.014623707 -0.21885179 -0.05459455 0.04070681 0.050738003 0.09671506 0.20327269 -0.09270693 0.10772551 -0.08666076 -0.100179166 0.05787612 -0.07042661 0.22647491 
0.0005181769 -0.21595134 0.021583833 0.21496686 0.11091525 -0.003321412 -0.100972004 -0.017788088 -0.046531755 -0.04452022 -0.23971422 -0.15698498 -0.24413162 -0.04406223 0.084087595 -0.19530681 
-0.041212633 -0.110546656 -0.024879348 0.05156577 -0.15600413 0.047130175 -0.21485762 0.05847552 -0.14623122 0.22790723 0.11914251 0.22882833 -0.0050283107 -0.03254259 -0.2012687 -0.07701633 
-0.029009247 -0.2084969 -0.18721864 -0.2407969 -0.17911546 -0.15935259 0.24415056 -0.0048291064 0.0065055597 0.08793499 -0.03957727 -0.0064209313 -0.06809728 0.19791688 -0.014546111 0.0231907 
-0.11079204 -0.13173331 0.073715106 -0.054449793 0.21670464 -0.14522861 0.011660808 -0.26060987 0.21503529 -0.16378772 0.04358971 0.008396149 -0.15788673 0.15400799 0.06351528 0.15003942 
0.09562951 -0.13843663 -0.20349011 -0.10065037 0.19134578 0.07752091 0.17027867 0.04914586 -0.18710259 0.25684717 -0.063455686 0.12589537 -0.076238245 -0.10716061 -0.043545112 -0.018327538 
-0.22273928 0.09124551 0.119088784 -0.18694003 -0.1787282 -0.121803425 -0.068016745 -0.30607438 -0.20586455 0.08120189 -0.2075814 -0.019574035 0.26377094 -0.25461328 0.017952912 0.12496142 
-0.043605935 -0.23869833 0.11872595 0.01869917 -0.06913676 -0.07576758 -0.087286204 0.07101969 -0.23078197 0.30503258 0.1945874 -0.14417528 0.31209785 0.14800262 -0.00030894845 -0.059327044 
0.22902058 -0.28067997 -0.2618121 -0.06658522 -0.22155795 -0.020431336 -0.0015040447 -0.28103492 -0.10861868 0.10276188 0.19723582 0.20190898 0.1716454 0.014114259 -0.23483868 -0.07954204 
-0.101012096 0.14119582 -0.28828862 -0.19209814 0.029958202 -0.14893436 -0.12567037 -0.2773947 0.25343224 0.1461925 -0.19770114 -0.19076715 -0.13035534 -0.023647582 -0.16421455 0.22383256 
-0.053041153 -0.1000565 -0.25101215 0.05031022 0.0017312857 0.24862939 0.02404426 0.006999988 -0.09703691 -0.11019848 0.24077839 -0.071873665 -0.056164112 -0.20155011 -0.071289785 0.0024502052 
-0.21973093 -0.14996594 0.036957446 0.18921977 0.10902177 -0.17290117 -0.10044367 -0.011175626 0.15940648 0.12984987 0.070350386 0.26933837 0.19534574 -0.2728703 -0.16881251 0.08730517 
-0.16880624 -0.13782525 0.18399669 -0.14192629 0.03991174 0.1968803 0.16132538 0.13291563 0.10553222 0.21550663 0.16698033 0.15012461 -0.20641129 -0.08140329 -0.11287508 0.1638762 
-0.0851464 -0.24628712 -0.04630687 -0.14664602 -0.18296537 0.091894954 0.06692692 0.088124074 0.08938963 0.18003651 -0.080762304 0.22677584 -0.054610774 -0.016955303 0.22342159 0.2818401 
0.07462015 0.14319357 0.053071022 -0.242233 -0.1276163 -0.32818517 0.09793483 -0.059840765 -0.1121515 -0.21788357 0.057087764 0.14504392 -0.20854723 0.18289825 -0.23171648 -0.085389085 
-0.22729106 -0.26278952 -0.01458342 -0.24179645 -0.24197856 0.17037134 -0.13198325 -0.19167893 -0.0050709653 0.23134026 0.06410517 0.11189747 0.20794445 0.02937073 -0.24981794 -0.06121939 
0.12907067 0.04552763 -0.22597702 0.30445305 -0.056130245 -0.060925998 -0.018195026 0.06653896 -0.3386424 -0.110948116 0.07546658 -0.2571888 -0.08776761 -0.16977248 -0.29727772 -0.17192025 
-0.107845 -0.28297228 -0.25481632 0.17530972 0.011984688 0.15705974 0.07485784 -0.24854697 -0.0146449795 0.110421434 -0.12949933 0.021712922 0.20550966 -0.18468761 -0.23065224 0.24716488 
-0.13771111 -0.10418486 0.20218334 -0.08919186 -0.13895912 0.03247595 0.054567378 0.09493502 -0.029587174 -0.09177161 -0.21894969 -0.16905968 0.122915685 -0.15176633 -0.1338656 0.13131616 
-0.19138974 0.0720521 -0.28322017 0.20865059 -0.047928818 0.18637313 -0.19176368 -0.065162785 -0.15347286 0.2218686 -0.06107503 0.26589316 0.021999886 0.20744702 0.020897625 -0.18777148 
-0.032924306 -0.13011144 -0.2749887 -0.228265 -0.17471907 0.054242004 0.081124835 0.17195532 0.20912497 0.02570162 0.14804019 -0.1261219 0.1610066 0.05818051 0.20173785 -0.10382486 
0.019951696 0.072593756 -0.23818159 0.09087187 0.058014434 -0.09286195 -0.2073354 -0.032072037 -0.061882406 -0.0007350797 0.020739451 0.24990076 0.03287572 -0.039255302 0.0486808 0.035950564 
-0.079355516 -0.12119781 0.20444824 0.16738981 -0.11433336 0.23488635 0.2266556 -0.070057474 0.14359239 0.059999228 -0.0030469904 -0.15677959 0.032108773 0.039022487 0.22802424 0.020334905 
-0.053126182 0.16552344 -0.33181223 0.08176404 -0.07330265 -0.06827528 -0.24204421 -0.38912046 -0.056152966 -0.1365681 -0.032832116 -0.26125187 0.06420928 -0.16247673 0.016820244 0.06955059 
-0.20217729 -0.10518115 -0.2344461 -0.04819407 0.011868625 -0.026877679 0.09373963 -0.29837114 -0.0936295 -0.11641053 0.18615162 0.10779822 0.17077732 0.16775224 0.03969912 -0.0056340434 
0.16946743 -0.020952297 0.11516834 -0.020666681 0.15413184 -0.18594049 -0.18488769 -0.15178427 -0.017201373 -0.13494003 -0.24792886 -0.21677117 -0.122318506 0.10704666 0.104278326 -0.15618117 
-0.18232243 -0.24107462 0.0059839315 -0.17892008 -0.16932105 -0.06412823 -0.083018556 -0.069993585 -0.0686909 0.23586853 -0.1788705 0.061669104 0.17434938 -0.082646646 0.095958285 -0.09662854 
0.119661875 -0.2568719 -0.08435998 -0.04655781 -0.045667816 0.13913879 0.23314764 0.063131064 0.2232773 0.058546226 -0.060800947 -0.01371591 0.03379642 -0.22522855 0.12409422 -0.14243494 
-0.21670388 -0.06576466 -0.26322764 -0.1117764 -0.23426586 -0.19082695 0.053522952 0.10886042 0.023352241 0.10045455 0.18162294 0.23646918 -0.19392844 -0.26471668 -0.20523266 -0.12654757 
-0.033619747 -0.23295474 -0.21978047 -0.1578733 0.21098879 0.28991735 0.08509144 -0.11318776 0.080448985 0.16902857 -0.1581608 -0.21515591 -0.09695385 0.08373894 -0.034660418 -0.19042277 
0.08670633 -0.070072405 0.054654554 -0.111005865 -0.21526842 -0.12896293 0.2608144 0.17041686 0.03825539 0.18596098 -0.020913433 -0.13544671 0.083392724 -0.20974715 -0.016448785 0.104376666 
-0.2133481 -0.12447646 0.099415034 -0.08853744 -0.26188645 -0.011667815 0.03245988 -0.14975736 -0.07143757 0.21538721 0.05027651 -0.04197148 0.055863675 -0.09837903 0.21756466 -0.07152862 
0.06650684 -0.26898006 0.010509547 0.064988695 -0.19857495 -0.016754063 0.06532397 0.17235245 -0.13785248 0.22447665 -0.13184871 0.18722537 0.09397721 0.096681975 -0.22022343 -0.09192089 
-0.12528494 -0.01821497 -0.030094543 0.00024260335 -0.024806123 0.16126302 0.188989 -0.21702705 -0.05217066 0.043324932 -0.23193805 0.260449 0.04491749 0.019033303 -0.08426109 0.19478655 
-0.28102234 0.03555456 -0.08781535 -0.20242569 0.16891356 0.072646625 -0.15853927 0.21979243 -0.11091104 -0.09082198 0.09908371 0.2673625 0.15312561 0.014229704 -0.028277574 0.06369779 
-0.13851544 -0.19074136 -0.039359402 -0.21606624 0.10015782 -0.05578977 0.19042985 0.04077034 -0.12082581 -0.11727501 0.18295713 -0.11333779 0.15486726 0.03843726 0.032423683 0.1523565 
-0.13341846 -0.27737683 -0.28941622 0.06526067 0.020446094 -0.010279464 -0.19174083 0.17599744 0.14400977 0.08452998 0.24808347 -0.11551873 -0.041657064 -0.21505493 -0.0025368847 0.09563127 
0.073903 -0.017547283 -0.06459943 -0.1498504 0.0020848648 -0.22523268 0.12080085 -0.090422176 -0.05506684 0.07993913 -0.085601866 0.082997 0.14723517 -0.006434422 -0.115055874 -0.12440537 
-0.20187326 0.12533595 0.037874863 0.13603723 0.19698118 -0.13186482 -0.15995403 -0.015303116 -0.02191519 -0.081088014 -0.036917172 0.25255433 -0.18503506 0.048294067 -0.2942474 0.0498348 
-0.11846076 -0.07951425 -0.0015136651 -0.15192914 0.110576354 0.21936849 -0.060148302 0.15163119 -0.036124527 0.23892078 -0.20473297 0.09843744 -0.062365185 -0.1910394 -0.22303386 0.09297055 
0.08795654 0.019972764 0.09949768 -0.33922917 0.02758628 -0.2401044 0.29510644 -0.10892951 -0.029472653 -0.14726113 0.061019327 -0.0064684898 0.25342423 0.09687138 0.21018632 0.030341735 
0.03089862 0.14414737 -0.070593044 -0.26973626 0.047959708 0.31479678 -0.26877004 0.14070085 -0.1885855 -0.06421655 0.09769228 0.06417661 -0.06911488 -0.23512854 0.19879813 -0.07469359 
0.018011777 0.21153003 -0.1334189 0.063334286 -0.1510524 0.18600969 -0.28111187 0.08725967 -0.062887095 0.13353808 -0.39169616 0.18683225 0.030242788 -0.0047079665 -0.14739214 -0.13996476 
-0.18980658 -0.053978372 0.0062280893 0.07353148 -0.2251423 -0.21340853 0.13124709 -0.14412554 0.23733659 0.21577238 0.23404527 -0.12383083 0.25753015 0.19392793 -0.21401097 -0.14813744 
-0.23500003 -0.124385335 -0.23860721 -0.011301721 -0.083895855 0.16100132 0.1842343 -0.16619374 0.07693773 -0.062192954 -0.17142448 0.26397857 -0.058465905 -0.01122235 0.07072774 -0.1695324 
-0.23383099 0.14660284 -0.058569945 -0.12941419 -0.09972897 -0.09962259 0.09505151 0.00075058744 0.18383336 -0.0020010336 0.014933392 -0.011754041 -0.028671984 -0.08326674 -0.16599227 -0.0961345 
0.14900212 0.03530302 -0.19002035 -0.18370163 -0.151197 0.2282407 0.09319382 -0.12750843 0.14748773 0.16296451 -0.09995729 0.24329264 0.124958456 -0.20989592 -0.16036351 0.17258978 
0.032790426 -0.24461184 -0.16256566 -0.051690727 -0.18855774 -0.11700926 0.10239536 0.23532432 -0.048749402 -0.07206182 0.027450386 0.26378846 -0.09030474 -0.09169235 0.13876697 -0.11059311 
-0.010387556 -0.2136097 -0.0930796 0.20884107 -0.27471638 -0.120300494 -0.08749746 0.15879312 0.13074085 -0.0060175834 0.24282512 -0.13869262 0.09531677 0.17511019 -0.20456852 0.072245635 
-0.06497499 -0.16849992 -0.07656386 0.024092473 -0.054347478 0.2579128 0.2299859 -0.29663885 -0.017428625 -0.10930084 -0.0047962647 -0.2079533 0.21252728 -0.23651011 -0.06463609 0.10336422 
0.07773431 -0.1268328 0.15153445 0.19118637 -0.041661672 0.07788527 -0.13892512 0.1978874 -0.23259279 0.16926529 0.16296954 -0.12810159 -0.21741647 0.09586229 0.15455222 0.09859888 
-0.09444699 0.14183244 -0.098704286 0.108807236 -0.30146262 0.23612615 -0.15675525 -0.28768632 0.06898478 -0.14096698 0.32248935 -0.07632329 -0.1634481 -0.16725028 -0.090388946 0.27729842 
0.01818789 -0.1718896 0.097597785 0.047074977 -0.2199045 0.24813323 0.20334688 -0.11708512 0.25449973 -0.053993076 -0.028161582 -0.13447705 -0.19793153 -0.25171477 0.07646663 -0.04176124 
-0.1738525 0.11518831 -0.19324122 -0.05442274 0.063838735 0.20029834 -0.06504639 0.20263632 0.07464157 -0.061861128 0.25783077 0.26069888 0.099360615 0.06604983 0.13654922 0.27310523 
0.08411982 -0.017916838 -0.19358192 0.107152596 -0.072530426 0.05562616 0.119329244 -0.15222633 0.11662813 0.2101222 0.16638535 0.0015596547 -0.014824287 0.12938121 0.15021941 0.1792128 
0.28999174 -0.18495177 -0.06437817 0.083857186 -0.16066378 -0.0668939 0.16018414 0.16242088 -0.33099622 0.112172425 0.42430413 -0.08856368 -0.06689049 -0.11867084 -0.09145753 -0.2946487 
0.20985234 0.12942095 -0.1242533 0.00872864 -0.2227873 0.13403942 -0.15179305 -0.2638862 0.2274 0.2884379 0.24246277 0.22452432 -0.09755636 -0.23460774 -0.1958612 0.24779555 
-0.045167923 0.23020168 -0.2066552 -0.13292561 0.075967714 -0.2968625 0.080980495 0.19508474 0.34159958 0.28411442 -0.029461727 0.019314315 -0.058919832 0.29591444 0.13385153 -0.16926314 
-0.14195408 -0.17712581 -0.12365197 0.21263 -0.18002746 -0.1098854 0.22928771 -0.08662655 0.11416023 -0.06532608 -0.014765125 0.17011693 0.1836779 -0.24196039 -0.13684438 0.033727687 
-0.0467687 -0.09784404 0.04334105 -0.07260586 0.03941118 0.18957593 0.22901474 -0.08376044 0.01707334 -0.06341819 0.16909002 -0.11520799 0.25926894 0.16779967 -0.17902271 -0.0052349363 
0.094263084 -0.090419024 -0.24517177 0.059447147 -0.0520241 0.057629753 0.16475551 0.120138235 -0.08946711 -0.113347486 -0.073383175 0.14505272 0.15502584 0.045333326 -0.24345319 0.22421244 
-0.08480398 0.10910545 -0.117069945 -0.1604486 -0.030900246 -0.11871538 0.08107586 -0.18504898 -0.015218629 0.21040815 0.23842713 -0.18589245 0.22341648 0.1325874 0.021791618 0.13554925 
-0.09933484 -0.13648026 0.18681182 -0.008769362 -0.011714637 -0.22020748 -0.020266788 -0.13743094 -0.060024485 0.20830107 -0.25938377 0.3086359 0.17683722 0.08451512 -0.37839845 0.359396 
-0.18888924 -0.05214965 -0.26064935 0.0991829 -0.16628367 0.17470549 -0.02280992 -0.18557772 0.077518106 0.20470555 -0.09821027 -0.12996067 -0.0153803425 -0.047972452 0.15784682 -0.0072469884 
-0.007068428 -0.046917018 0.20403178 -0.039243024 -0.24414034 -0.06631468 -0.10581632 -0.00061613123 -0.14342412 0.22395894 -0.16070573 -0.054819133 0.10455263 -0.10176141 -0.056948658 0.10396551 
-0.11510619 0.0037242293 -0.055005923 -0.24455497 0.16346529 0.05250472 0.13027932 -0.27038136 0.15070178 0.15684412 0.057575036 -0.013022553 -0.047470424 0.086896695 -0.22409773 0.042113353 
-0.063898064 0.08500903 0.21761034 -0.29959583 -0.088980086 -0.012688287 0.04180766 -0.018509319 0.08952979 0.24607559 0.0473171 -0.1320862 0.17573924 -0.18509156 0.2436842 0.20042025 
-0.23136953 0.057722017 0.0048057316 0.08769997 0.027167117 0.13815059 -0.052580923 -0.110153265 -0.17583819 -0.19055772 -0.2131041 0.16665342 0.2446329 0.03644783 0.2194411 0.18881655 
0.17407571 0.01577501 0.13280357 -0.0009716524 -0.2847978 -0.007309207 0.06274331 0.37357172 -0.19694929 0.19844294 0.14202265 -0.025606897 -0.15351073 0.072349556 0.30713913 -0.089186415 
-0.0017626374 0.14639749 -0.09106917 0.14170493 0.09408739 0.2116597 -0.36323574 -0.038997423 -0.18963379 0.20730147 -0.08559006 0.21712169 0.032064192 -0.067159325 0.04476982 -0.11443023 
-0.27324557 -0.021226345 0.042037327 0.1727419 -0.092090115 0.15865396 -0.15592423 0.0078082685 0.25099015 0.0018970071 0.22988023 -0.19195789 0.2600776 -0.12974763 -0.25838813 -0.0024520843 
-0.18261236 -0.25316435 0.03452721 -0.15311918 -0.09486105 0.18880399 0.0154303 0.06734202 0.12929367 0.07960628 -0.23166153 0.11355543 0.005395816 -0.08309432 0.054234665 0.2793576 
-0.1258236 -0.24380063 0.026777474 -0.02181135 -0.13554758 -0.12245751 -0.13240437 0.14972338 -0.21857165 -0.12807557 0.10610935 -0.15358931 0.22233038 -0.2835403 -0.008625777 -0.084339514 
0.2549343 0.02626689 -0.13451466 -0.103979506 0.21614785 -0.21958543 -0.092214264 0.12738147 0.046881143 0.09762309 -0.10758599 -0.11179433 0.08353817 0.23237927 0.010897204 0.070572674 
0.06649666 -0.32384145 0.07746185 0.1850482 0.085828096 -0.13989176 -0.16864605 -0.309216 -0.09794199 -0.043197934 -0.29108402 0.24879225 0.036970977 0.012236647 -0.3012589 0.14081305 
-0.04286401 0.16889538 -0.19722036 -0.102384366 -0.04521256 0.24811052 0.27563554 -0.15664291 0.26165947 -0.05387666 0.113156475 0.055478062 -0.032623135 0.094576254 0.029253388 -0.15803835 
-0.26364723 -0.26788697 -0.08027804 -0.06997117 -0.09511766 -0.123028114 0.059485126 -0.17419973 -0.07970201 -0.0947674 -0.035222474 0.15943485 -0.15759411 -0.22428504 0.24141948 0.030318152 
0.21137494 -0.18398337 0.21991877 0.047367092 -0.096644215 -0.037518486 -0.13756903 0.2100894 0.10023797 0.28394789 -0.08496298 -0.039229814 0.26225263 -0.032642726 0.2731694 0.15378624 
0.20544878 0.19163607 0.10317955 -0.18265685 0.08972773 -0.31239587 0.28973404 -0.1845882 0.17040396 0.10957659 -0.020982148 0.19942002 -0.2323488 -0.19337259 0.3512133 0.34689432 
-0.051457137 0.026827855 -0.2729811 0.12868881 -0.17921092 0.024429346 0.06113537 -0.2044658 -0.23959422 -0.026587276 -0.071668446 -0.14550896 0.010881132 -0.19373816 -0.055840004 -0.0720865 
-0.0072665475 0.066440135 -0.21956852 0.07025374 -0.12940091 0.27132758 0.024328958 0.12586494 -0.13135381 -0.19305366 -0.03222184 0.08947552 0.22717802 -0.016702216 0.104764774 0.18242234 
0.0072552077 0.1977296 -0.25700513 0.07724118 -0.041709818 0.24069035 0.18074608 0.0044689723 0.17369124 -0.055913854 -0.15494137 -0.3591049 0.0041667353 0.11759957 0.16552927 -0.20309906 
-0.20123789 -0.12553614 -0.19796193 -0.1881071 -0.22646593 0.26232585 0.08261468 -0.24409491 -0.03950338 0.042835154 0.16623528 -0.1065889 0.13041706 -0.09586522 -0.041787636 -0.2167804 
0.10695395 0.091891386 -0.0753094 0.17082058 0.13771366 -0.20287105 0.3134753 0.013429499 -0.34812975 0.051937956 -0.107702084 0.15284927 0.18750681 -0.13113844 -0.2730568 0.14411773 
-0.2540402 -0.17755604 0.034447957 -0.059634138 0.08445117 -0.045638375 0.05859126 -0.13358335 -0.18896265 -0.0994425 0.050691124 0.20266013 -0.05795899 -0.20871806 0.1354472 0.025028773 
-0.2519446 0.14461443 0.054451685 0.10117015 -0.25549048 0.19284652 -0.20647287 -0.14831962 -0.049143717 0.2404372 -0.19304171 -0.055778723 0.2102221 -0.04279837 -0.2198913 0.23242554 
-0.092066504 0.12559985 -0.2918043 -0.24011365 -0.10132435 0.043785904 -0.18090363 -0.20509934 0.060200624 0.22288948 -0.17313437 -0.008094835 0.0854028 -0.048129622 0.20363621 0.12573078 
-0.11234285 -0.27387545 -0.0061291447 0.1707421 -0.04817598 0.07696036 0.2273311 0.17711762 -0.16521859 0.223908 -0.20593423 0.0683687 0.07464912 0.18338344 -0.15988164 0.2559832 
-0.045729503 -0.2763436 -0.21627973 -0.07182557 -0.07936533 -0.13148668 0.18082748 -0.02971313 0.14626001 0.07121348 -0.068187654 0.15353818 -0.0031285775 -0.28281993 -0.15589869 0.12239911 
-0.07999101 0.16937456 0.043946885 -0.2539052 -0.25358686 -0.13314517 -0.11661153 -0.15179893 0.2570979 0.21571009 0.0122695 -0.17980886 0.070491746 -0.10289884 0.16179428 0.2786469 
0.09209226 -0.11292552 -0.19928631 0.028381834 -0.06911845 0.20015003 0.11521438 0.040056717 0.24463283 0.009767812 0.055531353 0.0028267899 -0.1533781 0.12975504 -0.15614685 0.1496744 
0.065778546 -0.20903489 0.030376941 -0.15240161 -0.06414639 0.19845052 -0.054819047 -0.15708351 0.09264015 0.20632327 -0.047829818 0.16304447 0.22899228 -0.1992755 0.14474739 0.015850333 
-0.0849422 0.13133326 -0.25690958 0.14583631 -0.0022259534 0.24848801 -0.19602504 -0.042972945 -0.18475102 0.2839101 -0.24273096 0.21564214 0.18106775 -0.22781777 -0.24435276 0.2575604 
