128 1
-0.09101859
0.15205629
0.18273109
-0.12892145
-0.17933147
0.15151218
-0.14467344
0.3001752
0.28736585
0.077161536
0.15769944
0.016236795
-0.10903128
0.06962486
0.33699355
-0.14364746
0.017715266
-0.16526541
0.25511187
-0.034676112
0.1358845
0.14440536
0.247332
0.1011201
0.13743408
0.29968128
-0.0053397133
0.08373099
0.22865854
-0.18858825
0.19105443
0.11677048
0.26212734
0.07009622
-0.14090091
-0.017629337
-0.14263396
0.11498279
-0.108254
0.13474888
-0.1140968
0.21425469
-0.16837555
0.30749086
-0.07431194
0.013204118
0.08340422
-0.05151915
0.28888646
0.10024688
0.078719474
-0.13348779
-0.058807913
0.28782147
0.18638083
-0.11229888
0.08318884
-0.0029643425
0.23694414
-0.14917322
-0.114250176
-0.006516871
-0.043699436
0.072403505
-0.17831531
0.14969714
0.27058262
0.22991808
0.21592288
-0.11775193
-0.051675066
-0.12944339
0.24453355
-0.15448599
-0.13624832
-0.112973936
0.107801296
0.28800315
0.30474004
0.21020117
-0.0017141153
-0.13245267
0.02522935
0.018066645
-0.11881617
0.00097160874
0.3384575
0.09995166
-0.15475668
-0.16625491
0.0010221761
-0.12267147
-0.07207043
-0.108840145
-0.17156537
0.16538042
0.10901425
-0.14371355
0.019788336
0.19909379
0.2137694
0.14978564
0.2853474
0.12885842
-0.047159623
-0.12165995
-0.05797504
-0.13681634
-0.068544865
-0.13070764
0.14772175
-0.12247367
0.04476571
-0.10506963
-0.1683878
-0.012417916
0.25682858
-0.020188734
0.11342799
0.11622534
0.3091644
-0.16336115
0.11452683
0.26095954
0.22139679
0.20978235
-0.091278896
0.10416695
