512 128
0.057017248 -0.097710036 -0.012431848 0.08053777 0.101633154 0.0632492 -0.06358399 0.0012654819 0.060461536 0.011183528 0.083658986 -0.06733783 -0.04349605 -0.038491175 -0.044659983 -0.04137742 -0.08311088 -0.067212835 0.11388248 -0.011017736 0.10135362 0.017406108 -0.059488513 -0.0043101474 0.049031205 -0.0499667 -0.014028904 0.055968914 -0.05482149 0.0037084047 -0.002921895 0.02323211 0.0018894204 -0.026451439 0.07669159 0.044775512 -0.027794776 -0.027675964 0.020980299 -0.052459706 -0.04767714 0.08650377 -0.05629069 -0.035268605 0.06141858 0.045317024 0.003188143 -0.005512152 0.06978913 0.05391734 0.0676244 -0.0031136759 0.094758645 0.07002073 0.005545372 -0.0055018924 0.0037077295 0.057980385 -0.056158677 0.0079774195 -0.059474934 0.03904894 -0.055320248 -0.027806852 0.0046869353 0.07500613 0.06299953 -0.060673643 -0.023223625 -0.05987608 0.057280384 -0.025890619 0.11216045 0.05057162 0.07205287 -0.06346859 0.06138627 0.015813796 -0.018571032 -0.04603915 0.05612868 0.08196022 0.010402558 0.03893729 -0.021112932 0.059641413 0.023317302 -0.058317613 0.022229915 0.059730448 0.07053342 0.012660632 -0.101053424 0.06504017 0.04777615 -0.06033733 -0.05385176 -0.025312105 0.048585508 0.032989897 0.017439054 -0.015724204 0.081966504 0.05973708 0.07750229 0.025305329 -0.027446298 0.08940597 -0.013953159 -0.037923608 0.0010043898 0.10055796 -0.067829885 0.065329194 0.03201228 0.060509376 0.038892984 0.04901257 0.036859185 0.052391954 0.04325715 -0.036267318 0.09715507 0.043459885 0.033840414 0.082579285 0.08482845 0.010422383 
-0.07482878 0.03265113 0.06359359 0.004655155 -0.0568485 0.04852872 -0.035612214 0.05194142 -0.061008528 0.015698927 0.05713183 -0.0146188475 0.0043205046 -0.055477504 0.071759485 0.017733464 0.024441836 0.06616537 0.053694036 0.034133896 -0.048425008 -0.007405158 -0.014689043 -0.06897668 0.08969327 -0.0014945735 0.08982569 0.02436355 -0.030016122 -0.013510642 -0.029039074 0.06887408 -0.086728565 -0.0052412087 -0.07266924 -0.022906573 0.004654169 -0.037849218 -0.054628264 -0.09285969 -0.023040947 0.029962145 -0.031046811 0.0100348815 0.08137986 0.0137896 -0.03710283 0.079620525 0.026809365 0.034055933 0.064587556 0.025637569 0.06694518 0.082265384 -0.0034988075 0.10304283 -0.063861884 0.10286256 -0.0694691 -0.030473474 -0.007500652 -0.002282212 -0.022114044 0.008412309 0.06550396 0.10877129 0.06822674 0.056912962 0.08211085 -0.12962759 0.09202631 0.034471717 0.10374315 -0.042795602 0.05583645 0.014128396 -0.05641245 0.0031144822 0.034497593 -0.034960475 -0.07019603 0.101161584 -0.016524212 -0.028614435 0.024423359 -0.047196604 0.040212896 0.0915915 0.036034506 0.029831931 -0.06868745 -0.047988016 -0.05376112 0.07001614 -0.006981058 -0.019652348 0.12667064 0.021176986 0.11059603 0.11016698 0.014067864 -0.019440837 0.045242406 -0.023869207 0.06287424 0.09990731 -0.004776097 -0.033732545 -0.05320518 0.08049218 0.023430636 -0.029635515 0.003929063 -0.04645971 0.12518519 0.03637211 0.06536138 0.009012097 -0.005040102 0.007163203 -0.010472663 -0.06924451 0.109720685 -0.009732741 0.018337786 0.0026845217 -0.0015135811 0.08923807 
0.031758375 -0.039947826 0.041342642 -0.03212617 -0.031017676 0.007318371 -0.010941916 0.085090175 -0.023703504 0.044314694 0.07553569 0.012673739 0.022622673 0.048792023 0.0726624 -0.056104623 -0.068784826 0.016562631 0.0008221266 0.058302328 -0.054372504 -0.092871666 -0.026289491 0.068579726 -0.07396328 0.04964218 -0.063851334 0.10683393 0.028350452 0.06700021 0.0035183209 0.048167504 -0.008509377 0.06960277 -0.057852812 0.036310732 0.03545247 0.031955816 -0.022623139 -0.032326147 0.07697747 0.023882926 -0.046235345 0.011669551 -0.053955436 0.06363226 -0.056154445 -0.022588557 0.09072751 0.003842145 0.012910972 0.09226968 0.10479809 0.06201133 0.07018248 0.10490372 -0.0005758627 -0.045459267 -0.032941695 0.015278319 -0.019305607 0.0673277 0.080447316 -0.006241096 0.12548894 0.07425817 0.064797126 0.0064041708 0.11952455 -0.12309785 0.0034546256 0.040380783 -0.058573306 0.0019382645 0.009438527 -0.05371711 0.037459716 -0.04157417 -0.0019403714 0.031647306 0.023563588 0.03996872 -0.09206069 -0.034067713 -0.010283527 0.028132567 0.02738563 -0.0013407972 -0.026337484 0.017563341 -0.0707926 -0.010214313 0.047959182 0.06508686 0.047450807 0.016222555 0.048398398 0.051566143 0.115548864 -0.012630186 0.08642128 0.0047825496 -0.040296793 -0.08301337 -0.04002806 -0.0043366337 0.046223674 -0.057974473 -0.012835718 0.0373119 -0.050038338 -0.0021450706 0.082568355 0.0116145415 0.049118318 -0.017075794 -0.0054120594 0.034103736 -0.034781374 0.083901346 -0.0014102266 -0.07237186 0.030309042 0.0031653196 0.08291992 0.015257652 0.039665557 0.039477643 
0.030331595 -0.0068263225 0.035285316 0.0033879806 -0.038988367 -0.06813342 0.12220481 0.04641115 0.023598297 0.04622616 0.017992137 0.07510574 -0.1334909 0.08600115 0.18719776 -0.0936173 -0.084542416 -0.030847402 -0.011522101 0.055923402 0.08453566 -0.3279062 -0.10715663 -0.035392202 -0.09279445 -0.104885586 0.0070765107 -0.03781219 0.044819552 -0.056239035 0.092369564 0.019224033 0.0168539 0.041501347 -0.024151178 -0.13362245 0.039482523 0.051552836 -0.030529888 0.065426014 0.041463397 0.12820183 0.05964746 0.015488191 -0.03518085 0.014827563 0.062461913 0.048215024 0.03727081 -0.16965678 -0.04072279 0.07962269 0.08480086 -0.004347946 -0.020149479 0.041124236 -0.09886141 0.17368282 0.09659558 0.062204216 0.03097585 -0.037660055 0.03024425 0.020303102 -0.06750101 0.0049236794 0.090907685 0.06071146 -0.046201356 -0.13185798 -0.024482245 -0.106439695 0.06386744 0.120710425 -0.03164728 0.036610607 0.021944204 0.0076219244 0.10130054 0.05304594 -0.078580394 -0.021805089 -0.041504983 -0.10537181 0.08477115 0.03929062 0.087105 -0.031070374 -0.086600244 -0.03157678 0.104407676 -0.08898727 0.0073033688 0.03972035 0.15182042 0.023807546 0.012991435 0.11381374 0.050441895 0.09826549 -0.0024797597 0.04951713 0.13231146 -0.078058384 -0.015026041 -0.013653321 -0.047924235 0.07762806 0.030596154 0.08866351 0.06940445 -0.04831211 0.038852092 0.12288191 0.10496217 -0.046650905 0.007884811 0.058426425 0.21677503 0.06035214 -0.054031756 -0.014272297 -0.008532367 0.0381401 -0.1113609 -0.028693946 0.056170825 -0.018644588 
-0.031190606 -0.27087602 -0.2781834 0.15469304 0.08028422 0.08230604 -0.113329396 0.04202962 -0.18703263 0.07247739 0.103505254 -0.11960598 0.058327444 0.004659267 0.14869718 0.11588574 -0.16481224 -0.00088454824 0.052225474 -0.033773467 0.13278969 -0.24368586 0.109760724 -0.30135947 -0.08037479 0.15642105 -0.009484037 0.09886201 0.07021093 0.09946949 0.016371371 -0.041706678 -0.089861274 -0.24120213 -0.030891992 0.09073046 -0.03928748 0.04375484 -0.015794 0.22362727 0.042792354 0.029141957 0.21020047 0.054166913 0.37534773 -0.094319 0.0051908228 -0.06946021 -0.01778519 0.3104215 -0.07255241 0.042760644 0.07121592 0.08986929 0.006651308 -0.00833511 -0.090968914 -0.13285352 0.13379596 -0.059966806 -0.08361002 0.11158641 0.0030717058 -0.07806929 -0.006320184 -0.04177928 0.100966714 -0.13510762 -0.082570314 0.055632044 0.07735728 0.066909164 -0.08944218 -0.0752839 0.08843568 0.15515997 0.15937713 0.0074113077 0.025091792 -0.047731385 -0.02357518 0.062243067 -0.16349432 -0.082481116 -0.059710782 -0.00076647446 0.052009217 0.03109845 0.025522491 0.14608513 -0.07372323 0.035374537 0.069335476 -0.0710728 -0.12454219 -0.04126529 0.16727024 0.025853058 0.013271135 -0.052881118 0.061548445 0.17437178 0.07054752 -0.06989593 0.2032595 0.08321989 0.026876783 -0.1552483 0.042541023 -0.04190347 0.08212595 -0.028303346 0.22930825 -0.04390107 -0.0069686715 -0.07175573 0.09206046 -0.04307109 -0.08489805 -0.05057379 0.11466804 0.21169618 -0.09928392 -0.072421625 0.21091728 0.04417249 0.059380498 -0.050698236 
0.07047145 0.06276886 0.018722301 -0.010886368 -0.027082322 0.09201766 0.1748277 0.098963186 -0.028902544 -0.0608234 -0.12374607 -0.18521519 0.048401006 0.31724626 -0.09160661 0.251058 -0.08191378 -0.03187216 0.045426257 -0.013162302 -0.13949302 -0.030997727 0.024884855 -0.14480947 0.13546763 0.17664741 -0.10988722 0.0287798 0.08593112 0.009807496 -0.030766565 -0.1674876 -0.12632132 0.0551077 0.010462299 0.17043033 -0.0023006215 0.111922584 0.08141317 -0.004110609 -0.08829773 -0.08143824 0.12839952 0.011823476 0.06860605 0.000903035 0.00846482 0.16963585 0.0029959127 0.13461599 0.09017441 -0.27812055 0.05208313 -0.07484793 0.0876415 -0.00747063 -0.1579643 -0.083486736 -0.31250033 -0.060731515 0.059748698 -0.010515711 -0.103406 -0.037535675 0.044115044 -0.045839075 0.054181796 0.017433396 0.07645504 0.2756737 0.017105196 0.02491994 0.04242307 -0.26076612 0.02551314 0.0015421867 0.2882537 0.03654757 -0.027027879 -0.0739512 0.068369865 -0.07344243 -0.0120967375 0.032318566 -0.139909 0.019118091 -0.022544574 -0.1258631 0.2384064 -0.0057089315 -0.2642451 0.06474983 0.5819528 0.03853298 -0.0040538236 -0.05720886 0.009102746 0.10816753 -0.0982413 0.03972173 0.100459926 -0.046696324 0.083585106 -0.47843328 0.18356162 0.0976287 -0.060880974 -0.13562101 -0.0106002195 -0.075867996 0.040976375 -0.02463073 -0.43019685 0.23078084 -0.17782773 -0.09553656 0.06685283 0.0045269467 -0.047308587 -0.08026897 0.018264415 0.07612487 -0.034155987 -0.08995118 -0.05740902 -0.07022794 0.019084979 -0.005912751 
0.02058657 -0.38626146 0.28847605 0.025727777 0.08922791 -0.0075791874 0.20233905 0.04723234 -0.23418565 -0.13489498 0.03638466 -0.27853277 0.02130051 0.22020799 -0.023141373 -0.2214596 -0.07350599 -0.0955492 -0.00011046258 -0.008339073 -0.5639834 -0.46368212 -0.05344717 -0.6071978 0.061765946 0.024277817 -0.06839928 0.092553765 0.16187027 0.0005083355 0.15833357 -0.032117806 -0.013035946 0.054321792 0.036217142 0.08481064 -0.04011974 0.07687353 -0.035285342 -0.03335873 0.0022912952 0.056789808 -0.037502058 -0.024229316 0.14951141 -0.0768192 -0.015962344 0.057388857 0.029034069 -0.060645666 -0.046031687 -0.022929471 0.048758246 0.038673323 0.1559503 -0.16267624 0.028010322 -0.2405129 -0.015585597 0.037844542 0.0021361061 -0.044362064 -0.4204971 0.058905054 0.021804214 -0.24942851 -0.053642407 0.0317964 0.10115068 0.13125089 -0.23747434 -0.10014139 0.0505041 0.231172 0.045318305 -0.19393955 -0.38786897 0.22154278 0.01581793 -0.0020483912 0.057209313 -0.01154388 -0.5151779 -0.11057366 -0.1030043 -0.012898655 0.05068941 -0.2380269 -0.15471338 -0.13917747 0.047722198 -0.07795427 0.27998006 -0.06928054 -0.2275095 -0.11427436 0.014785447 0.19796956 -0.044397756 0.15635459 0.057214934 -0.13912922 -0.013148332 -0.026282929 -0.1356678 0.03777188 0.042902604 -0.21726918 0.027022675 0.042430416 0.0658892 -0.003253282 -0.13104191 -0.037571207 0.08796775 -0.21030584 -0.038263608 0.010040337 -0.2406668 -0.065153435 0.06904329 0.09132797 -0.07241909 0.003735714 0.103330284 -0.047733374 0.011520595 0.12426301 
0.041431643 0.047338314 -0.055818383 -0.053724058 -0.047324944 0.101725385 0.06319607 0.029354095 -0.037180223 0.102813505 0.034726825 0.009571996 -0.0059036044 -0.022969479 -0.02722849 -0.046609063 -0.10634989 0.10998851 -0.012938745 0.009016375 -0.08644498 -0.0149787795 0.0024855211 -0.038841102 0.005044007 0.097359136 -0.0063619115 0.04972098 -0.02393975 0.024860317 0.0784126 0.06745997 -0.05686351 0.040123332 -0.058319364 0.01003899 0.009775924 -0.060292292 0.04360452 -0.096318856 -0.009607089 0.056927647 -0.05111767 -0.021715276 -0.011151446 -0.0025873114 -0.029488761 0.0049266643 0.07472658 -0.056844875 0.070439346 -0.055859152 0.024703486 0.102199614 -0.0614534 0.067278914 0.059767507 0.0078453375 0.0054403157 0.07387447 -0.07328684 0.08195787 0.011475934 0.0045098453 0.060933515 0.061133124 0.04348416 0.0157412 0.053780176 -0.12542242 0.0876384 0.07245553 0.012975889 -0.08677158 -0.064964876 -0.022740304 -0.056912024 0.022075597 0.0047157933 0.10214732 0.040177967 0.055609237 0.026577942 0.016010514 0.040039327 0.016784059 0.07061128 0.022475954 -0.013258405 -0.055128288 -0.03819011 0.013274723 -0.047826465 0.090912275 -0.057927866 0.035655435 0.029343037 -0.009329657 0.10509223 -0.0125641795 0.0429071 0.05876594 -0.05445531 -0.06415321 0.008536085 -0.035430085 0.06075242 0.087633505 0.07010246 0.04482225 0.08394866 0.11705438 -0.02858686 0.07845135 0.116793774 0.027630705 0.018083798 0.03305601 -0.03134691 0.001722615 0.1122262 -0.026956445 0.098478645 0.09677323 0.1018015 0.016730867 0.11108965 0.05292059 
-0.08125277 -0.045589767 -0.069668286 0.065154254 -0.029881287 0.03507034 0.030814804 0.06474996 -0.0033774592 -0.058298066 0.096105844 0.02116608 0.07738946 0.017931731 0.07117399 -0.009822172 0.0007321561 -0.012896475 0.03389979 0.06206918 0.04137264 0.028857186 0.09176115 -0.059549205 0.028599167 -0.040715054 -0.05599004 0.071900904 0.009584957 -0.012735729 0.07498426 0.10101585 0.0347006 0.04509747 0.07668258 -0.051343303 0.03751518 0.043753028 0.058242932 0.04591471 -0.010849081 0.066430435 -0.09231325 0.048424356 -0.028957687 0.084727585 -0.053829297 0.07319613 -0.044740338 -0.095122196 0.10688661 -0.08058699 0.116397984 0.10979277 -0.039292883 -0.06357661 0.058754515 -0.00348295 -0.015590292 0.09672605 0.030450603 0.08525708 0.075189084 -0.006730262 0.015801411 0.06076719 0.018363424 0.04596468 0.10954933 -0.006298183 0.017909167 -0.061455976 0.058815673 -0.087383874 -0.029320572 -0.08848845 -0.039602123 0.037272487 0.0021466466 0.04478756 -0.0019260807 0.058691032 0.0015202891 -0.062347338 0.08746199 0.058092672 0.051472947 0.085594505 -0.059137117 -0.019226123 0.049357437 0.009167874 0.06972048 -0.013310825 -0.034470838 0.095888324 -0.041674778 0.061633177 0.081468806 0.05106027 0.04021459 -0.07313118 -0.026618328 -0.07187955 -0.06169188 0.088432714 -0.013935312 -0.04532664 -0.028226346 0.07597603 0.03133925 0.07004762 -0.014880934 -0.053360727 0.054174684 0.0020574136 -0.063086666 0.055777658 -0.02056003 0.11437898 0.034270655 0.00863728 0.09915551 0.036999427 -0.015367189 -0.047803942 0.03629963 -0.015595279 
0.06281232 -0.059247926 0.18730262 0.19265588 -0.068983965 0.074985154 -0.012216302 0.1432751 0.060055986 0.061068416 0.054615464 -0.0010863921 0.034087982 -0.013436421 -0.0041045044 0.10332449 0.22275147 -0.09342837 0.08603511 -0.16502416 -0.4155064 -0.19224806 -0.0914164 0.013577869 0.15422268 -0.012886418 -0.03665108 -0.076520406 0.10379653 -0.046037573 0.090188116 0.11228905 -0.035091 -0.0072274935 -0.07287026 -0.0734153 0.058913257 -0.10872698 0.03160863 0.0669658 0.02135873 0.027333789 0.20848171 0.020629661 0.108491234 0.09197336 0.004757829 -0.11602952 -0.09884005 0.07689895 0.06703619 0.22546533 -0.034557063 -0.010663958 0.04546006 -0.052980613 -0.020489788 0.08192973 0.002123844 0.06297438 0.064854376 -0.041299727 -0.1517252 -0.040618412 0.19082944 -0.07967642 -0.029310394 -0.06393641 -0.03931592 -0.2091472 0.067585476 0.01249118 0.094683304 0.27261132 -0.11321314 0.00077745965 -0.06458908 -0.099087544 0.092593156 -0.051012915 0.046527654 -0.081540145 -0.28794718 0.13668282 0.056961276 0.035879333 0.07824739 -0.061359443 -0.2891603 0.022410404 0.02246676 0.038928192 0.21507587 -0.018872706 0.16491155 -0.10194738 0.016675187 0.05058554 0.10450989 0.0108506875 0.029327 -0.029748071 -0.107788965 -0.12915389 0.1732533 0.032045987 -0.05926384 -0.04224877 -0.051934797 0.13875611 -0.017427824 0.028749447 -0.15203589 -0.06838867 0.14436524 0.0044043525 0.0105512105 -0.004750011 0.055429578 -0.0024669564 -0.008104126 0.07973316 -0.056894816 -0.035676524 0.0807981 0.085291944 -0.036604885 -0.09773166 
-0.014106914 -0.05795177 -0.009651791 -0.04517484 0.049795777 0.108493395 0.023198798 0.07606061 -0.05081131 0.07020569 0.046736486 -0.03957303 -0.032063503 -0.04633875 -0.0039899475 -0.06260357 0.049012117 0.058530238 0.05692215 0.008735675 0.029267479 0.028204156 0.014034542 0.028151203 0.046436906 0.0038888236 0.111504264 -0.056404196 0.034677878 0.0109495055 0.06447129 0.06778097 0.037925705 0.011501193 0.018837646 0.03029897 -0.08136675 -0.007857775 0.07653151 -0.0737986 0.11138707 -0.021544963 -0.03696396 0.011534461 -0.011042049 -0.06254198 0.04128766 -0.036211044 -0.036931682 0.05552038 0.0068628914 -0.008053521 0.101559855 0.04548331 0.06809038 -0.050781447 -0.08296207 -0.0377891 0.045004316 0.09113028 0.028173486 0.09608943 0.087597705 -0.0096414 0.051169284 0.07459896 0.08256712 -0.014996384 0.030171983 0.030191792 0.018263908 0.07454194 0.089083694 -0.06594888 0.0022970284 -0.04181323 0.0029959015 0.027433306 0.074354894 -0.013071019 0.017078754 0.037199147 -0.026938492 0.06389452 -0.023063518 -0.08409762 -0.041701775 0.022195904 0.054704793 0.090632945 -0.09106914 0.058976986 -0.118670546 0.08945342 0.0482423 -0.023120742 -0.020681638 0.054512292 0.08257865 0.106225275 -0.019978216 0.06637009 -0.078514665 0.11066576 0.04336604 0.10230615 0.05105743 0.08974323 0.06594617 -0.059922542 -0.071808316 0.060318515 0.0575364 -0.049543347 0.08660125 -0.029579107 0.01344724 0.07538924 0.07000209 -0.00967289 0.063273646 -0.06279023 -0.06181368 0.0993983 0.07117551 0.055432864 -0.0050122985 0.049508166 
-0.07168368 -0.027306462 0.059368767 -0.05154781 -0.000142799 0.03506781 -0.07982945 0.016526703 0.032744803 -0.03439915 0.09552456 0.03347391 0.06574225 0.01763403 -0.00060100184 0.03337908 -0.08032991 0.038099367 0.07413165 -0.06432023 -0.054228462 -0.015045222 -0.019221429 0.05343014 0.012242325 0.038423385 -0.02801237 0.018170875 0.037315663 0.07033094 -0.06890069 0.088956825 0.01843206 0.06032246 0.020706866 0.066901274 0.05027396 -0.028222926 -0.023299392 -0.053759918 -0.003839625 0.11199622 0.047496233 -0.00694727 0.016827095 0.08416759 0.05916854 0.100157276 0.0029432965 -0.018934557 0.048012126 0.040016096 0.113538325 0.008837246 0.058608864 0.021761829 -0.06034461 0.0101510165 0.032766704 0.018069627 0.04568793 0.09009638 0.03139149 0.05555629 0.11189459 -0.027302656 -0.04007021 0.0959424 0.011092827 0.013616575 -0.024887072 0.0003862034 0.02755563 -0.036493894 0.077464655 0.07428238 -0.029507067 -0.062236786 -0.061993264 0.036623877 0.089455426 0.02811945 -0.09187758 0.038283173 -0.043563135 -0.016018517 0.09142641 -0.025689093 0.034973856 -0.014353821 0.065483056 0.050021656 -0.061690968 0.10300355 0.10097769 0.071047805 0.056453526 -0.070852935 0.0885245 0.031023525 0.045478337 0.06976097 -0.0619824 -0.031057913 0.071417145 0.07737711 0.015994506 -0.066523574 0.064634144 0.002618812 -0.06648421 0.016931104 -0.061358012 -0.09313931 0.0016137804 -0.03783525 0.005664198 0.084703565 -0.07267042 0.006304694 0.080399126 0.022079045 -0.008752293 -0.062186725 -0.04540714 0.08962064 0.1154577 -0.016366119 
-0.08640828 -0.06786602 0.082332395 -0.08779346 0.051054783 0.08342821 0.016859844 -0.07559533 -0.035487015 -0.051359054 -0.031210478 0.0037087246 0.052061774 0.019278318 0.03340611 0.043180544 -0.08433943 0.061557148 -0.07937876 -0.010831072 0.057841115 0.081262514 0.0035332553 -0.074092254 -0.0030470714 -0.03051101 -0.08563386 0.070055716 -0.081491984 0.057611406 0.039221726 -0.08792725 -0.0751215 -0.03451402 0.049771093 0.0020121655 0.024526916 -0.027295027 0.02050466 0.06779406 -0.05150544 0.008027807 -0.059314165 0.010473392 -0.077305615 -0.03661534 -4.5873225e-05 0.029277273 -0.079335034 -0.019923016 -0.05077007 -0.050560307 -0.032645877 -0.041807245 0.0019472514 0.018624067 -0.053014718 -0.08122019 -0.07327573 0.059906207 -0.062234953 0.005610028 0.016674478 -0.015775777 -0.06867877 -0.017114261 0.043555956 -0.06044814 0.04498856 -0.071843356 0.06368389 -0.07201972 0.01431939 0.024542563 0.08679362 0.0017229393 -0.045985058 -0.035734095 0.081455566 -0.037926294 0.0329903 0.03381596 -0.0029692398 0.012920344 0.06045992 0.03689179 0.05371857 -0.07962217 0.070209496 -0.06372605 -0.03173058 -0.0662063 -0.0765048 0.042056285 0.04749868 -0.019590411 -0.05093436 0.023590073 0.0566451 -0.051540006 -0.043444917 -0.012916034 -0.07140268 -0.032974355 0.08447043 -0.008479234 -0.030469052 -0.06226848 -0.07029711 -0.056925524 -0.07165728 -0.07976442 -0.020173594 -0.014449701 -0.015152447 -0.07227839 0.045568712 -0.01323201 -0.06632351 -0.022742674 0.076936476 -0.032000173 -0.07423554 -0.05128778 0.06678062 0.057941988 0.0687876 0.07548527 
0.023264147 0.029483955 -0.010104657 0.053312708 -0.06289032 0.05205434 -0.07654369 0.032702968 0.07147656 -0.037228175 0.03534102 0.0011700512 -0.049201544 -0.03578014 -0.037101984 -0.031128202 0.045822784 0.01284106 -0.04682872 -0.07766185 0.02126389 -0.04144856 -0.027304573 -0.039144423 -0.08133533 -0.06894681 -0.02967266 -0.05508844 0.072484836 -0.07114558 -0.027397662 -0.010406643 -0.013327374 0.08514203 -0.08120438 -0.0007281054 0.08845381 0.015484071 -0.017081678 0.010503523 0.07662016 0.08129393 0.070031546 0.047273885 0.0843301 0.03646324 -0.01561469 -0.017021623 0.028289523 -0.07115092 -0.05974572 0.06558063 0.03645769 -0.045264434 -0.061417438 -0.0642428 -0.059141986 0.06524807 0.06461189 -0.01429078 -0.06187267 -0.078936614 -0.048238 0.011518913 -0.051356137 -0.036794778 0.05152661 -0.053098015 -0.05034158 -0.06572096 -0.027065124 -0.039522868 -0.024219489 -0.030407561 0.055728905 -0.02906203 -0.017863438 -0.019136928 0.03581508 0.008234949 -0.03421639 -0.08588892 -0.062461037 0.05283411 -0.081409335 0.0750181 -0.055689804 -0.011996844 0.013176598 -0.016829006 -0.08280683 0.031182038 0.04257911 -0.07158609 -0.009316422 -0.026545394 -0.06904125 0.00870655 0.073736526 -0.031877276 0.05474337 -0.030497793 -0.030890256 0.0038284883 0.017848082 0.06538605 0.06315883 0.013656862 0.028802387 0.023424327 0.052493412 0.011989387 -0.05859952 -0.056376398 -0.021771327 0.024451599 0.013539131 0.02405618 -0.033561606 -0.08554851 -0.0030395205 0.0021992342 0.08865481 -0.08404431 0.08194897 0.06139012 0.026381578 -0.027767284 
0.07713671 -0.048969947 -0.05327885 -0.035739362 0.03047087 -0.045889568 -0.07837977 -0.04211527 -0.03952244 -0.009476134 0.07220541 -0.036625054 0.03329468 -0.0006439649 -0.021413099 -0.008220179 0.014816125 -0.027222838 0.058043852 -0.051630482 0.10140021 -0.011082822 -0.02024035 0.06747558 0.08023763 0.00048951374 -0.06802367 0.018980833 0.06141236 -0.04856478 -0.051083703 -0.0068096984 -0.04177551 0.029780786 0.055689458 -0.002566679 -0.026749335 0.09887059 0.10000556 0.023047002 0.013929295 0.0865604 -0.06790547 -0.060115438 -0.09062684 -0.08478199 -0.056150112 0.070356846 0.047852527 0.009400003 0.07311265 -0.0770772 0.0722724 0.041651424 0.017127013 0.043638777 -0.07624916 -0.052750736 -0.07309436 -0.04595366 0.071245484 0.040761545 0.082161486 -0.06376644 -0.0070665875 0.03570052 0.103266925 0.081692204 0.07999275 -0.092355035 0.009820903 -0.02465666 0.08508559 -0.015898148 0.079932265 -0.10245643 0.043266688 -0.006231028 0.09255625 0.08770296 -0.045875005 0.07091637 -0.0512557 -0.10775759 0.033584032 -0.06913587 -0.03467501 0.05145561 -0.008505813 0.087827876 -0.022574354 0.010420879 -0.059511367 -0.03509848 -0.043944206 0.008210662 0.08200489 0.08711354 0.087058365 0.041147817 -0.028525788 0.08559542 -0.09875061 -0.076718636 0.027594462 -0.06720988 -0.021864736 -0.058877233 0.053623784 -0.04638666 -0.026926916 0.056695808 0.015963929 -0.09646185 -0.015751677 -0.07948319 0.036624238 0.023655133 -0.053434942 -0.04114562 0.09166589 0.010924995 0.04461444 -0.067404754 -0.010317492 -0.042911448 -0.036053497 -0.019741809 
-0.011966632 0.00854377 -0.06898598 0.01046831 0.05114404 -0.042189818 -0.06947817 -0.03577651 -0.018170178 0.10319085 0.007963498 0.0020389184 -0.08540383 -0.026518181 0.09357311 -0.028581949 0.072858356 0.110763066 -0.010319457 0.060270004 0.04186908 -0.025084117 -0.024895208 0.04100504 -0.066020064 -0.018039778 0.080746114 0.069098465 0.0824267 -0.026593952 0.010627025 -0.03134583 0.08310958 0.047748137 0.03667107 -0.048805766 -0.054330908 -0.024947349 0.029503135 -0.01701215 0.11056076 -0.037057947 -0.045079034 -0.023819651 0.068074875 0.042476185 -0.006942331 0.009161132 0.088645585 -0.025118474 0.07593325 0.031838004 0.080432676 0.03413313 -0.06054981 0.099414766 -0.014053708 0.032526433 0.011766717 -0.044009913 0.084916614 0.024285695 0.09166507 0.0669416 -0.04346918 0.07829675 0.057266932 -0.06810705 -0.026939288 -0.10505934 0.02349133 -0.010767049 0.03409348 0.014115855 0.09358589 0.049248073 -0.053490166 -0.023266466 0.06267363 0.04525541 0.07585549 0.062616475 0.039158493 -0.098991744 0.04517532 0.07467297 0.08028084 0.0832439 -0.078550026 0.09868766 0.015254423 0.094306864 -0.082606874 0.07772359 0.0403118 0.0057813306 0.0063381866 -0.023028148 0.011002388 0.106503114 0.015268383 0.0757702 -0.017126694 -0.061979324 -0.042944178 0.09382886 -0.036789652 -0.030818462 0.074932225 0.0102202175 0.055343885 0.005246834 0.05830079 0.09808376 0.035027605 0.06140707 -0.0036155996 -0.009398165 -0.024386998 0.09306623 0.03416927 0.023079135 -0.02605643 0.0047164354 0.09028398 -0.052511875 0.09442535 -0.03303033 
-0.08212141 0.08605205 0.044985592 0.004628451 0.09403089 0.09455915 0.0728842 0.08202505 0.061566383 -0.041561093 0.039148606 0.055849183 -0.052675493 -0.05144305 0.10742644 0.0568061 -0.09322425 -0.026041148 -0.048411824 0.028161297 -0.02275931 -0.049732413 0.033426743 0.060572438 -0.009247405 0.014033172 0.007664613 0.113012195 0.0079344995 0.077513084 0.059698816 0.031641994 0.0866525 -0.020683687 0.08212594 0.038922932 0.057084154 -0.056201544 0.047829956 0.01849994 0.09200037 -0.03224671 0.08413027 0.0069650062 0.02228609 0.064594 -0.018017411 0.07290644 -0.0079409685 -0.06643108 0.07831744 0.0049043084 0.023601137 0.02980339 0.08894511 0.06456334 0.066277035 -0.04530866 -0.06685481 -0.011703821 -0.024593497 0.079990156 0.022200279 -0.004315711 0.096120335 0.091750324 -0.024793157 0.045321908 0.08609126 -0.020000484 -0.04670551 0.06933163 -0.02922322 -0.039026376 -0.0052320855 -0.014529287 0.0060007507 -0.026823727 -0.033139218 0.0046930057 -0.033547398 0.00080346095 0.027764263 -0.050087143 0.06628256 0.039476365 -0.07598538 -0.04581256 -0.02791164 -0.042821877 0.058121916 0.0831427 0.01708146 0.07536698 0.03883265 -0.003319503 -0.030707194 0.073510356 0.124086164 0.0345171 0.01592932 0.083408326 -0.0741649 0.064574674 0.02967762 -0.016164096 0.10516307 0.050157387 -0.0432557 0.009146534 -0.057379447 0.032227583 0.03599277 -0.08225135 -0.021324068 0.04915442 -0.0347981 0.090235464 0.022712 -0.021785311 0.11497458 -0.008420463 0.09474853 0.07820277 0.09261978 -0.024516352 0.028037792 -0.038782604 
-0.04925511 -0.14700365 -0.06723982 0.004479931 -0.034642026 0.13575134 0.007792551 -0.053315565 -0.0057452237 0.09722923 0.12170407 0.0603478 -0.0897824 -0.05808854 -0.066627875 -0.027648123 -0.05680185 0.005105935 0.061557513 0.05579171 0.061785404 0.07775652 0.0044990187 -0.16180724 0.06898427 -0.033642374 0.1265159 0.016863685 -0.019865023 0.09274257 0.03873667 0.033712387 0.1229344 -0.118119664 -0.082672484 0.036126208 0.05589879 -0.040003564 -0.08737188 -0.05841555 -0.006047805 0.13015708 -0.097825274 -0.045716465 0.09539394 -0.045942165 0.021100167 -0.080117896 0.10316901 -0.039687186 -0.054748695 -0.016214991 0.06969166 -0.020395212 -0.10932799 0.12247039 -0.026269741 -0.053011656 0.19964549 -0.026407655 0.08391497 0.0002724717 0.07027014 -0.018379923 0.07917068 0.11995837 -0.026919661 -0.14055428 0.052648593 -0.077110395 -0.03494155 0.0033193894 -0.06030746 -0.07708307 -0.06803975 -0.09019026 0.045189872 0.059936147 -0.06153761 -0.04748407 -0.056433983 0.05852614 -0.09137536 -0.123085484 0.009444704 0.017968703 0.1846167 0.11643158 -0.0022408697 0.0050456 0.01400847 0.09848878 -0.07629073 0.025372362 -0.03531196 0.037302393 0.030396782 -0.10463269 0.120096564 0.06657653 -0.06603161 0.19213322 0.07570098 0.08229442 0.056968912 -0.06513121 0.09381877 0.040582422 -0.03722676 -0.07395014 0.03729235 0.04454263 0.086143106 0.09973879 0.04142694 0.019589186 -0.11699683 0.0508381 -0.12360216 0.032661058 0.046594523 0.23944099 -0.124406226 0.05959925 0.17979066 -0.061067224 0.09530232 -0.03628653 
-0.061950706 0.08218669 -0.083657235 0.013014166 -0.059240222 -0.0029678708 0.039773323 -0.033678688 -0.029083781 -0.029778669 -0.06888602 0.056858987 -0.06770967 -0.003278761 0.0064852466 0.07368645 0.03931621 0.00054351037 0.03216623 0.04364352 0.009890839 -0.0149547765 0.026007261 -0.050957553 0.07555105 0.01803255 -0.08545018 -0.0054051243 -0.05525558 0.07828702 0.011691812 0.015597742 -0.08674979 0.031028645 -0.028488059 0.027573816 0.05979117 -0.056855243 -0.08307092 0.078978196 -0.0034468735 0.021698317 0.040463924 0.0077371695 -0.050653856 -0.02194069 0.00026376787 0.023605896 0.07534619 -0.044566356 -0.083972506 0.01734923 -0.026837917 0.00932342 -0.058868345 -0.02229517 0.02741416 -0.06843217 0.016788365 -0.0031273712 0.077571824 -0.067817174 0.03230363 -0.094675966 -0.08920502 0.07489376 -0.013248358 -0.0660028 0.039389484 0.03540687 -0.025539886 -0.030553993 -0.019407922 0.07283624 0.074405 0.044977468 -0.042469803 -0.08099944 -0.0057524526 -0.089443974 -0.015572353 0.046686143 0.07676913 0.06409354 0.012977512 -0.048683062 -0.048068658 -0.06353855 -0.0034375691 0.060556483 0.020334916 0.014488563 0.016707847 -0.018734524 -0.020674735 -0.058159966 -0.051398136 0.040134985 0.0034043896 0.0065699657 -0.08740693 0.08302525 -0.045081984 0.004535001 0.06347207 0.041863658 -0.030279834 0.044661455 -0.06643073 0.06582672 -0.04340753 -0.06819204 -0.019445606 0.015132785 0.0678446 -0.09243841 -0.06515534 0.002203016 0.04128522 0.045162614 -0.05225007 -0.01437573 -0.024053175 -0.027761355 -0.048496164 -0.085552774 -0.07521743 0.014688784 
-0.024176674 0.06965196 0.032470874 -0.006572192 -0.05483545 0.065458804 0.0005800537 0.10020603 -0.00854039 -0.010092756 -0.025462905 -0.06195527 -0.0064289933 -0.048561472 0.03658859 0.062844485 0.04399098 -0.045699254 0.077428594 0.07915687 0.00301532 0.07056053 0.04580136 0.044015203 -0.061320752 0.07733866 0.043812726 -0.024176933 -0.024167323 0.018797606 0.025906658 0.09203017 0.07482886 -0.058154974 0.058658212 0.07142867 0.03794319 0.10752552 -0.057202816 -0.08718077 0.039063554 0.10280535 0.06891433 0.08886871 0.011980413 0.002329262 -0.046568446 0.09886568 -0.031783987 0.07629898 0.043221995 0.039390743 -0.025071548 0.02438786 -0.0676 0.052191313 -0.0021615624 -0.01839936 -0.07814421 -0.061820086 0.0076465146 0.03867725 0.07956974 -0.0535625 0.06037281 0.10361065 0.035078056 0.078652956 0.06737378 -0.008672629 0.06356781 -0.050836075 0.07912715 0.05131505 0.048659705 -0.0067824014 0.041204397 0.062049907 0.104511246 -0.047622997 0.006803409 0.105672486 0.061529793 -0.050185822 0.106355384 -0.068592004 0.08756703 0.10681614 -0.07075222 0.0119073205 0.07974915 0.10283026 -0.030637713 -0.02264428 0.016030189 0.09646315 -0.038460523 -0.050444383 0.06312949 0.0010561991 0.015050324 0.056359403 -0.039383642 -0.007935958 0.061543353 -0.024898736 0.07103057 -0.04787719 -0.037303813 0.027680546 0.10152383 -0.017318085 -0.0012324799 -0.0075987554 -0.023987126 -0.055766955 0.031158688 0.054868683 0.076281786 -0.009928461 0.06864809 0.09615254 -0.06328016 -0.05433747 -0.03236325 -0.060109906 -0.017759664 0.104884885 
0.07720321 0.04951816 0.062264428 0.01087447 -0.06486611 0.020522008 -0.040357925 0.03549029 -0.0059947823 0.08478334 -0.010495189 -0.013911802 0.09158748 -0.05000295 0.102255434 0.065568246 -0.04181369 0.02925174 -0.03477945 -0.038062077 -0.020755462 0.03349124 0.088330954 0.06001693 -0.041451104 -0.014029091 0.0069435067 -0.016428715 -0.016449599 0.04978419 -0.07594693 -0.010779823 -0.011001334 -0.0805044 0.023705427 0.022494717 -0.069880866 -0.02267013 0.0794004 -0.04363922 -0.052397836 0.09850159 0.043927874 0.057876248 -0.088684686 -0.033775333 0.034003515 -0.02173577 0.09317627 -0.021258494 0.018617025 0.048900623 0.08148453 0.011642583 0.0128780585 0.029126074 -0.04846458 0.061201293 0.07245621 -0.04061627 0.044981103 -0.019161893 0.084451064 0.07445692 0.013167467 0.07413504 0.0058859135 0.025597623 0.08949513 -0.0119738355 0.097885 0.038008858 0.11407202 -0.04434865 0.06284563 -0.02448084 -0.053688396 0.03569113 0.053342883 -0.03347888 0.07274322 -0.043088075 0.024110211 -0.054330025 0.08728015 -0.08475917 -0.04866681 0.10967432 0.008403193 -0.043210737 0.015673997 0.09646969 -0.03242899 0.0045422697 0.018655516 0.0456327 0.005015567 0.061496798 0.09604929 -0.023877328 -0.053629022 0.09698536 -0.07854802 -7.081762e-05 0.0718897 0.026167933 -0.040676393 -0.03324377 0.0057251784 0.011006199 0.08870838 -0.011347828 0.01884949 -0.045257658 -0.021128682 0.08676243 -0.0004167643 0.116296664 0.05185199 0.08851638 0.08837482 0.032247547 0.047524065 0.02503331 0.036380157 -0.060190782 0.03205742 0.023167515 
-0.005776562 0.06878164 0.07705634 0.04244653 0.045799617 -0.03423914 0.0013406575 0.04710006 -0.015575834 -0.009797464 0.051242433 -0.06366275 -0.04308829 -0.045070007 -0.009919152 -0.07263141 -0.07921426 -0.05405809 0.009854361 -0.07569854 0.08487106 -0.024466423 -0.05691821 0.0071277544 0.029528743 0.0021422282 -0.043056417 0.03298033 -0.012136839 -0.014690094 0.049777813 -0.059662886 0.03336797 0.002432498 0.015323445 0.045115195 -0.017444432 -0.024264902 -0.011605229 -0.024736255 0.02789445 0.055882417 -0.08151526 -0.0685136 -0.07392593 0.03429409 -0.0873617 -0.034114223 0.086637445 -0.011242285 -0.06459338 -0.06845083 -0.0027885507 0.063436724 0.028198794 -0.07454374 0.08409054 0.02286311 0.017406605 -0.08589928 0.037345104 0.05629988 0.027692446 0.0034065694 -0.071463205 0.064576566 -0.039041393 -0.082900405 0.024231626 -0.07893342 0.047143914 -0.002162248 0.036335357 0.046984456 -0.083760075 0.01691372 -0.0643909 0.07395982 -0.015043579 0.07863914 -0.034636922 0.07895412 -0.067380294 0.011124186 -0.027426139 -0.019417189 0.032049924 0.050394204 -0.030349448 -0.07335335 0.039724343 -0.081362225 0.053811725 -0.05804412 -0.045144975 -0.051681228 -0.023852684 -0.061433055 -0.037785828 0.010575032 0.0134760635 0.072670065 0.023245253 0.039114103 0.04068584 0.039805226 -0.0014605444 -0.06749215 -0.075519904 -0.019815668 -0.054190967 -0.07816216 -0.085959256 -0.06768465 -0.07759577 -0.030316284 0.0622488 -0.02217652 0.084595196 0.08590626 -0.07340354 0.037512787 0.034763426 -0.08687964 0.07320719 -0.007024916 -0.011959746 0.036578044 
0.08203293 -0.095010005 -0.0055683875 -0.07471891 -0.0024152836 0.113560036 0.023638561 0.020121718 -0.02529737 0.11148676 0.11757671 0.08224235 -0.052727494 0.037282906 -0.05403528 0.038420446 0.019342426 0.05619482 0.09056797 -0.058036715 -0.024699278 -0.12728505 -0.04028092 -0.04301135 0.00822628 0.011828234 0.093329474 0.031553708 0.08738774 0.09809757 -0.08354286 0.011530614 0.0441384 0.03043353 -0.037551608 -0.033234417 0.06629674 0.030161213 0.10722141 0.03974493 0.03995583 0.12355392 -0.06652416 0.10893209 -0.07020536 -0.0050045634 0.1088589 0.008779223 0.015603132 -0.03653514 0.0009061022 0.05181134 0.07857243 -0.050108206 0.06790033 0.010077239 0.037601866 -0.058889043 -0.06631931 0.077967346 0.033635415 0.11534473 0.025217924 0.01729894 0.031204253 0.039911874 0.11873281 -0.0072355424 -0.049800117 -0.051332306 0.041816585 -0.063302815 0.07019313 -0.027276335 0.028154016 0.07114083 -0.0004990684 0.01847061 0.11163448 0.10249759 0.082120076 0.003311061 -0.08887091 0.060464628 0.09801586 -0.073254175 -0.056978762 0.051998407 0.03921817 0.054013137 0.01653705 0.000600129 0.028927878 -0.050760735 0.06837746 0.099028975 0.04819428 -0.057283197 0.044761818 -0.055371497 0.028683184 -0.004845813 0.007380733 0.018167034 0.05722664 0.10455673 -0.036903482 0.09372824 0.058387667 0.06558931 0.040983804 -0.010145482 -0.055919427 -0.07944767 0.06744405 0.042922918 -0.007824844 -0.008405709 -0.035148427 0.10846001 0.028177587 0.053544506 -0.05241073 0.07805075 -0.051806606 -0.052559264 -0.012754797 0.10793212 
0.013545795 -0.084192514 0.00052975415 -0.0024961727 -0.04760775 -0.027223472 0.041713137 -0.012830267 0.07283511 -0.04334262 -0.027229907 0.046818692 -0.09133175 -0.0033601017 0.057476174 0.06514223 0.040359985 0.050312348 0.11757826 0.010862349 -0.06282508 0.059075866 -0.021549568 0.06972153 0.06130728 0.028813016 0.053324305 0.06711918 0.0032720163 0.09563873 0.06507995 0.10212939 -0.044604916 0.09939213 0.042258184 0.031290743 0.03274987 -0.06541256 0.052713174 0.05213903 -0.056540538 0.038454413 -0.037343226 0.044278633 -0.0654588 -0.031362787 0.03770275 -0.05852163 -0.05311642 -0.08108152 0.09922277 -0.044917583 -0.040292993 0.011345886 0.04643874 0.08654436 -0.08206389 0.03755721 -0.0653028 -0.041846227 -0.020367904 0.017898692 0.017811205 0.00095511344 -0.008138846 0.082631834 0.06255835 -0.012475119 0.101392254 -0.106547 0.010248622 0.0078284275 -0.044856466 -0.08353022 -0.0044131596 0.0048736446 0.08763945 0.07102009 0.09151002 -0.013460562 -0.05321108 0.051024225 0.00091008766 -0.01534632 -0.021410683 0.0692232 -0.033867825 0.055873394 -0.08353784 -0.01964729 -0.0034400895 0.03689099 -0.060613215 0.10541256 -0.00413764 0.07934769 0.020651976 0.0075861677 0.024018964 0.0070006913 0.07232703 -0.04678217 -0.055729304 -0.077986024 -0.042103298 0.080230154 -0.0057984786 -0.014028049 0.057637505 0.009490104 -0.04397121 0.06412429 -0.01440967 0.093427524 0.104551725 -0.044729188 0.050477117 0.0144350715 -0.08281108 0.121701285 0.10529379 0.058913175 0.018773539 0.111681245 -0.020908294 0.05703754 0.07746046 -0.024185391 
0.022206593 0.076379724 -0.015140522 0.017899558 0.040561333 0.01228282 -0.07382518 -0.045290124 -0.047140818 -0.04156578 0.072003774 -0.007632546 -0.0881668 0.060185153 0.018222425 -0.08441245 0.0164509 0.053614847 0.04838856 -0.023199808 -0.05341217 -0.080307536 -0.041001376 -0.016516045 -0.06942784 -0.09423528 -0.017959246 0.10203776 0.061834328 0.081160225 0.088350035 0.1262321 -0.05870682 -0.0025390019 -0.0625138 0.014643255 -0.04179891 -0.0072314846 -0.05151639 -0.057010464 -0.05820655 -0.013725252 0.06784395 0.08204807 -0.012200431 -0.011999478 -0.050853696 -0.07040886 0.096287675 0.078495175 -0.029631356 -0.05036689 0.08318614 0.06408778 0.048798714 0.07488108 0.002514085 -0.01402811 0.062467482 0.0066739316 0.06690148 -0.048294794 -0.04789339 0.075442754 0.003544841 0.08036795 -0.023484739 0.024980772 0.11490277 -0.123756126 0.06430349 -0.05671778 0.0075151236 -0.035790116 0.05571836 0.06194941 -0.012994062 -0.03848034 0.10466434 0.082429685 0.085875675 0.07831187 -0.0063813394 -0.031838503 -0.029490212 -0.010672028 0.00037566453 0.09417788 -0.12230678 -0.056343284 0.018083012 0.049985155 -0.072129 0.038950805 0.033479597 -0.06567371 0.13402374 0.018838722 0.08530894 -0.020428684 0.014560691 -0.039435543 -0.057582494 -0.0433426 0.060329504 0.044018824 -0.051371932 0.07817344 -0.021360114 -0.07993521 0.0337416 -0.025706142 -0.00082925946 0.048897807 0.07350076 0.054984063 0.043824304 0.11850085 -0.09203742 0.025014663 -0.026904037 0.09239016 -0.056915767 0.10993927 -0.05878678 -0.0023940636 -0.027193991 -0.0011411005 
-0.06016247 0.044052936 -0.0032329736 -0.074926816 0.03641633 0.08008863 0.07988494 -0.034653407 0.10628663 -0.053235743 0.023005947 0.11314482 0.008824108 0.042103264 0.029541053 -0.023972176 -0.09986539 0.09528753 0.042800747 0.07100957 -0.013197436 -0.0182852 -0.047715735 0.084784366 -0.066441596 0.05449591 0.085382015 -0.014408768 0.059053127 -0.054378662 0.07650975 0.099406466 0.06360798 0.030174384 0.027465835 0.06485588 -0.0438903 0.005390703 0.018479891 0.03516058 0.066457935 -0.028454222 -0.02925799 0.10149115 0.056199275 0.08907818 0.10190914 0.01686363 0.06062116 -0.04770944 -0.014475321 -0.038832974 0.03107215 -0.03641798 0.0035015475 0.077152744 -0.065470755 0.028835375 -0.023055797 0.021250604 -0.080782175 0.028243573 0.082651034 0.027493399 0.0005706775 -0.026205417 0.042869147 0.027902126 0.08130771 -0.03957717 0.10530262 0.0059175175 0.04164106 0.026352266 -0.0024812093 0.026408374 -0.023507658 -0.08914841 0.079114616 0.09618518 0.07849082 0.07978962 -0.06144556 -0.08753044 -0.056795735 -0.03204809 0.025303824 0.037905447 0.03519201 0.034088314 -0.029781539 0.09769866 -0.09411184 0.10810167 0.08471713 -0.019251995 -0.023833336 0.06220493 -0.03676956 0.030436108 0.0858992 0.05819219 -0.0020954106 0.052288406 0.08575477 -0.0624815 -0.022382813 0.077228636 0.0312717 -0.0731055 -0.07240535 0.06192267 -0.012537605 0.06781785 0.08614911 0.09985426 0.030876745 0.097316064 0.072273605 0.10904312 0.07938122 -0.061180547 0.08698626 0.09517706 0.028936384 0.08815989 0.08596196 0.10437934 
-0.016539508 -0.019977534 0.011046509 -0.06556929 -0.012959718 0.013282549 0.006119168 -0.019525036 0.014006449 0.070591696 0.096063964 -0.051990915 -0.09631484 0.025452211 0.077417515 -0.040462557 0.01792796 -0.042645983 0.06161069 0.034537937 -0.043347165 -0.13849081 0.033909738 0.07580673 -0.05078472 -0.020435797 -0.01845162 0.009531588 0.05825233 -0.04489008 0.04372693 -0.015687725 -0.032429747 0.05790038 0.00066116994 -0.06623672 0.056011736 -0.024893045 -0.040063802 0.030176487 0.0014746697 0.04022479 0.028716374 0.06433113 -0.045214232 0.039996255 0.030837402 0.04538562 -0.053171683 0.024115037 0.10457917 0.07648934 0.028747924 -0.07285529 -0.037776303 0.06850297 -0.046229567 0.061235443 0.015686555 0.03908563 0.053805854 0.026820006 0.026130876 -0.007901641 -0.015899476 -0.020912768 0.07033709 0.053607166 0.015323844 -0.12270709 0.09355585 -0.04837096 0.05818997 0.03284517 -0.049736463 -0.011951749 -0.07567642 -0.085998 0.06523661 -0.00759347 0.05484627 -0.021881307 0.008604513 0.018751798 0.11669505 0.07223156 0.10323505 0.084040105 0.016439931 0.041567735 -0.037317045 -0.050600044 -0.061692 0.06699986 0.017240014 0.0228326 0.0761673 0.024430506 0.07920547 -0.02676905 0.042862497 -0.048023265 -0.014908184 0.012539952 0.08316323 0.010936735 -0.04238954 0.007481647 -0.04500521 0.019485036 0.093663864 -0.06275877 -0.036602322 0.00024617172 0.09347265 0.080949046 0.08308741 0.03159771 0.057278253 0.008869634 -0.031162962 0.044345755 -0.072898544 -0.0038107033 -0.010626436 0.09953042 -0.049596064 0.039073493 
0.023666015 -0.011192161 -0.070388846 0.02472443 0.057184894 0.0207977 -0.061403193 0.008705947 -0.02980604 -0.035263177 -0.049202453 0.057072394 -0.058415316 0.009556279 0.025437538 -0.006134245 -0.010516694 0.0012537215 -0.0329278 -0.03420047 0.081283145 -0.06410008 -0.068631634 -0.028434576 0.01562888 -0.08496304 0.06223677 0.012790774 -0.07768808 0.018239746 -0.039525114 0.061927736 -0.0047334046 -0.07960368 -0.04912659 -0.082728535 -0.054054845 -0.09178944 -0.052245036 0.061424177 -0.048126403 -0.080898866 0.083569735 -0.032972116 -0.061754607 0.06944223 -0.03576891 -0.052642707 -0.08565837 0.060855374 0.026133029 0.041339558 0.02595996 -0.07586441 0.08771699 -0.064837866 -0.011199537 -0.08269755 -0.057526406 -0.086261034 0.0034172162 -0.05071074 -0.01547537 -0.014155661 -0.015910976 0.017093247 0.023495026 0.003382358 -0.06457748 -0.0691155 0.03373853 0.016441684 0.025547614 0.039000824 0.044719905 0.017747985 -0.08037992 0.059820402 0.0060887244 0.024638541 -0.047298558 -0.074583896 -0.047217067 0.050019797 -0.012184279 -0.012609669 0.015383794 -0.048989292 0.07851964 -0.01981825 0.08115204 0.016908575 0.029166564 -0.048910223 0.037333176 -0.057776242 -0.06646687 0.02076744 -0.0027583574 0.07520227 -0.016935105 -0.0053058458 -0.064491086 0.056076724 0.016835196 0.045196973 0.038587064 0.08034416 0.036395602 0.059800867 0.02238671 0.02810974 -0.08194492 0.04795081 0.01267009 0.0094074 0.030089037 -0.0032559948 -0.030464852 -0.058435127 -0.005775942 -0.030695274 -0.006501378 -0.025547378 -0.0119469585 0.058986075 0.07042355 -0.029649474 
-0.07831107 0.0018224518 0.03495813 0.00857749 -0.052383367 0.020459251 0.027861362 -0.051179845 0.08932894 -0.03876004 0.017831717 0.09494167 0.045739308 0.027567796 0.042277176 0.03551997 -0.030211013 -0.020717386 -0.012994222 0.07149039 0.028355123 0.06170807 -0.009889455 0.08060129 -0.015234955 0.051945798 0.06344409 -0.03049697 0.052089516 0.011895695 -0.062238 0.110552944 0.0059717502 -0.072640896 -0.05888527 -0.0133527545 -0.05313888 -0.03277838 0.09729855 0.03947837 0.07762733 0.034586485 -0.04869029 0.05747206 -0.052792538 0.0919048 -0.05846405 0.10455404 0.045993194 -0.027742572 0.07210118 0.020840101 -0.04267422 -0.01314045 -0.08290297 -0.03960949 0.055282764 0.038342193 -0.054083236 0.06451007 0.0071047717 0.039247524 0.016692992 0.09611724 -0.03553419 -0.029103624 0.12384581 0.08299125 0.10684986 -0.055359147 0.06561249 0.068048365 0.04859035 -0.067335404 0.05331803 -0.06012065 0.04929679 0.054060306 -0.052022673 -0.039045326 0.015903125 0.09844238 0.014350891 -0.096372455 0.05264547 -0.043907043 0.09713211 0.07189816 -0.03570208 -0.02596947 0.0775071 -0.03077265 0.00025355045 -0.0071309577 -0.011226058 0.022052051 0.04067188 -0.022806844 0.060919296 0.0019431035 0.11620774 -0.050084993 0.07467695 -0.06687855 -0.046307806 -0.052271534 0.026366955 -0.038368814 -0.06131034 0.084811844 0.06728003 0.05808025 0.07490491 0.023860417 -0.0219036 0.04324824 0.016931787 0.093190745 0.089789525 -0.039673448 0.09357201 0.043850612 0.020235837 -0.049882967 0.044756982 0.10152602 0.080594145 0.03971921 
-0.012909454 -0.083866574 0.019072782 0.0692756 -0.062091984 0.09403855 -0.080841735 0.029518638 0.01734845 0.036834855 0.074871846 -0.008253445 -0.09022035 -0.037252035 -0.02553104 0.0359624 -0.06050887 0.04965835 0.088258564 -0.070560105 -0.010571887 -0.053331837 0.09490473 -0.016939739 0.015062811 0.026829753 0.08740285 0.088382415 0.07128091 0.07369319 0.014137856 0.016894206 -0.08980564 0.051088855 0.0828172 -0.07976246 -0.016124694 0.041635245 -0.024800442 -0.06821281 0.031000264 0.067305274 -0.09112534 0.008802871 -0.032355648 0.08970681 0.02904403 0.060141236 0.04364484 -0.04064096 0.067372024 -0.04290724 -0.03354142 -0.04798855 0.08311624 -0.023629654 -0.03759177 -0.04217282 -0.0005912725 0.06890374 0.07025597 0.02950568 0.07264311 0.07390005 0.07970539 -0.070282295 0.11080404 0.09248158 -0.051958412 -0.028600931 0.0247178 0.041034847 0.050890993 -0.07847437 -0.015117301 -0.081314154 0.04592285 0.025819926 -0.037615146 -0.02899896 -0.06823231 -0.027306868 0.06768795 -0.071052715 0.047362894 0.028390996 0.08385248 0.10619692 -0.03783969 0.02535445 -0.009220526 0.023054456 0.060004253 0.023883313 -0.0560455 0.055112984 -0.0047843265 0.045406196 0.02966875 0.05868753 0.052830793 -0.059493672 0.09277012 -0.0049511525 -0.022289244 0.032276742 0.07115861 0.041375764 0.030685408 0.06545403 -0.009064936 0.0032791574 0.012193387 0.033140615 0.033608664 0.07221663 0.049367692 -0.0038221143 -0.006905395 0.055670526 0.029829428 -0.04096759 -0.052202128 -0.03257263 0.054236323 0.03906327 0.004873389 -0.055705626 
-0.053096995 0.057030097 0.04570389 0.28496724 -0.027844002 -0.11684682 -0.17420872 0.031958003 -0.1166828 0.14782669 0.09426503 0.07110321 0.06441254 0.05546636 0.1829128 -0.02851042 0.1940456 -0.036094952 0.09857086 -0.24119613 -0.09585546 -0.30759755 -0.0724047 0.0054389667 -0.3042293 -0.18943362 -0.016145417 0.08178043 -0.047650076 -0.031029075 -0.12920225 -0.062291183 -0.09823831 -0.04315527 0.03272566 -0.036775347 -0.0754737 -0.020930022 0.13085584 0.09538911 -0.03031108 0.057906467 0.11574808 -0.0796071 -0.017388595 -0.1624468 -0.007068056 0.14334767 0.04212391 0.023076925 0.013493754 0.11432916 -0.10108716 0.15231718 -0.029905647 -0.019720623 -0.041101694 0.042456392 -0.23698118 0.0064030723 -0.051343706 -0.012540319 0.030569667 0.061033417 -0.059188012 0.16468869 0.09627255 0.04584874 0.070344865 -0.10879705 -0.038545337 -0.23383279 0.18334846 0.20975006 0.040119402 0.01998315 -0.1962168 -0.0054549896 0.09823965 0.10188054 0.1458449 -0.033 0.06840863 -0.10092853 0.04085162 0.047221612 -0.15338078 0.04591187 -0.278766 -0.07839714 0.11917574 0.085683346 -0.22516051 -0.03041448 -0.045224253 -0.08087467 0.07247701 0.14301726 0.052825954 0.20896105 0.06671777 0.14511804 0.07789109 -0.08774413 -0.3175088 -0.0656707 0.02103769 -0.0842759 -0.044557344 0.028132778 0.08812172 0.114158444 -0.16119212 -0.16116725 -0.02732753 -0.062323693 -0.12678811 -0.04207511 -0.021578213 0.07098221 -0.028411685 0.0391789 0.049167473 0.044374384 0.17657794 -0.16167587 -0.047670197 -0.009868722 
0.048057362 0.06168474 0.06271479 0.0564562 0.072183356 0.024854047 0.016183825 -0.011327677 0.0450354 -0.050452955 -0.048029855 -0.015113782 -0.03722172 -0.024478558 0.0060984963 -0.015077812 0.05804263 0.010696682 -0.083437875 0.0217738 0.011499787 -0.023566412 -0.07521077 -0.01993962 -0.006900681 0.047566205 0.029275747 0.044926878 0.060320456 0.014258328 0.05067138 0.017355356 0.04213454 -0.07887756 0.058459837 0.064543806 -0.023370594 -0.051929537 0.058209866 -0.018974286 -0.0751724 0.013906338 -0.028335724 0.029466175 0.047666475 0.050037973 -0.004373427 -0.08439941 -0.042448856 0.059599567 0.022600915 0.025833966 0.06533409 -0.057223625 -0.09406119 0.054566573 -0.048586514 -0.054064598 0.06450501 -0.086781144 -0.030436385 0.013991482 0.07224178 -0.08619171 -0.088982336 0.076616086 0.0076504047 -0.030281987 0.049728893 -0.05557724 0.031937793 0.04531977 0.0051997406 0.028532077 -0.03839168 -0.08529623 0.025790302 0.03651802 -0.054727633 -0.09252978 -0.09139295 -0.093171135 -0.075889334 -0.083225854 0.0076484256 -0.026249466 -0.061201 0.035107892 -0.03902886 0.01952055 -0.01961491 -0.022060972 0.06695737 -0.061698575 -0.08300193 0.038790595 -0.04900359 -0.02022414 -0.005390093 -0.07682875 -0.025058346 0.042353094 0.07692461 0.05019372 0.04611929 0.0020338865 -0.09325317 0.036996953 0.04057082 0.022334972 -0.041781686 0.00065762026 0.03293004 -0.02812228 -0.039230607 -0.04031888 -0.045621466 -0.010199673 0.04299658 -0.05889365 -0.07659089 0.057069704 -0.021984268 0.020779634 0.07140129 -0.0943961 -0.08265617 0.026533019 
-0.061106354 -0.03801589 0.002525913 0.0011478603 0.032865446 -0.058191553 -0.048142422 0.031712554 0.059972044 -0.01372946 -0.03715721 0.111019306 0.089439295 0.050344244 0.1145937 -0.04812555 -0.07635901 0.08655114 0.1124986 -0.008787439 0.035213288 -0.08203461 -0.000997912 -0.060349073 0.028612008 -0.03860682 0.011662678 0.03090454 -0.035729874 -0.0037222335 0.07853598 0.12751883 -0.032592345 -0.050897915 0.014692508 0.058990195 0.006055831 0.017571922 0.11534058 0.052312035 -0.0022677844 0.04614327 0.08663188 -0.011196502 -0.048775222 0.08522818 0.03434582 0.016367575 -0.042816497 0.021372618 0.0971995 -0.036663607 0.09622353 0.015970433 -0.056673344 -0.0336004 0.02800189 0.05929567 0.051434316 -0.0203465 -0.046544105 0.045867436 0.028162451 0.052011274 0.099519596 0.10304757 0.00477359 0.03221849 0.07595261 -0.07957702 0.10000544 -0.041026186 0.0438254 -0.026328282 -0.048431285 -0.052470356 -0.07500926 0.012280736 0.016310444 -0.03486314 -0.05084105 0.002308491 0.07584001 -0.044684872 0.012527528 -0.021613285 0.027576238 0.01971156 -0.08219172 0.10858633 0.029542336 -0.050514963 0.05932716 0.037680626 0.061792135 0.015006375 0.102510795 0.09484183 0.09898008 -0.0005082185 0.0046234243 0.08062607 -0.0185034 -0.05273022 -0.026542522 -0.043955974 -0.005311954 -0.03499022 -0.083354376 0.02558768 -0.007164462 0.07240354 0.04135037 0.031342108 -0.0066824914 -0.03603258 -0.04522298 0.046846062 -0.06367126 0.007372068 -0.02131199 0.047742218 0.08295338 0.069694355 0.08362895 0.06284474 0.110853806 0.08632359 
0.04603868 -0.04153111 0.07345118 -0.05842754 0.04835897 0.0034290976 -0.058600128 0.10413133 0.08424005 0.06266231 0.03520909 -0.024138616 -0.089178056 0.06385576 0.06349428 -0.10565005 0.02664379 -0.0045612194 0.022513257 -0.0065131923 0.017717477 0.015343835 0.07302729 -0.04021641 -0.06209949 0.080029055 0.024438147 -0.053207885 0.055229727 -0.011613009 0.032805238 0.12598357 -0.083147295 0.108121924 -0.049156517 -0.030000996 0.057304036 -0.025342062 -0.0036831081 -0.05106953 -0.059968658 0.089003846 0.05878289 -0.0024780054 0.021987695 -0.023073632 0.110570185 0.004535918 0.018782338 0.030185571 0.086715646 -0.043576434 0.10268018 -0.031871647 0.077831835 0.025538277 0.06011687 0.05016576 -0.015394499 -0.031442363 -0.032664273 -0.007610981 -0.055230405 0.06976717 -0.042372935 0.0036804394 0.017412342 0.090189554 0.05536272 -0.10233477 -0.04731086 -0.06837927 0.017366074 0.048001233 -0.04851018 0.033712715 0.078205325 -0.02193022 0.08352099 0.04700594 0.0077518015 0.061494432 -0.07753016 -0.07081004 0.021768222 -0.0711151 -0.02980047 -0.050154496 0.038272735 0.078770354 0.021461835 0.11561166 -0.05711722 0.11002091 -0.010337883 0.030841263 0.018450238 0.092368305 0.049946807 0.103005275 0.10886658 0.07899667 -0.038784027 -0.081070304 0.006923254 0.052384153 0.02152528 0.065466866 0.06542519 0.08834283 0.08455122 0.052244917 -0.02855603 -0.038340434 0.020338321 0.07131682 -0.058517594 -0.017747806 -0.028346522 0.023016458 0.0004993259 -0.026543401 0.06881613 0.11772995 -0.050589498 0.007438113 -0.026895085 0.059815113 
0.08611421 0.013263337 -0.042889822 -0.013498341 0.013644335 -0.011135175 -0.019892655 0.06161141 -0.021310814 0.07645244 0.10851234 -0.022464707 0.0056344857 0.027903883 0.0784774 -0.030322555 -0.10910204 0.04622208 0.04876272 0.002899153 0.07281437 -0.011768425 0.0495804 -0.054181233 -0.029303368 0.088811085 0.042588502 0.06128896 0.0048923246 0.09499572 -0.07574526 0.07401662 -0.010568071 0.08282011 -0.019988317 -0.07909311 -0.025652558 0.02469702 0.013880951 0.052046735 0.05743369 0.07563477 0.05782002 0.06441357 -0.06976495 -0.014659178 0.09229254 0.084586576 0.08565696 0.07934596 0.07391989 -0.050483175 0.017168812 0.07958119 -0.06797225 -0.06736163 -0.07476398 -0.059836347 0.05502417 0.024262791 -0.021607345 0.026954627 0.06170145 0.06988752 -0.028296087 0.0079383 0.02793315 0.0152453305 0.07555129 0.026550842 -0.033074018 0.029805234 0.09779799 -0.09049941 0.051113874 -0.06692184 0.07406994 -0.06587281 -0.012516812 0.019940294 -0.013080521 -0.061191827 -0.065276794 -0.09149419 0.060594726 0.026952917 0.054347932 0.029434139 -0.08472321 -0.076254405 -0.004556275 -0.043378484 -0.004057541 0.10773388 -0.005206166 -0.04225447 0.054215644 0.019975543 0.04309703 0.06700493 -0.022356316 -0.03288203 -0.018612685 0.036519997 -0.0028870527 0.011413807 0.045981634 0.09108802 0.0067883134 -0.0392893 0.08122692 -0.024954882 -0.06464078 -0.03014326 0.033818875 -0.008152711 0.029317101 0.039233305 -0.0689289 0.028251827 0.0030809995 -0.07569936 0.04717603 0.04404333 0.07704926 -0.043288235 -0.020480404 0.008443767 
0.066302136 -0.040613726 0.0855228 -0.050145283 0.008118535 0.020191992 -0.008672447 0.03337368 0.027296528 -0.013442111 0.01777404 0.06367354 0.015303097 -0.017319854 -0.0672815 -0.038893584 -0.068297744 0.08772961 0.10033049 0.009560858 0.0209033 -0.039962333 0.0029336882 -0.01961734 -0.052057236 -0.05428908 0.018359028 0.10403291 0.08652582 0.084270194 0.06947225 0.050360974 0.08077812 0.09919511 0.07178406 -0.022731122 0.021485928 -0.0072480165 0.07703226 -0.031417202 -0.010639294 0.023371072 0.033063103 0.10689659 0.055384405 0.10728285 0.069410734 0.0812991 0.05541331 -0.019282091 0.093425535 0.022675797 0.033938125 0.06340902 -0.076565996 0.09389089 -0.017437797 -0.0065155807 -0.03712675 0.08709207 0.03623967 0.020757735 -0.0016936699 0.109358795 0.051404912 -0.04859509 -0.016723951 0.09193975 0.042493142 -0.04136289 0.08467991 0.07354875 -0.055782247 0.030807868 -0.047328874 -0.06130294 0.050308958 0.04517406 0.08963086 0.011843902 0.09018909 -0.04714252 0.06847413 -0.095760085 0.056416932 0.08580407 -0.039948925 0.054334175 -0.04846649 -0.007294533 -0.008493264 0.048082594 0.057870295 0.10544151 0.021566506 0.09546371 -0.036042858 0.05115351 -0.018538045 -0.02060546 0.07682706 0.076863185 0.078230195 0.040501185 0.018887883 0.02413229 0.053389337 -0.036132634 0.04278432 0.049025897 0.05688719 0.034114584 -0.06712971 -0.013570664 0.09678582 0.058513816 -0.052307647 0.042607833 -0.056841195 -0.017690009 -0.016356433 0.08373961 -0.031567246 0.012918279 -0.06625831 -0.001886492 -0.050492555 -0.046085745 
0.011796989 -0.010116811 -0.06674796 -0.0016526729 0.06758303 -0.06533817 0.041104995 -0.0009231865 0.0085080415 -0.045647766 -0.0028987166 -0.012736802 -0.031022277 0.06991502 0.072762735 -0.01181487 -0.0051783132 -0.08041976 0.0009711385 -0.055420406 -0.055975568 -0.008455107 -0.05543593 -0.08659892 0.083163746 0.023875996 -0.086332664 -0.080456205 -0.06826736 0.07366694 0.01337859 -0.044194557 -0.0806666 -0.08325684 0.061401315 -0.07322485 -0.07110542 -0.054252043 -0.0044969097 0.07255682 0.0044313073 0.07687187 0.034062594 0.039787244 -0.04042895 0.011987038 -0.060428992 -0.0038203758 -0.01689277 -0.01878342 0.042476278 0.0070952848 -0.055638816 0.039074536 -0.016984038 -0.036874868 0.056560986 -0.061482407 0.08029661 -0.061096787 -0.0075237527 -0.004577119 -0.07534646 0.055609323 -0.0809878 0.03098251 0.08671161 0.065055184 0.043544166 0.0686808 -0.017566144 0.02653633 -0.06867859 0.022294678 -0.01581074 -0.05100661 -0.03891052 -0.068105176 3.8437545e-05 -0.07947146 -0.0020313486 -0.06734888 -0.08745292 -0.04803473 0.059178494 0.009596035 -0.08874789 0.07964148 -0.08244154 0.008405195 -0.027308587 0.016630977 0.022338517 -0.0806515 -0.06487897 -0.053907473 -0.003489904 0.049325414 -0.05635255 -0.028440094 -0.08494622 0.018555842 0.07071871 -0.044496123 0.0076097324 0.032660447 0.041818134 -0.054250862 -0.019212134 0.045479964 0.023196258 -0.039903123 -0.070287846 0.023855768 -0.01924634 -0.040351454 -0.007860757 0.046317376 -0.009027615 0.018814377 -0.034154546 0.028266996 -0.04990685 0.045817222 0.016091052 0.039634712 -0.007609749 0.08107958 
-0.00076885 0.07422525 -0.032825224 0.031800777 -0.022941861 0.022497341 -0.04595671 0.022721564 0.032894474 -0.060224418 0.10819826 0.022176512 0.070163794 -0.07235574 -0.016225768 -0.00047009156 -0.015076269 0.044146825 0.011520642 -0.00046207441 0.0029763337 0.04621332 -0.046514787 0.031638898 0.055567022 -0.01292719 -0.053749587 -0.04631868 -0.0010241705 0.0009200765 0.06682854 0.031089708 0.05979087 0.022732813 -0.08384664 0.023524148 -0.076982364 0.06752617 -0.0070434883 -0.06631246 -0.018193224 -0.0249876 0.043489534 -0.03958666 0.05630616 0.10645298 0.10094955 0.057066206 0.03423568 -0.11283692 0.027447822 -0.0633884 0.07459138 0.031408746 0.022720983 -0.024769634 -0.05130231 -0.031449746 0.09034343 0.08252164 -0.042921625 0.112737246 0.07456035 0.064919025 0.13454475 0.060980402 0.02958668 0.09728135 -0.017594133 -0.042051036 0.0758788 0.044299845 -0.024935916 0.036211763 -0.05843269 0.06893392 0.010171129 -0.0635991 -0.011827071 0.040758777 -0.04373275 0.040810667 0.09247294 -0.06895457 0.08254655 0.06988388 -0.0070876055 0.04008554 -0.008026701 0.005969345 -0.06647649 0.050010353 0.07740959 -0.051990584 -0.047151327 -0.06751427 0.0880737 0.070509225 0.0422047 0.08760552 0.056454092 -0.0007412358 -0.054997753 0.098074384 -0.03660503 0.075654425 0.029814575 -0.011407304 0.078099854 -0.06577885 -0.04244283 0.017394694 0.033885643 -0.029401844 0.086928025 0.07361255 -0.042108323 0.028840208 -0.08054379 -0.015975343 -0.032703787 -0.028578775 -0.05256556 -0.023402823 0.024093844 0.115230404 0.11709676 -0.019675886 
0.089151666 0.07587497 -0.06357672 -0.072813235 -0.04964913 0.0846951 -0.04469567 0.0762522 0.020025019 0.024680628 0.046507377 0.10449388 -0.067187145 0.049737174 0.08095718 -0.054024242 -0.053900454 0.050072994 0.09926375 -0.022057554 -0.04153143 -0.05129928 0.05400808 0.06667909 0.0459373 -0.08173893 0.02248098 -0.005785373 0.060807012 0.023358908 0.040152695 0.009371368 0.055951603 0.0037885427 -0.010227272 -0.07084134 -0.06270301 -0.042502146 0.09033763 0.050492924 0.021232143 0.001310331 -0.017798826 0.072885096 -0.03560712 0.075169004 0.014890429 0.024997016 -0.020921754 -0.053266432 -0.020821342 0.07165404 0.014554795 0.07937226 0.05942009 0.067582935 -0.09332988 0.025689404 -0.052848622 0.11201232 0.051790122 -0.04076297 0.047380537 0.0077752597 0.093460746 0.0067771305 0.08926083 0.055013817 0.049813427 0.030714402 0.09082724 -0.058087945 0.00551001 0.016742352 0.055572096 0.045550678 0.06207606 0.06849857 0.01256814 0.024909353 0.008875191 0.10542198 0.00031863395 0.027616084 -0.0068269256 0.04611467 -0.07102664 -0.0046666246 0.00866784 0.0054765427 0.09930662 0.007136291 0.07651941 0.06879892 -0.009911808 -0.040059946 0.07412739 -0.05731339 0.06011493 -0.05340658 0.010921983 -0.014562616 0.08509325 0.017190881 -0.056900285 -0.005731066 0.018469585 -0.01861942 -0.007616172 0.0033132476 0.024162712 -0.02426675 0.0050571803 0.0475104 -0.007307826 -0.04972776 -0.036968175 0.006989316 -0.009572633 -0.0074349046 -0.008510679 0.001013441 0.038967103 -0.037678607 -0.010829153 0.09442774 0.120633036 -0.057540696 
-0.059573032 -0.092991725 0.031679112 0.061565522 -0.040674064 0.030419145 -0.0055513154 0.0017104292 0.012334832 0.06750659 0.04317536 -0.010594091 -0.090307705 -0.058679454 -0.07018877 -0.008408753 0.041664645 -0.06690634 0.024090888 -0.0146058295 0.06414048 -0.073366754 -0.06708502 0.065043755 -0.03173844 0.07148001 0.00728855 0.08619775 0.095853865 0.037622128 0.025262186 0.080540836 -0.008148103 0.021837387 0.076278284 -0.033111144 -0.045488127 -0.013676968 0.04846317 -0.027954563 0.0542173 0.12164002 -0.060383264 -0.037802327 0.059844583 0.08261047 0.06757459 -0.007797267 0.02249167 0.09033121 -0.012957539 0.0029675458 0.09199667 0.051511575 -0.030842528 0.0634543 -0.017901061 0.098250605 -0.044584174 0.017923655 0.027874459 0.056530137 -0.017327916 0.012874345 -0.034636043 -0.026635788 0.060894564 0.05229548 0.10332213 0.06165539 -0.004933835 -0.054161683 -0.015710117 -0.06624248 -0.06530715 -0.041290753 0.07305264 0.015792629 0.044783384 -0.002667335 0.037442923 0.09768568 0.024327891 -0.04408374 -0.010936029 -0.062790595 0.06354243 -0.025496997 -0.057245985 -0.054841112 -0.09765461 -0.05864838 -0.04459067 0.021081014 -0.031009095 0.0150433825 0.0043725143 0.007129218 -0.013130539 0.08442704 -0.053026848 0.011385718 0.04463952 -0.026495907 0.052874878 0.043937054 0.048601165 -0.026241014 0.018283198 0.022397844 0.02679327 0.11252461 -0.080589324 0.045414407 0.003256905 0.055008885 0.004399317 0.06025755 0.050839487 0.0983135 0.11512538 0.08517824 0.07419187 -0.01154423 -0.081819594 0.08406219 0.10121963 0.088043384 
0.04914386 -6.862228e-05 -0.06476589 0.048504945 0.010463777 0.015941761 0.039611403 -0.08009338 0.022620525 0.06423694 0.01821415 0.015636658 -0.05001784 -0.075177945 0.06917955 0.008054806 0.03999155 -0.08594109 -0.060815323 -0.054491494 -0.06130328 0.017419804 0.06306723 -0.05297009 0.011757782 -0.060631566 0.07638814 -0.0021953874 0.047522172 0.077867694 -0.08766063 0.016066981 -0.055594254 0.07652554 -0.07592567 0.012233708 -0.015793063 -0.023091836 -0.04986127 -0.08445205 -0.04102787 0.047788102 -0.08803448 -0.05123576 -1.7596007e-05 0.06980336 0.02239261 -0.07429006 0.021418195 0.06258286 -0.030902432 0.045827016 0.018010389 0.061847642 0.061439212 0.058029667 -0.052154917 0.06229438 0.05380819 0.076626986 -0.050626256 0.025029888 -0.07277485 -0.030435361 0.05386503 -0.07348648 -0.04877701 -0.05546408 0.06352066 0.07526355 0.019440638 -0.0581605 0.06255884 0.0679485 0.082094364 0.048708133 -0.059397023 -0.0035610646 -0.08517542 -0.09105317 0.019178448 0.036037724 -0.045551844 -0.005026781 -0.035596076 -0.08610834 -0.008140801 -0.087712 0.03891873 0.08057018 0.024555407 -0.041085005 0.08200475 0.035029285 0.052741338 -0.03895129 -0.03018586 -0.07751475 -0.048743904 -0.07586592 0.051108565 -0.06797195 0.017977279 -0.008326016 -0.01865548 0.015070434 0.039472938 0.01114163 -0.012325222 -0.085010335 0.018830946 0.041898612 -0.02307114 0.047250673 -0.061884403 -0.059328254 0.076443784 -0.06847279 -0.015712893 -0.08791794 0.033119347 0.0076640584 -0.028578516 -0.0705365 0.0022994871 -0.053396005 -0.019114207 -0.06604998 
-0.070011936 -0.0728064 -0.06804778 -0.0233297 -0.00086651236 0.061370444 0.050180014 0.1070962 0.082070336 -0.026652297 0.09095044 0.10854883 -0.06493774 -0.06103314 0.113041796 0.004336685 0.059144665 0.02772269 0.03729011 0.042687926 -0.016847704 0.043382585 -0.03688806 0.08534786 0.03613594 -0.05307504 -0.009273285 0.029516118 -0.05346755 -0.04948635 -0.061266 0.0710043 0.040819034 -0.07712918 -0.07138681 -0.05221444 0.042405274 -0.051775277 0.017718295 -0.06879851 0.11859957 0.06519732 0.031854108 -0.007864254 0.07154562 -0.012756621 0.061887614 0.0053138807 -0.040200695 -0.008341744 0.080051914 0.07987819 0.0139594255 0.019632183 -0.07798162 0.061785124 0.049715772 0.1061434 -0.009815567 0.019825917 0.0018675153 0.1022115 -0.008138081 0.06000145 0.031437095 -0.034953196 0.054705348 -0.027296497 0.012994101 -0.13726236 0.0921117 0.070466004 -0.053593643 -0.038394827 -0.0613714 0.016516013 -0.041173622 -0.016747443 -0.04763037 0.049455754 0.07188334 -0.012910559 -0.04542826 0.04778562 0.08688802 -0.06683702 0.0078107 0.085825935 -0.10907303 0.04148266 0.06749137 0.099840604 0.023468895 0.07061617 -0.038748067 -0.0014659417 0.012964387 -0.0011965143 0.08033705 0.02245905 0.10947782 0.073590025 0.019379675 0.057279475 -0.031088123 0.084686 0.006321379 0.01695246 0.024537213 0.048294045 0.087813936 0.012166976 -0.00648128 0.014006234 0.06597589 -0.015798625 0.036796328 -0.028723834 -0.07976618 0.09956078 0.02686447 0.07454896 0.055769686 -0.017385684 0.06542157 -0.04431922 0.06673685 0.05338512 
0.029708352 -0.013905135 -0.066272385 -0.050708808 0.07378274 0.01548032 -0.09108485 0.028639866 -0.06767155 -0.018404175 -0.03827512 0.09591645 0.07500513 0.011356034 0.07145105 0.03246504 -0.009584508 0.06556873 0.074785806 0.0144200865 -0.047631424 -0.0037206577 -0.049872626 -0.003962088 0.06256093 0.018409673 -0.050561257 0.034271467 0.033635706 -0.012763531 0.013811648 0.05506919 0.062255558 0.07733903 -0.04684722 0.0710384 0.053670436 0.098616235 0.012995838 0.08033927 0.0756544 0.060364913 0.007304667 -0.055276636 0.049341377 0.060177885 -0.0133383665 -0.06285382 0.05519185 -0.08304477 -0.046905007 -0.07292521 0.026340153 -0.016516304 -0.00289427 -0.021427477 -0.035912413 0.052608706 -0.03704083 -0.011203333 -0.032954793 0.09834745 -0.0040049595 0.056875806 0.008684048 0.023906184 0.01523241 -0.0349357 0.06958094 -0.023198757 -0.06606881 -0.053192582 0.087577336 -0.10023614 0.06971698 -0.054444056 -0.057718534 0.0701754 0.08297777 -0.0008689128 -0.06702712 0.09958954 -0.08322419 0.043795913 0.078629225 -0.07011324 -0.049104247 0.022089109 -0.11745362 -0.07278033 -0.061419792 0.013708584 -0.035918314 -0.06631448 0.099385746 0.07622554 0.10850094 -0.019200193 0.049386956 0.01736155 0.053445123 -0.056955464 -0.07969229 -0.044953443 0.08625015 0.012953493 -0.014631003 0.008109468 -0.015593287 0.050934378 0.056666564 0.061026193 -0.014047158 -0.08173067 0.08298205 0.084940694 0.032212567 0.10427366 -0.03768282 0.036811568 0.109533355 0.082496084 0.009879737 -0.014297231 -0.038638607 0.03737265 0.044774696 0.06008005 
0.017363373 0.062192757 -0.060464725 0.07585564 0.036416568 0.07067378 -0.06550494 -0.002752268 -0.032608252 0.075858496 -0.05232464 0.08260869 0.041262336 -0.08841526 0.015234142 0.05467515 0.06822306 -0.022682676 0.02814567 -0.0785414 -0.10245521 0.0691357 0.120893225 0.010205762 0.009445387 0.090530634 -0.0126748765 0.029224344 -0.016990362 -0.009015902 -0.04067371 -0.0103732 -0.1084103 0.014646793 0.07459 -0.05015877 0.0696588 0.014403926 0.021277975 -0.09602519 -0.01489586 -0.011574882 -0.06785828 -0.040527422 -0.09153254 0.021616057 0.08409809 0.054334376 -0.05800051 -0.108698666 0.04304874 0.032146815 -0.051217612 -0.05728077 -0.013579414 0.014097453 0.07119369 0.052863043 0.044966087 -0.0065753106 -0.062470656 0.024800135 -0.0274926 0.006491598 0.08245455 -0.015129683 0.09279242 0.061729506 -0.054486256 0.055283267 -0.032832727 0.102299616 0.018675908 0.05356669 0.07417697 -0.071085095 0.07596255 -0.06926917 0.0034294561 0.034370482 -0.07284552 0.07207811 0.07279921 0.056477275 0.11464356 -0.064516336 0.029049564 0.0051280316 -0.006725706 0.03195037 0.0491911 -0.0148302885 -0.073890604 -0.0077096713 0.04977813 0.09111437 0.100792184 -0.017148731 -0.015078622 -0.05350646 -0.048124507 -0.017553708 0.012442836 0.07717955 0.042565268 0.08735429 0.10913206 0.05140484 -0.021108888 0.052482087 0.03676994 0.044762485 0.038260397 -0.060434524 0.02489064 0.07454772 -0.021014709 -0.007973654 0.06551237 -0.04267887 0.06321214 -0.0366783 0.08677267 -0.04335415 -0.019743275 0.06166637 0.10856697 -0.018176699 
0.008527216 0.10452681 0.011558309 0.1881165 -0.37111056 -0.24204978 0.0045399945 0.043163676 0.1348291 0.19382827 -0.13094026 0.071913406 -0.2562587 -0.11125518 0.22741087 -0.00791343 -0.039379023 -0.06180926 -0.004618472 0.15375389 0.062192317 -0.3347086 -0.17801961 0.17174305 0.16746175 -0.18951343 -0.28083625 0.04324914 -0.28067872 -0.15972924 0.1291386 0.007569884 0.032174703 -0.22873649 -0.053433 -0.16876093 -0.0445277 -0.08543209 -0.045519546 0.008348764 -0.0025813947 0.058389153 0.21959446 0.09920303 0.044566013 -0.3123713 0.011086607 -0.09383153 -0.11513029 0.023296682 0.038034152 -0.03584547 0.05087094 0.054327574 -0.17377691 -0.11889006 -0.03448198 0.11194836 -0.11499846 -0.05502874 -0.03234548 0.08794515 0.08036638 -0.22341491 -0.17556451 0.13763888 -0.026037816 0.16291076 0.082440816 -0.20108238 0.10685638 -0.22728994 0.092169166 -0.026160918 -0.09591941 0.24240658 -0.05624968 -0.13267834 0.051812664 -0.070949405 -0.30724263 -0.010795668 -0.07947436 -0.2514023 0.013795184 0.0291276 -0.20432453 0.00874593 -0.04661861 -0.25094467 0.19405489 -0.37399846 0.024776127 0.13211821 0.09992406 0.09726008 0.110098496 0.07662794 -0.37343967 0.0766151 -0.084807724 0.030042121 -0.0006206502 -0.013621728 0.06712048 -0.31036574 -0.007640233 0.12080281 -0.051135115 0.038936004 -0.32382414 -0.01629711 0.1319211 -0.14810917 0.04298765 0.057780582 0.0015585481 -0.057539947 0.33608907 0.12271726 -0.0033096871 -0.3549616 0.046382472 -0.048366867 -0.23833875 -0.39404342 0.02019276 -0.108582124 
-0.022563027 0.019403817 0.060847133 0.042133648 0.03659247 0.095342495 0.0016798008 0.056129392 0.08296607 0.052272756 0.114168845 -0.04859278 0.007390368 -0.048895083 -0.03250589 0.0038007821 -0.0088362545 -0.024719767 0.013991336 0.08938013 0.04688169 -0.053862203 0.08267372 -0.084326744 0.024261544 -0.032686677 0.03376196 0.036349956 0.087224275 0.073062934 0.018169967 -0.041651893 -0.08015585 -6.054867e-05 0.021988206 0.07869424 -0.041351635 -0.060154174 -0.038253937 0.05016438 -0.0365095 0.111132294 -0.0062391567 0.104985304 0.021803634 0.075787365 0.054000404 0.09536643 -0.03418311 0.019083975 0.080704354 0.03515198 0.03952786 0.084311016 0.05260025 -0.0350212 -0.019382231 0.10558272 -0.008565892 -0.03022042 -0.0153551195 0.03652754 0.09528441 -0.043752156 -0.01738497 0.118576035 0.02489702 -0.0048727836 0.0623065 -0.08721644 -0.04439898 -0.04206698 0.01783152 -0.008081684 -0.043121666 -0.052215103 -0.036328625 -0.0164323 0.09517707 0.020991024 -0.0027948446 -0.04314582 -0.06955566 0.0325921 -0.027857328 -0.0537611 -0.025511567 0.063090965 0.041326813 0.039630756 0.08573419 0.09043756 -0.07038058 0.044058274 -0.012201075 0.03509199 0.007632642 0.08945756 0.03408124 0.09061435 0.103346184 -0.022457678 -0.08601351 -0.07074219 -0.055379346 -0.043878682 0.10832724 0.020212384 0.028841496 0.09343588 -0.047831718 0.08208518 0.033591103 0.0682127 -0.034476373 -0.057147607 0.023298277 0.115406565 -0.07942946 -0.0399006 0.1024218 0.029134842 -0.02039488 -0.025344463 0.052309554 -0.020006636 0.057233922 0.04901032 
0.015695477 -0.060276214 0.021748938 -0.035526875 -0.06156165 0.00060150377 0.01673821 0.12221366 0.020620039 -0.054413546 0.07873804 0.08587148 -0.03832463 -0.09300542 -0.023975324 -0.06899044 -0.036731526 0.012921543 0.05993086 -0.04410728 0.06730253 0.029231437 0.039467607 -0.041290466 -0.034400575 -0.015513085 -0.0077981623 0.08891115 0.06544477 -0.011588515 -0.06824344 0.028699776 -0.027224677 0.07914115 -0.08121957 -0.07180842 0.0806085 0.10609787 -0.023926226 0.024645204 0.018207686 0.073943175 0.08318815 -0.014880283 0.050864384 -0.027011402 -0.030554993 -0.01071525 0.090764545 -0.06302238 0.006438003 0.04498118 0.06706544 0.0855421 -0.07568789 0.0826952 0.024081843 -0.0043510217 0.023003565 0.020349944 0.019398674 0.0007148828 0.055619795 0.02206344 0.030115755 0.07702475 0.08822411 0.02407192 0.05517178 -0.057421636 0.030688103 0.04767476 -0.025577331 -0.03499493 0.037121713 0.05514822 0.09322758 0.014021572 0.012124372 0.08078025 -0.07628714 0.10826466 0.088248625 0.07487202 0.032544393 -0.06445284 -0.0059208726 0.10831909 -0.025690695 0.043259136 0.013639014 -0.05774953 0.022865213 -0.00070413074 -0.02762843 0.0028361734 0.1280522 -0.06907625 0.013659509 -0.0007800149 -0.03388374 -0.029553996 0.022048045 0.09030673 -0.089824356 -0.06807674 -0.053345904 0.033514667 0.00685683 -0.09086218 0.02297387 0.0058681057 0.06652957 0.036463264 -0.043831356 0.072751254 -0.07448328 0.013160713 -0.0076022353 -0.00934501 0.11653603 0.09690543 -0.03957588 0.04176598 0.09929375 0.10844246 0.093245514 -0.047245238 
-0.024176493 -0.039185714 -0.06909323 -0.052430075 0.08551717 0.04458762 -0.065626 0.08717791 -0.067651235 -0.019256389 -0.003382379 0.0037271157 0.039777055 -0.05641054 0.07536735 0.05221942 -0.042224355 -0.04942125 -0.08490509 -0.020883627 -0.077069744 -0.0017796672 -0.077371486 -0.075939454 -0.052691527 -0.053490806 0.0059238076 -0.027828591 -0.016715242 -0.008082019 0.05803436 -0.02279525 -0.06331262 0.011642254 0.0062267883 0.04111287 0.020844644 0.04880114 0.047798842 -0.024414934 -0.045656238 0.027271163 -0.07124463 -0.07967915 0.060657807 0.046761476 -0.011784114 0.05870562 0.06753506 -0.029231705 0.047218096 -0.0565652 -0.051820338 -0.06228946 0.035865925 -0.0790011 0.024741182 0.053321213 -0.08619792 -0.026371367 0.0001976409 0.078901626 -0.04963775 0.030698648 -0.007110778 0.033427563 0.024048219 0.03526868 0.018304849 0.050100453 -0.084303714 -0.062577136 -0.07755215 0.084741 0.06489033 -0.0635661 0.088746645 0.06606062 -0.069030695 -0.01261289 -0.05587689 -0.0069211493 -0.0013265403 -0.017655142 -0.029378042 0.07812488 -0.045849025 0.08101956 0.025236579 0.07714685 0.0030773673 0.00060565403 0.048980657 -0.06396605 -0.03903452 -0.041433644 -0.08024688 -0.05466044 0.022291692 -0.041565794 -0.031027919 0.036836825 -0.058365934 -0.0047977385 0.07441093 0.030364487 0.026112156 0.058560986 0.06360012 0.026366051 0.019599391 -0.008446575 -0.04057745 -0.019335961 0.069323644 -0.051687047 0.01070826 -0.07796091 -0.05965041 -0.06859575 -0.07614246 0.067200616 0.076038025 -0.0070468048 -0.0769202 -0.07292727 0.027425995 -0.044165235 
-0.052771796 -0.024470178 -0.081985705 0.03035088 0.06661203 0.033358008 -0.024410399 0.05952536 -0.017617252 0.018085865 -0.042201206 0.06795198 0.060583193 0.07278133 -0.00073229877 -0.035525978 -0.06414567 -0.013827681 -0.041820265 -0.025898503 0.03293876 0.011402993 0.09098412 0.042270336 -0.0011955757 0.087191194 0.109660454 -0.013409546 -0.024634086 -0.032501135 -0.0092423875 0.06928656 0.015161752 0.09175436 -0.0028926649 0.052786812 0.030023176 0.009098705 -0.02267161 0.037356712 0.016300522 0.019862654 -0.0492422 0.103374615 0.07511556 0.08402862 -0.031542063 0.023118272 -0.0022137025 -0.026685748 0.093829006 -0.09618569 0.031950664 -0.0033749195 0.10691378 -0.0060175713 0.014915494 0.07090338 0.06205618 0.08287647 0.07799702 0.0115633 0.043564454 0.0729214 0.098539345 -0.057163667 -0.0012176424 0.039560195 0.0062378785 -0.065636106 -0.002338604 0.09101514 -0.04963784 -0.050198313 0.04041278 -0.0721391 0.076885164 -0.020013334 -0.007272814 0.039154883 -0.002985286 0.10250996 0.0466773 -0.03669951 -0.015676675 -0.04177268 -0.071630806 -0.014092759 -0.10615134 -0.03381892 0.073017545 0.048595283 0.0038919956 0.03565472 0.08980556 0.0935374 0.106679566 0.0863995 -0.042641625 0.059576705 -0.022943923 0.034330055 0.054655902 0.0025608372 -0.050942916 -0.051021524 0.049414173 0.033072595 -0.06679994 0.051558536 0.019184697 0.028374527 0.017972646 0.09412285 -0.03138745 0.09866105 0.0027502521 -0.022756504 0.012307608 -0.039839864 0.062207136 -0.03281505 0.032816865 0.030928694 -0.013805953 0.05491024 -0.021831559 0.08040181 
-0.034458734 -0.08217932 0.04387703 0.032645606 0.047579803 -0.04496034 -0.07674591 -0.051415652 0.078855775 -0.052269384 -0.08415021 -0.05955434 -0.08542935 -0.06512846 -0.0551461 0.020563496 -0.08442273 0.02739666 -0.046570845 -0.0045514405 0.0089045465 -0.082829684 0.051823996 -0.06279419 0.06269743 -0.03972304 0.035814933 -0.023855653 0.06290413 -0.0498605 -0.0058237296 0.018247172 -0.07273714 0.07592339 0.02259102 -0.03954644 0.065338455 0.026671533 0.050322678 -0.069962025 0.06147658 0.049026664 0.078885846 -0.031387616 0.06388619 -0.03544044 0.016540604 0.06975726 -0.041968066 0.059708215 0.030407745 0.012948111 0.008928253 -0.030367501 0.0876087 0.054206096 0.052344177 -0.039360426 0.0115874335 0.0016390607 0.06254392 -0.0065399786 -0.04812805 -0.083371244 -0.04654933 0.0713414 0.04837335 -0.041139513 -0.04593938 0.028551094 -0.075011685 -0.024741078 -0.05107157 -0.015492424 0.007495843 -0.08305044 -0.061238192 -0.071287595 -0.0010851193 0.03845579 0.035138726 0.044358354 -0.06299676 -0.0802223 -0.054051004 0.005376361 0.06940944 -0.058207296 0.037310608 -0.04781487 0.012276297 -0.012546127 0.03747172 -0.059355542 0.070756875 -0.02495122 0.008040545 -0.06884345 -0.025788564 0.0128937485 -0.022827972 0.003632007 0.022683278 -0.021476138 -0.04602197 -0.046794 -0.08462991 0.03972777 -0.06468338 -0.05843036 -0.08709761 -0.06891827 0.025935944 0.01888726 0.0070528015 -0.0443272 0.03855779 0.026157001 0.034676217 -0.08091884 0.016088475 0.041826345 -0.08267755 -0.05184691 -0.02023698 0.01488708 0.03807322 0.016159732 
0.019035403 -0.039146643 -0.029675405 0.0478359 -0.007994704 0.09619872 0.054406803 -0.038201056 0.06960042 0.041416746 0.057479586 0.025682742 -0.0049697594 0.0069152415 -0.018145997 -0.09246787 0.057956796 -0.03611016 -0.05614101 0.010029685 0.059539642 -0.09364675 0.12295354 -0.07127628 -0.04637045 0.0029099486 -0.046373647 0.10383032 -0.018461248 -0.04758968 0.048236337 0.0014653294 -0.034323152 0.09108393 -0.06296116 0.027937703 0.013347704 -0.031877715 0.07084282 -0.03595909 0.006958641 0.06797127 -0.0019365574 0.04537424 0.04766702 0.10897788 -0.04124844 -0.02183384 0.09505998 0.025316989 0.005413338 0.0015252798 0.011905436 -0.0008056006 -0.06925129 0.029864706 -0.040504016 0.09704668 0.058875054 0.108357966 -2.3402075e-05 0.06661624 0.11327322 -0.017136272 0.045248847 -0.055975795 0.111353174 0.08501516 -0.028478827 -0.039331466 0.002527745 -0.02953473 -0.041521497 -0.046139464 0.0947751 -0.027798964 -0.03371956 0.045008257 0.09096311 0.00340386 -0.06287343 -0.00020024666 0.037553586 -0.09858157 0.117246754 -0.042276755 0.03568902 0.09799207 -0.09832955 0.0073595447 0.030428585 -0.017110229 0.018871324 0.10528982 0.054020293 0.03545792 -0.009488587 0.04557678 0.10087513 0.092436194 -0.046243276 0.091028094 -0.02553105 -0.06460003 0.010341713 0.09371839 -0.0026279509 0.05986688 0.024785664 0.04483619 -0.036497045 -0.049034193 -0.052182008 0.035005294 0.02683339 0.08708051 -0.063222595 -0.038641382 -0.045271847 -0.019253224 0.06510419 0.08670089 0.099910446 0.052978553 0.048291177 0.10782653 0.004330599 0.05357747 
-0.009474493 0.09049443 0.00010233712 0.029915234 -0.066177085 0.061684698 0.02689688 -0.021666614 0.003776076 -0.040066704 -0.022228912 0.00037681955 0.05558773 -0.06785835 0.027385836 -0.011649765 -0.013067664 -0.017681856 0.059384834 0.040840674 -0.013698185 -0.09984091 0.02977379 0.055268355 -0.027768089 0.07808484 0.0431575 0.081144035 -0.012852452 -0.06613526 0.0856699 0.07711307 -0.060346898 0.08049713 -0.019259216 -0.06972095 -0.0833808 0.0072419234 0.111213066 -0.0638438 0.07344252 -0.013679215 -0.056554668 0.05957366 -0.09387176 0.05935951 -0.0628374 0.046816792 0.040826827 0.07142977 0.10709772 -0.039315652 0.0034303404 0.086528964 -0.07389703 0.00016887918 0.07266688 -0.059385218 -0.056555003 0.018788649 0.033108067 0.07520616 -0.004875365 0.07675458 0.12612829 -0.0005657167 -0.047726225 -0.02341139 -0.026913185 -0.12515603 -0.026316235 0.08136224 0.057655323 0.049739726 0.038825683 -0.07259125 -0.067222185 -0.027090738 -0.05815404 0.017747352 -0.009477403 0.0424289 -0.03069072 0.04755115 0.037888955 -0.030875646 -0.015646392 -0.03029656 -0.069080815 -0.007576773 0.036904786 0.07241695 -0.013287018 0.014563855 0.08448768 0.08476886 -0.0030103875 0.053543158 0.010128152 -0.02932807 0.11497177 -0.006132114 0.06198649 -0.06900075 -0.02220288 -0.023381634 0.04281993 -0.053793903 0.0029658836 -0.05242695 0.0047463635 0.10262244 0.05104362 0.00873696 0.08657111 0.069109306 0.03514969 0.12004153 0.061274014 0.0041170595 0.091120034 -0.027937405 0.047109563 0.03980167 -0.04846879 -0.0010610218 0.05495402 -0.05693495 
-0.07173326 -0.08764444 -0.012224625 0.048823293 0.06998005 0.10082764 0.08105527 -0.017606258 -0.016698265 -0.029424252 0.07732294 -0.03882496 0.031440493 -0.016698647 -0.04725082 -0.043177918 -0.120672435 -0.035293296 0.06173073 0.07091502 0.10983872 -0.046498027 -0.022771446 -0.09494849 0.047255717 -0.041481297 0.109595545 -0.050347034 0.10484558 0.08820608 -0.08529418 0.043587655 -0.07437497 -0.10145296 0.04327974 0.018007932 0.025352923 -0.007975181 0.09141675 -0.072940685 0.0328491 0.10470544 -0.020865459 -0.040019736 0.048977792 -0.047230955 0.05266798 0.03590083 -0.018659107 0.07643271 0.0933646 0.06869726 0.0788452 0.08404936 0.06941846 0.09522446 0.07888809 -0.065441236 0.036629196 0.084272645 -0.04136513 0.050232 0.04965017 0.06809256 0.033043694 0.018199155 0.08878831 0.030917358 0.0006730044 0.0013174535 -0.0010928877 0.018368205 0.064275794 -0.030310802 -0.0072328392 0.07100732 -0.055455428 0.06526696 0.09644453 0.015709313 -0.032974508 -0.02567587 0.055457264 0.05032454 -0.053538978 -0.024639178 -0.091428295 -0.0032074375 0.04928544 -0.015302768 -0.061098818 0.01938745 -0.06692395 0.058459375 0.0074048694 -0.081874356 -0.018009448 -0.08148638 -0.036712058 -0.0070449295 0.045211 0.08451011 -0.012804064 0.06402167 -0.087419204 -0.026624415 0.016258169 0.08411829 -0.020071512 0.04965256 -0.054393053 0.010796314 -0.056211818 -0.050756637 -0.0524595 0.014239511 0.021683807 0.006121403 -0.0019767634 -0.021488972 0.02699542 -0.02656369 -0.021142026 -0.017123887 -0.018751774 0.0269845 0.013252371 0.07843985 
0.027672745 -0.08679291 -0.04150571 0.022822034 0.027492434 0.020283852 -0.012610987 -0.04348389 0.036389336 0.08151947 -0.03392894 -0.03680619 -0.035409972 -0.04645039 -0.024693828 0.015379506 -0.0063538924 -0.019856606 -0.08338975 -0.058526166 -0.074923545 -0.06869734 0.031581737 -0.069218665 -0.064867675 0.02127062 0.00095559657 0.07074907 0.036446318 0.023705106 0.003794989 -0.058065407 -0.044976417 0.023305647 0.08215239 -0.065813676 -0.01787486 -0.033898544 -0.07407879 -0.030491475 -0.032141205 0.035257865 0.017704759 0.07101973 0.029376885 -0.081633836 0.03819222 0.073673986 -0.072974965 -0.023744531 -0.08349626 -0.062975466 0.044934936 0.084922664 -0.039739396 0.082382955 -0.020003974 -0.03503522 0.08462802 -0.01252266 -0.005175598 0.01873466 0.00472032 0.07488956 0.012558988 -0.079462275 -0.037516836 -0.037194055 -0.04386056 0.07478929 0.044501804 -0.059614915 -0.07809948 0.037807398 -0.045384403 0.028880231 -0.029762343 0.024886148 0.08589297 -0.028187908 -0.010447003 -0.023157625 0.0017805025 -0.071014225 -0.057889327 0.030391846 0.07447807 1.1123717e-05 0.03632831 0.041189298 0.032799818 0.024897415 0.058039926 0.02917742 -0.0055534467 -0.04762991 0.012002757 0.07974648 0.002611651 0.05846134 -0.007307677 0.014467207 -0.017112881 0.017041715 -0.05296348 -0.06487605 0.047317084 0.016172364 0.02969252 -0.07763084 -0.08822627 -0.049270686 -0.005108029 -0.049756616 -0.047463767 0.0015632063 -0.03525782 -0.061262295 0.0054595247 0.07770952 -0.059033588 0.017016944 0.07142762 -0.008494211 0.043391883 0.058872975 -0.03665962 -0.08642116 
-0.071008995 -0.00028860863 0.06598946 -0.08482198 0.005410479 0.0057050316 0.048812084 -0.023520507 0.029871408 0.10020563 0.07187715 0.031593435 0.030899957 0.044513267 0.05777189 0.02859116 -0.0068410025 0.0800235 0.0045588464 -0.004508984 -0.03227205 0.08067786 0.036938306 -0.03610966 0.0648259 0.058263738 -0.013492655 0.026743997 0.09592292 0.021733116 -0.013703287 0.0739549 -0.03264712 -0.042704366 -0.061190587 0.084000826 -0.016139518 0.10151226 -0.005070271 -0.07178155 0.026725419 -0.0049963347 -0.01219704 0.11267659 -0.09376047 -0.0032187419 0.112951286 0.027193692 0.06426265 0.027614681 -0.015825864 0.08231783 -0.027435856 0.08965782 -0.010261389 0.09246125 0.045223147 0.0767834 -0.038737725 0.01145656 -0.04801988 0.104660906 0.01559645 -0.02934884 0.11341766 0.046055034 0.022097768 -0.06327131 0.11596619 0.0063504386 0.019959047 -0.057408232 0.041115645 0.020682607 0.044753283 0.079114206 -0.0066336333 -0.089717865 -0.025612826 0.10523035 0.066462286 0.06722788 0.013861621 -0.004408721 0.025448563 0.07207824 0.083406195 0.030846527 0.0023240114 0.08673617 0.03430132 -0.015515584 0.030998815 0.04205016 -0.0641706 0.0014560733 0.077796176 -0.0790393 0.12680621 0.06325275 -0.055142984 -0.008965194 0.02457813 0.02480389 -0.008684555 0.08614188 0.10348221 0.0060643298 0.02116079 2.3498835e-05 -0.028052751 0.092982166 0.07918802 0.045562048 -0.0070134513 0.008227766 0.07951793 0.07551852 -0.002161183 0.023349745 0.07659183 -0.06477667 0.075804465 0.059319105 0.033949222 -0.016744541 -0.019031636 -0.033021748 
0.022244914 0.060733624 -0.08665343 0.05500108 0.092522904 -0.007855266 -0.06054288 0.039800093 -0.053199917 0.07307308 0.044685815 -0.0055703535 0.09180081 -0.013940274 0.012341923 -0.018733224 0.09224732 0.04115825 -0.048947085 0.041928038 0.07544374 0.05825559 -0.0252321 0.06406105 0.046426963 -0.009751621 -0.007141638 0.008198471 0.04145613 0.009983959 0.06050675 -0.019818572 -0.026197247 -0.027563317 0.059952624 -0.05641637 0.039628007 0.07392915 -0.020422457 -0.083407916 0.079095304 -0.03424704 0.056192808 0.058500756 -0.0048064017 0.059416644 -0.02344936 -0.012994609 0.09416355 -0.06888032 0.058629695 0.06902072 -0.0072174426 0.062448785 0.079406485 0.05804747 -0.06727098 0.046518277 -0.06099923 0.028553836 0.02589991 0.0009397415 0.07002232 0.09473501 -0.038524173 -0.03905364 0.1096594 0.08366115 -0.03978736 -0.12147446 0.1049142 -0.060898013 0.09512294 -0.00995834 0.01104178 -0.043027613 0.054525234 -0.008361929 0.053627312 -0.05752153 0.0061309533 -0.03397439 -0.07879333 -0.101272926 0.013898665 -0.07707728 0.06575276 0.049945842 -0.037488323 0.10816979 -0.020107577 -0.038255535 0.056012075 0.04960689 0.09361219 -0.039104022 -0.011044522 -0.032494955 0.08126916 -0.041523617 0.08513196 0.015357208 -0.019608196 -0.08458832 -0.0030810179 -0.06295736 -0.0042980323 0.023666717 0.003471375 0.07419037 0.037574332 0.10391243 0.040903717 -0.07887897 0.048050348 0.0868088 -0.05721807 0.03121556 0.080667846 0.00039213902 -0.019043714 -0.076262385 0.0038107573 0.08488552 0.019751875 0.032099146 0.08541758 0.044723738 
0.004492162 -0.08729226 -0.016600944 0.049066305 -0.033410504 0.011654675 -0.08452711 -0.06595527 -0.012483429 0.07419765 -0.025165083 -0.03680403 0.04168088 0.06149259 -0.08835284 0.025783207 -0.06912733 -0.012854451 -0.08065498 -0.062941775 -0.01051045 0.07516475 -0.04060405 0.010109517 -0.017207496 0.025835883 -0.01518124 0.0039050777 -0.0017535567 -0.015978029 -0.03737576 0.028598424 0.034601685 0.06053582 0.011433784 -0.037086938 0.0191043 -0.06379785 -0.052296296 0.018115496 0.07447019 0.027791383 -0.085036874 -0.07682536 0.005891132 -0.08788866 -0.08174201 0.04695356 0.05477961 -0.026624527 -0.050196454 -0.040752918 -0.019167535 -0.06174097 0.070069775 0.023092447 -0.0707171 0.003960026 -0.061521653 -0.084218524 -0.013812699 -0.05010193 0.07948005 0.07270143 0.073437184 -0.08721082 -0.026089082 0.041503917 -0.040635098 0.0646774 -0.028036056 0.043946426 -0.02372334 0.08061847 0.055460446 0.05661145 0.06414437 0.014866957 0.042866178 -0.06342123 0.082448006 -0.024395978 -0.06383302 -0.08952755 -0.063721575 -0.014802972 0.07768426 -0.015316349 -0.026414346 0.054203253 0.0497661 -0.011906722 0.031616833 -0.021514215 0.021315299 -0.07057307 0.004918228 -0.07940781 0.011473596 -0.08959904 0.061085764 -0.032168724 -0.06360432 -0.068310924 -0.06738515 0.07008765 0.053041764 -0.0851245 0.03366756 0.0074175573 -0.031664263 0.007026959 -0.003618484 0.051650804 -0.05228982 0.025100827 0.017950075 -0.018179536 -0.045232486 0.048375044 -0.054441318 0.0372146 0.07650146 -0.058233093 0.025323555 -0.014317773 -0.0034702646 0.028258976 
0.08183862 -0.091968864 0.0171215 0.05343269 -0.053156096 0.08384966 0.031344894 -0.042794935 0.07968808 -0.020047117 0.050435107 -0.0003005667 -0.06456955 -0.01096059 0.05555947 -0.07269193 0.016824162 0.011351996 0.0073925587 -0.04261183 -0.030019816 0.06039757 -0.016565725 -0.016848834 -0.021538058 0.04926563 0.07924161 0.08828037 0.092198804 -0.053538155 -0.020108672 0.1035373 0.042388234 0.027818315 -0.019715127 -0.0032811759 -0.045273863 0.07112933 -0.057871282 0.019710219 -0.052570757 0.0023531793 -0.071335934 0.018697575 -0.07811666 0.07419041 -0.0042693955 0.09212201 -0.033392377 -0.08663236 0.042831797 0.036652155 0.10298275 0.09888831 0.08314607 0.012171721 0.07566031 0.1012639 -0.019013504 0.06609328 -0.0061528767 0.09331458 0.051804293 -0.0032912702 0.11685479 0.06715819 -0.03826032 -0.066052735 0.047956362 -0.09199589 -0.059753522 0.042386793 0.044925105 0.05386483 0.09269032 0.021425229 0.067179844 0.06578105 0.016366957 0.11641609 -0.018429268 0.04723879 0.045384724 -0.040009867 -0.033844434 -0.012965341 0.011081737 -0.006088605 -0.032955874 0.028534034 0.06627702 0.028496487 0.03579887 0.10567711 -0.045201216 -0.03555226 0.0017195842 0.088063836 0.07195248 0.048991792 0.0056121163 0.086724944 -0.032046363 -0.07138663 -0.089969136 0.100425355 -0.05647349 0.07599909 -0.023367155 0.08197571 -0.051914845 0.12368433 -0.008501614 0.06492197 0.08578134 0.009421988 0.033509314 0.07028923 -0.051136646 0.06920433 0.06804249 0.00912724 0.026578154 0.0070250933 0.078223675 -0.054908585 0.038495194 -0.033070106 
-0.041116763 0.036341872 0.0776101 0.06901034 0.015725398 -0.04758047 0.038561516 0.011844739 0.026717627 0.07469786 -0.055485725 -0.06420655 -0.03969382 0.0186623 0.028143851 -0.006468024 0.038958326 0.10093686 -0.033707157 0.08004741 0.03234802 0.083737984 0.021446593 0.05539706 -0.09001057 0.017138548 -0.028599901 -0.057505853 0.019059502 0.06644405 -0.019398697 -0.028879073 -0.048083764 -0.063228294 0.0020670719 -0.069312036 0.016104868 -0.020904511 0.07174339 -0.07136276 0.030872794 0.054228954 0.038647566 0.115655445 0.059125535 0.026024738 -0.02771591 -0.030852158 -0.010072559 -0.071549155 -0.049215343 -0.016360382 0.11166931 0.0060033035 0.06294208 0.000729651 0.0006560724 -0.027873976 0.03730746 0.04450272 -0.04647516 -0.039786637 -0.045196168 0.021493502 -0.01506709 0.101676404 0.030163342 0.091139935 0.036538552 -0.12237519 -0.02182018 0.06891301 0.11099947 -0.09204377 -0.009188646 0.01748926 -0.02705825 -0.08097708 0.070318505 0.0791063 0.076872684 0.024926575 0.050686296 0.04241009 -0.030648876 -0.06286131 0.0208428 0.036668353 0.0027665852 0.028101863 -0.023665423 0.059920896 -0.013264271 -0.03805295 -0.049864236 0.10759458 -0.017202027 0.12004104 0.045732472 -0.034692913 0.045891754 0.01286951 -0.045868855 -0.036082473 0.056168873 -0.008759091 0.04190682 0.005753485 -0.056569166 -0.033458296 0.011078875 0.051671907 -0.019562462 0.07877494 -0.045962952 0.028630031 0.061803978 -0.04284442 -0.0651563 0.07248302 0.06693725 -0.041851852 0.113450624 0.06246747 0.008645218 0.06575131 -0.033391457 0.006851378 
-0.08024326 0.033003826 -0.075172536 -0.055572208 0.030111624 0.07769183 -0.005016672 0.024301052 0.0144871315 0.0766648 -0.07592582 1.415813e-05 -0.0050269035 0.076515466 -0.07049129 -0.07829933 0.0775534 -0.07988963 9.493634e-05 0.010213865 0.07078295 0.0709253 0.05753191 0.012283771 -0.03608047 0.033233482 0.022342404 0.015965596 0.04476412 -0.04397947 -0.0056975116 -0.0069891056 -0.021767259 0.07389669 -0.018798836 0.070246406 -0.072317585 -0.02919814 0.0058888644 -0.04520797 -0.040750958 -0.083760336 0.028645523 -0.023616418 -6.641287e-05 0.024999961 -0.03557349 -0.065365225 0.04353054 -0.08759964 -0.008069892 -0.0065303147 -0.053998306 0.08718109 -0.06412582 0.06382189 0.05464583 -0.0056339363 0.013931675 0.060372986 0.0667631 0.017126843 -0.053752486 0.02567175 -0.020364618 -0.06322813 -0.0026668012 0.002893602 -0.07898436 0.0635208 -0.077637665 0.06465916 -0.01410979 -0.072438926 0.05073219 0.08668092 0.06897439 0.045189865 -0.047023356 0.026329508 -0.019803487 -0.02877363 -0.0689509 -0.0021793726 -0.07997888 -0.041702893 -0.05118092 0.07535914 0.04476672 0.04904768 -0.07144675 -0.0033758383 0.037026297 -0.07208124 -0.015769238 0.081717975 -0.020164244 -0.0053457855 0.056948464 0.032839328 -0.0859764 -0.030266836 -0.018122947 -0.07597695 -0.04816116 0.034186084 -0.086714715 0.03777711 0.085330404 0.082855925 -0.023051223 -0.044196274 0.0028920812 0.079073995 0.05220349 0.009028004 0.041106388 0.016633129 0.03377773 -0.023349646 -0.044847492 0.07353131 0.015949488 -0.031975105 -0.031078516 0.06654275 -0.0515225 -0.06847828 
-0.061256137 -0.1544432 -0.07437837 0.030688766 0.07011945 0.072432175 0.02995094 -0.037301086 0.012325662 0.063096665 -0.08207217 -0.1637161 -0.061861835 -0.038078785 -0.08831421 -0.49215606 0.000754172 -0.07675939 0.10978544 0.011699693 0.06636928 -0.023694916 -0.056280904 -0.13044727 -0.0720086 -0.07631112 0.1379522 0.114636116 0.11522021 0.0014955881 0.19881552 -0.011695319 -0.034002285 0.12581481 -0.093772404 -0.02007018 0.087196544 0.05357911 -0.034457125 -0.20199196 -0.04125109 0.09446007 -0.20407774 -0.021349829 0.09825915 0.032682538 0.016453959 -0.0067718104 -0.1056898 0.3116847 -0.020900516 -0.09063595 -0.045404248 0.039486732 0.24760646 -0.22465745 0.40824836 -0.243585 0.0027361414 0.09764527 -0.055888884 -0.027368503 -0.33844462 0.0659089 -0.01874898 -0.2733087 0.029237237 -0.011864132 0.089309335 0.27113575 -0.061742336 -0.09077831 0.07135825 0.28017753 0.08494244 0.08781274 0.00053048675 0.018940559 -0.024479108 0.11352752 0.12562688 0.021504268 -0.39564365 -0.44096187 -0.058925714 -0.053048115 0.12254064 -0.22924823 0.16584855 -0.22284868 -0.21987832 0.06344055 -0.3670319 0.0569717 0.027940545 -0.10361109 0.037853204 0.19133666 0.057422858 0.053100266 0.008175726 -0.018724317 0.18170288 0.078351684 0.044091277 0.020493342 0.044111487 -0.015888255 0.008025927 0.23565593 0.1184894 -0.028815592 0.016703954 -0.07638383 0.017864142 -0.10820134 0.09925287 0.017551485 0.1614976 0.08687538 0.0043993043 0.092020474 -0.11390107 -0.07356213 -0.07301992 -0.23654093 -0.05106119 0.11207825 
0.07659228 -0.031358026 0.020520097 0.0064021894 0.03516152 0.011511965 -0.028843349 -0.01573481 -0.016352538 -0.027021946 0.07549096 -0.041139454 -0.06839255 0.0030171555 0.044286348 -0.09402547 0.06093656 0.08598867 0.059107356 0.011900306 -0.04960688 0.07082424 -0.008554202 0.014684536 0.007101848 0.039807785 0.052393932 0.07222041 0.030465016 0.1010061 0.04971907 -0.0020487986 0.049685556 -0.027042829 -0.046610113 0.04591737 0.002791277 0.1089166 0.045224637 0.060181968 -0.043778207 -0.047668736 -0.010372222 0.04344486 -0.043412086 -0.012842717 0.020288723 0.024889523 -0.02961786 0.035234172 0.02517789 -0.028076684 0.11817612 -0.024942577 -0.0048740353 -0.05318056 -0.037619308 0.039054036 0.03676695 0.087209664 -0.07884586 0.10037006 0.098336615 -0.0016640996 0.08341776 -0.0063885767 0.044774424 0.014289751 0.018719582 -0.08132351 -0.009760028 -0.033004362 0.032196034 -0.078256786 0.020710137 0.0092557985 0.031531293 0.05475109 0.05926674 -0.032484103 -0.038331285 0.0040210253 0.05376683 -0.015674679 0.10148904 0.033427216 -0.07681692 0.030068824 0.021610005 0.0768243 -0.06563661 -0.06445296 0.015855694 -0.03328604 0.024742432 0.018516148 -0.028198669 0.040652696 0.122616895 -0.06087706 -0.025217183 0.088647515 0.09344092 0.035925396 0.06302545 0.054048486 0.11650184 0.016586613 -0.004488313 -0.074585296 -0.046323657 0.072397135 0.051657554 0.056069363 0.069955796 0.038933877 0.04494409 0.122415885 0.006938911 -0.002844888 0.021191556 -0.072137184 -0.018077483 -0.025727037 0.02753266 -0.054029137 0.07427563 0.0648654 
0.07032906 0.03421164 -0.06971066 -0.071611285 0.059055306 -0.040328633 0.036789723 0.07687947 -0.076863974 0.08647743 -0.06270842 -0.028892387 0.08478572 0.060945056 -0.058767512 -0.08254079 -0.08505015 0.014618374 0.020221602 0.06991444 -0.082546346 0.0065914206 -0.06584082 0.030152023 -0.06809611 -0.0021256541 -0.030660877 -0.04560303 -0.04215514 -0.032298848 -0.04029395 -0.088418275 -0.03193146 0.074524045 0.015981749 -0.050153233 0.06518981 0.009750445 -0.082736805 -0.08115502 -0.0067286687 -0.07378612 0.023247253 -0.06406325 0.032402925 0.08715316 0.0551692 -0.05833355 0.010250389 -0.005841255 0.037930094 0.05014693 -0.056602944 -0.08319563 0.0033723018 -0.06249638 0.022047877 0.021188349 -0.008825637 -0.06524697 -0.03608398 -0.04628669 -0.075090334 0.011735182 0.03749972 0.07444882 -0.06572183 0.06801245 0.0071266443 0.03994571 -0.064081416 0.047107283 -0.06340673 0.04611585 -0.07956401 -0.07360068 -0.024830915 -0.021784293 0.010306403 -0.028893601 -0.0134032965 0.06322277 0.06158004 0.03677266 -0.049714938 -0.039943065 -0.07890342 -0.082704335 0.08750269 0.081918694 -0.089058176 -0.07747972 0.08333328 -0.03271826 -0.07794192 -0.028113177 -0.008466437 0.06441957 -0.012757316 -0.08418588 0.0398395 -0.06350832 -0.03444651 0.08062834 0.07758416 -0.07155023 -0.022527993 -0.049148742 -0.07246172 0.008267976 0.08213829 0.08510658 -0.07521091 0.028217852 -0.03197273 -0.016031628 -0.080896035 -0.052646525 0.058545627 0.013409904 0.074347764 -0.06835543 0.040785875 -0.03950658 0.04699581 -0.060299322 -0.034376908 -0.023688449 
-0.059111487 -0.0026154062 0.041866545 -0.019358544 -0.073115975 0.06141707 0.058892157 -0.019662313 0.084092036 -0.013776615 -0.036371537 -0.005219068 0.005647725 -0.078065604 -0.06524745 -0.050575797 -0.04768388 -0.040459186 0.017646497 0.018365739 -0.025293633 -0.010088626 -0.054579385 0.026545832 0.026268484 -0.03907164 0.004585624 0.041417617 -0.0039500846 -0.069741085 -0.04494721 -0.022794012 -0.05350316 0.03997765 0.0617637 0.038029306 0.019311747 0.085243985 0.04086066 0.07397423 -0.0010059397 0.06597037 0.081439294 -0.040868983 -0.078483924 -0.06811632 -0.07647345 -0.086154 0.085944876 0.057616226 -0.053553745 -0.028019639 0.06933538 -0.067389145 0.08527494 -0.07863584 0.048063252 -0.017778963 -0.047232985 0.057610862 0.04990568 0.03762489 -0.06033819 -0.06997283 0.022460563 -0.026023716 0.05547031 -0.036237467 0.005692188 -0.027530257 0.036947966 0.053820103 0.020309512 0.008008733 0.08192134 0.06550722 0.039093334 -0.05919358 -0.0019015617 -0.057134047 -0.017443456 -0.011494242 -0.034485616 -0.056040045 -0.024949051 0.032755982 -0.026187427 -0.02626863 0.04005584 -0.044072945 -0.06209292 -0.06869257 -0.02967947 -0.08073804 0.071333766 0.028747017 -0.050935093 -0.052590482 -0.011640929 -0.014928186 0.00858922 0.019881468 -0.062095746 -0.007466524 0.078859404 -0.012154795 0.050889026 0.03410937 0.066308536 -0.07753483 -0.043472927 0.08281344 -0.08714504 0.08005254 -0.008586578 0.01795147 -0.08327878 -0.05901344 -0.0026990965 -0.062497035 0.0854077 0.060937613 -0.07420954 -0.04520959 0.0685103 0.0442507 0.021107767 0.00038608038 
