512 1
0.12936814
0.08265383
0.12089829
-0.016635252
0.11954692
0.015483636
-0.012237742
0.02177712
0.09025826
-0.052981965
0.1396376
0.07899101
0.06331483
0.01965209
0.0037180604
0.038043614
-0.024919333
0.061080936
-0.043000117
0.1381812
0.06510697
-0.03915209
0.037971463
-0.027045572
-0.013483503
-0.0006121836
0.14336015
0.043968897
0.0065063117
0.09718842
-0.0047304574
-0.0051927348
0.020470379
0.10421676
0.11174457
0.08601454
-0.0007820536
0.0025616214
-0.011982816
0.10611119
0.019161418
0.076607145
-0.016422264
-0.008884549
0.050968695
0.10176081
0.10534774
-0.051036224
0.030763557
-0.048735768
0.11584086
-0.022266977
0.03816711
0.07728387
-0.022144184
-0.010668862
0.05509711
0.0650742
0.08072432
0.08690774
-0.02242261
0.028213302
-0.0032131206
0.056597162
0.020078814
0.1319274
0.07491919
0.0077886656
-0.013958755
0.010494545
0.024301901
0.010282221
0.09876121
0.08384008
0.13103239
0.07048684
0.092730284
-0.0052033816
-0.09461868
0.10503318
0.14056984
0.03899641
-0.08385037
0.106501214
-0.06724504
0.12054672
0.004384367
0.06648507
0.061817724
0.00941275
0.011799366
-0.031294666
-0.03429985
0.14179914
0.06775363
-0.004616857
0.026552709
0.1145492
0.010390502
-0.0049578897
0.08118764
0.09917566
0.06326555
-0.021855943
-0.030801596
0.10939324
0.028522493
0.141538
0.11319629
0.015008871
-0.0062959758
-0.07591899
0.1435148
-0.015153226
0.10631287
-0.0057639563
0.122540124
0.06805484
-0.016398843
0.10879144
0.038655497
-0.016271425
-0.012713257
0.12591177
0.11120386
0.031932056
-0.021006908
0.12892514
0.04690393
-0.021523835
0.04435439
0.12488959
0.028671533
0.060748547
0.0012124421
0.09384003
0.08949067
0.14403728
0.060789708
0.13070306
-0.06394515
0.06928599
0.018548472
-0.081376545
0.057302777
0.033283513
0.07751651
0.009649889
0.022084922
0.039232496
-0.084753275
0.04102196
-0.018759506
0.095170595
0.13585679
-0.026137168
-0.075216204
0.0710995
-0.07468252
0.048554666
0.062290464
-0.045304738
0.042014156
0.08663573
-0.03471769
-0.053601682
0.11143111
0.04683392
0.089276835
0.015070271
0.049003486
-0.031121494
0.115417905
-0.0016252263
-0.0839716
0.13283864
0.13988318
0.023851551
-0.008183373
0.08632788
0.13833645
0.061644018
0.102599196
0.13414098
0.016819198
-0.020865448
0.13253176
0.13712217
0.048278466
0.073583275
-0.045007423
0.039676175
-0.033618588
0.042880237
-0.031678386
0.11739626
0.09744221
0.082561724
-0.015350857
0.044548996
0.0050406
0.02843808
-0.012089966
-0.02682976
0.01805618
-0.015250224
0.11525681
0.0074605397
0.13633671
-0.0014929532
0.10355318
0.11266813
0.022226764
0.0014922054
-0.0015754586
-0.04956582
0.13858047
-0.0062930956
-0.007704145
0.068592265
0.12695293
0.06945559
0.03137775
0.05262687
-0.084363155
0.06662629
-0.014167431
0.016545277
0.08634777
0.0037220921
0.009214511
0.0522109
-0.046498775
0.008852581
-0.028272005
-0.0803178
0.037970323
-0.0038615805
0.029230239
0.07806758
-0.06519282
0.03447216
0.11946544
-0.026414353
0.07919038
0.016556554
-0.022385102
0.018968558
0.034606062
-0.0041643223
-0.033557925
0.07050489
0.054875426
-0.08587377
0.051182617
-0.0037670857
0.0063345237
-0.011166666
0.06511947
0.047178343
-0.03411687
-0.053253166
-0.020115674
-0.02472494
0.0386486
0.07761193
-0.0039715525
0.13514085
0.06269391
0.11824413
0.05344679
0.13907118
0.058197014
0.028706219
-0.0031091962
0.13445202
0.099243425
0.14269847
0.07167217
0.10846108
0.05903198
0.1323249
-0.018324632
0.09398579
0.14770864
0.017976187
0.0040825387
0.07059917
0.10273753
0.061948236
0.07110914
0.028366802
0.14307778
0.09519649
0.026209049
0.09121939
-0.050502766
0.08535259
0.06267841
0.076553404
-0.030955177
0.034223802
0.0048306887
0.13775891
-0.028340366
0.14240263
0.09336362
0.0945754
0.015345065
-0.0009839846
-0.07472833
0.018288229
0.0465143
0.05707809
-0.025611384
0.079743564
0.075283304
0.09207399
0.06298368
0.027863428
0.02376564
0.017173303
-0.037372958
0.119147114
-0.059402186
0.1023657
0.046022918
-0.02726641
-0.008880078
0.051704913
0.10551744
0.014526104
-0.0635798
-0.036344174
0.062664285
0.06458583
0.04069162
0.050950423
0.014412228
0.10715427
0.13487822
0.006011123
0.11644848
-0.044866536
0.112386435
-0.015756734
0.012734618
0.09453518
-0.08630963
-0.001263056
0.04695498
0.1207523
0.036498815
0.066486545
0.036634944
0.04046486
-0.008567405
0.13791797
0.011077057
0.0254009
-0.00980488
0.058556437
-0.01720454
-0.01461876
-0.020859329
-0.02825358
0.09226431
0.061325442
0.05417439
-0.0009833511
-0.010436439
0.0038921083
0.008540831
0.046836186
0.048826914
0.099202394
0.06747136
0.00058357156
-0.029319717
0.014576909
0.02650837
0.0029548258
0.067739405
-0.00012723434
-0.048254255
-0.022916723
0.067364454
-0.0847121
0.14715394
0.036538024
0.055034053
0.03644253
0.057112783
0.056383383
0.00446392
0.063641995
-0.039043766
0.10054712
0.092854686
0.14472449
-0.035010245
0.048635717
0.11563503
-0.02730011
0.008704072
-0.025197744
0.014796197
-0.062096607
-0.022982603
0.087724164
0.08496932
-0.053362563
0.11737531
-0.04966948
0.14222506
0.008342447
0.058021702
0.051912338
0.057450417
0.05045924
0.022006324
0.02795237
0.06620859
0.053589087
-0.020976499
-0.07249584
0.14598864
-0.019332953
0.075058945
-0.005725955
-0.016454171
0.065212056
-0.014194816
0.032187436
0.022914812
0.086316265
-0.024459792
0.042939585
-0.06681666
-0.01301548
-0.002179137
-0.00068066333
0.14724599
0.08171607
0.008025614
0.09892815
0.0895523
-0.06610415
0.04872436
-0.014250875
0.10282537
0.07256888
0.1371199
0.09203878
-0.019570494
0.088670686
0.08341094
0.011590956
0.017005306
0.061510164
0.03579981
-0.07565918
0.033592682
0.04020244
-0.004373787
0.109652944
-0.019580683
-0.019935053
0.034370184
0.0040305234
0.094627224
0.07809512
0.0035383236
0.12749964
-0.06623674
0.03256284
-0.024740474
0.12679037
0.06347237
-0.02521411
0.09028505
0.046493992
0.044949885
-0.06369661
-0.006477577
0.05090374
-0.025753014
-0.018251993
0.08378511
0.033267424
0.0202937
0.1408019
-0.027099792
-0.021084975
0.085476995
-0.026168186
0.063506804
0.012423232
0.02670789
0.017086286
0.050458685
0.05546228
0.11880621
-0.00067874364
-0.026960729
0.1334693
-0.0073471963
0.01408544
-0.028833926
0.047523804
0.042623866
0.120069936
