6957 1
-0.052389316
0.076425605
0.0015840826
-0.025846703
0.10136833
-0.06161857
-0.01997567
0.025923327
-0.00040037744
-0.016112695
0.0045891586
-0.014746127
0.014354199
-0.04659391
-0.034480702
-0.034905966
-0.017182343
-0.063454434
0.038062222
-0.0851422
-0.028040934
0.01073142
-0.082747266
0.035671778
0.02695226
0.0033078499
-0.017743215
0.016854543
-0.07544429
0.014318647
0.037825376
-0.061165113
0.01310191
-0.035966985
0.001384113
-0.024973707
0.0066180155
0.0014962874
-0.01598446
0.02608163
-0.08236595
-0.04483538
-0.023043439
-0.0048725996
-0.008992601
-0.025463073
-0.028289834
-0.021640263
-0.0478688
-0.05661406
-0.0038746607
-0.049290124
-0.058301482
-0.04281317
0.014432074
-0.025089433
-0.029192064
0.009559645
-0.03189255
-0.01558286
0.05260621
0.004212396
-0.021044066
0.032336995
-0.028506288
-0.049647864
0.04545549
-0.05213766
-0.049118552
-0.018233662
0.005159222
-0.032131005
0.0068632434
0.06596301
-0.03672928
0.015691137
-0.014263281
0.051676165
-0.016445925
0.017754616
-0.011833758
0.023870233
0.04195434
0.01896812
0.04343328
0.018271217
0.054938186
0.04018389
0.06239531
0.05012253
-0.047351245
0.010738454
0.049711082
-0.07958656
0.013680533
0.026556917
-0.052271213
-0.05121413
0.019287735
-0.022736194
0.058628544
-0.04331341
-0.038890876
0.027131964
-0.030214783
-0.08696771
-0.0384236
0.06616314
-0.101605386
0.052205086
0.05194654
-0.097909935
-0.0177032
0.0949186
-0.13074301
-0.027217293
0.08257767
-0.05644364
-0.013590522
0.09973701
-0.07745948
-0.058569785
0.089831516
-0.09700622
-0.033024166
0.10846798
-0.039268497
-0.0053941403
0.027756317
-0.0805482
-0.06659139
0.04081866
0.01886122
0.016607136
0.08514649
-0.030166313
-0.08507011
0.051826604
-0.087537386
-0.017417215
0.10015129
0.033774275
-0.037270226
0.036070514
-0.004203001
-0.08253548
0.03402434
0.055828396
-0.09296705
0.07637155
0.06160504
-0.0316769
0.049268275
-0.015731229
0.0077497084
0.016342333
-0.033941723
0.06520857
0.053715892
-0.029585049
0.03881518
0.027625637
0.0037067698
0.078007594
0.025340922
0.008921327
0.058208086
0.040928002
-0.026292764
0.07142406
0.028914528
0.0041911784
0.01992459
0.0073247342
-0.03430546
0.07998025
-0.04209401
-0.044334568
0.047812797
0.0055642184
-0.014537992
-0.00091613043
-0.029038072
0.025735721
0.009249626
-0.014660977
0.00839717
-0.0043112463
-0.054082237
0.0039941347
0.04362577
-0.03908477
-0.020903803
-0.0022089863
-0.0022300892
0.06412244
-0.027496755
-0.07809837
0.04757167
0.01769938
-0.010113308
0.0057327896
0.047684394
-0.030120607
-0.019055499
0.048939526
-0.026414989
0.042815026
0.0293212
-0.053845726
0.047391973
0.012958519
-0.033221383
0.003809334
-0.034915302
-0.0031547493
-0.016066883
-0.032024667
-0.015028134
0.005371474
-0.04310352
-0.025561372
-0.028659163
0.01286313
-0.023522291
-0.04536333
-0.047494844
-0.0371986
0.028320648
0.0021735262
0.012844365
-0.029921386
0.0047579217
-0.012410347
0.021607375
-0.027001299
-0.029413406
0.0063896994
0.008471971
0.011500179
-0.033333726
-0.04031514
-0.04114483
-0.048374962
0.0060054306
0.019854616
0.010951295
-0.064728834
0.007823868
-0.019605273
-0.056433454
-0.022970475
0.0036028526
0.0070064366
-0.03997629
-0.029613135
0.0034297064
0.013409057
-0.0077102757
-0.002950204
-0.0069519673
0.028943937
-0.027275953
-0.0015098411
-0.010386987
-0.0012000643
-0.02033067
-0.044370264
-0.021989532
-0.0221036
-0.011275842
0.0037713621
-0.022945028
0.0335285
0.059604995
-0.020740785
0.0052705067
0.039989468
0.004218436
-0.032820668
0.03418365
-0.054695256
0.057253983
0.061548647
0.004741857
0.019038193
-0.0746521
-0.06990429
0.00464493
-0.057896324
-0.051789377
0.008149394
-0.008025239
-0.07730192
0.01896822
0.0025349967
-0.038921118
0.0052062874
-0.035867117
-0.00497153
0.021593327
-0.061013363
-0.03925145
0.03178861
-0.04306374
0.026573258
-0.012928201
-0.012323703
0.007924415
0.040850833
-0.050524537
-0.01640248
0.025307242
0.005712401
0.033328757
0.02127864
-0.007333664
-0.062245656
0.0075233476
-0.058093194
-0.025976866
0.027891297
-0.020987015
-0.02609001
0.018586881
-0.010850225
-0.023353292
0.013590173
-0.036140747
0.048885312
0.06571929
0.06824315
0.017038181
0.061422918
0.036613595
0.06969363
-0.057580944
0.017083708
0.05712971
-0.04853167
0.038013343
-0.078631185
-0.059387695
-0.0255099
-0.0787691
0.015009531
-0.02482269
-0.022529885
-0.06850181
0.048708525
-0.06836409
-0.031513635
-0.015498393
-0.056616314
-0.051358216
0.036991555
-0.06383262
8.8552515e-05
0.049270105
-0.015042941
-0.040488027
0.016882397
-0.08904395
-0.022852462
0.0052845683
-0.056034405
-0.020268487
-0.009180669
-0.06532337
-0.042251986
-0.013459569
-0.06345077
-0.0035374782
-0.067315236
0.018927088
-0.07274735
-0.09599247
0.044542715
-0.039094854
0.00014089004
0.006036659
-0.058584973
0.080494024
0.022054156
-0.06560113
0.05372272
-0.030063296
-0.0796955
0.064017646
-0.026121274
-0.06966234
0.036442433
0.012957686
-0.044779867
0.035019252
-0.028633997
-0.008157907
-0.00034496386
-0.0709836
-0.0048608785
0.010038843
-0.0051805875
-0.021014491
-0.054902185
0.0054262714
-0.0075391224
-0.05060852
0.05524304
-0.0004954661
-0.04645793
0.062569715
0.004930551
-0.032447264
0.0546216
0.0014753724
-0.038554173
0.08765148
0.016495975
0.040249452
0.03555437
-0.062423915
0.004285518
0.010274321
-0.05708877
-0.014989556
0.05262203
-0.0064261323
-0.039430227
0.0052431873
-0.057227015
-0.048125103
0.075454995
-0.072946966
-0.007994353
0.006716732
-0.035236854
0.0057898597
0.032616768
-0.066428296
-0.028753022
0.0202349
0.02311288
0.04104939
0.057533827
-0.01733063
0.010509239
0.0211438
0.011866838
-0.033695593
0.05974307
-0.018321423
-0.013927253
0.045452792
0.01747611
-0.019273244
-0.004398739
0.030048965
-0.0029413775
0.0116829295
0.024615686
0.009991199
0.03491793
-0.019942278
-0.0014540472
-0.005258378
0.09076205
0.016934682
0.044058997
0.053105656
0.06283211
0.016464982
0.0582136
0.035009723
0.06237533
0.05312474
0.020886313
0.026817571
0.05858341
0.043061145
0.050300367
0.06660236
0.0054620574
0.011344243
0.049320616
0.024316844
-0.043522466
0.0075970176
-0.0116268415
-0.048547275
0.0019350421
0.11885677
-0.050156876
-0.02478588
0.11572056
-0.02423792
0.026512066
0.08468245
-0.034967262
-0.006451189
0.075126536
-0.09775516
0.00040879438
0.06561663
-0.05607963
-0.055152893
0.021493588
-0.055113617
-0.024134297
-0.010731496
0.001522097
-0.05980338
-0.0067896084
-0.033053864
-0.03491584
0.0018218673
-0.02905443
-0.02327485
-0.003061488
-0.042863622
-0.028289089
0.048880942
-0.041365888
0.012528403
0.046860278
-0.09435199
-0.004144168
-0.0012631433
-0.017749378
-0.008166214
0.017686022
-0.048831075
0.002582523
0.008471802
-0.01827255
-0.026489764
0.040120117
-0.029541131
0.026939366
0.07732523
-0.09840295
-0.0077066147
0.043982316
-0.07832692
0.01312844
0.07348655
-0.050136086
-0.044308625
0.06919088
-0.08793496
0.045458388
0.07591677
-0.054489095
0.02739017
0.03936808
-0.057070237
-0.015545667
0.05998041
-0.022147924
-0.019387959
0.01853855
-0.022906514
-0.004521054
-0.030347614
-0.08163335
0.038465902
0.038477134
-0.094132185
-0.002300584
0.02156318
-0.10362591
-0.03522345
0.0690213
-0.070548125
0.036662504
0.0064233276
-0.008531046
-0.038315695
0.040943664
-0.0575588
-0.03594918
0.048189595
-0.024454981
-0.019472636
0.06675057
-0.06332192
-0.031813804
0.009048923
-0.011148237
-0.03341667
-0.003221021
-0.005330059
0.023729041
0.05324797
-0.048033368
0.012156719
0.013220544
-0.012220139
0.010112939
0.06739404
-0.06696193
-0.012785677
0.01613255
-0.06560412
-0.02777196
0.030907769
0.0002968188
-0.031775195
0.02232254
-0.063054
0.008579291
0.014483091
-0.018459048
0.028621411
-0.033968557
-0.035902258
0.032595474
0.020176137
-0.0418997
-0.027427074
0.019082043
-0.06123456
0.036097508
0.00896458
-0.069108814
-0.026600184
-0.057031527
-0.05916888
-0.012832095
0.03660443
-0.0032883028
0.030867387
-0.06377089
-0.09262086
-0.043776017
-0.10271523
-0.05025234
-0.046515852
-0.050395686
-0.045904245
-0.038706854
-0.08181342
-0.021997048
-0.04327939
-0.081140436
0.011998117
-0.05491514
-0.06796129
0.011212263
-0.029478533
-0.11149199
-0.03301738
-0.0056310524
-0.10238946
-0.0006788962
-0.038612947
-0.059064537
-0.053260155
-0.0138174
-0.065171346
-0.0087108575
-0.033971105
-0.070721
-0.012805185
0.02349573
-0.033904146
-0.050677676
0.0326448
-0.10005261
-0.03489176
0.0068472344
-0.05870198
-0.0065290774
0.004087506
-0.10162964
-0.06766766
0.04372171
-0.051976565
-0.06303838
0.007427359
-0.042951014
-0.005774549
0.017879564
-0.10086183
0.008088707
-0.050980285
-0.090541355
-0.03507362
-0.044974178
-0.038760524
0.012744823
-0.0032448359
-0.09461357
-0.06142268
0.032105252
-0.095521174
-0.06542308
-0.017447589
-0.036536712
-0.011903892
-0.037436083
-0.09886934
-0.0048403335
-0.026771966
-0.05006667
-0.047614582
-0.03013391
-0.040925637
-0.068901844
0.0480591
-0.08475213
-0.012822668
0.0021841202
-0.012416693
-0.062032342
-0.027509416
0.006503824
-0.04060162
-0.040785227
-0.0796567
-0.005098011
0.01245157
-0.040822264
-0.04385644
-0.07427793
-0.03694374
-0.058589056
-0.0039166277
-0.033759795
-0.04707474
-0.016831193
-0.025830848
-0.017249327
-0.03577408
-0.00049382664
-0.030793464
-0.062711276
-0.020337285
0.015189596
-0.030375095
0.078421615
-0.015384571
-0.040559538
0.026636915
-0.08992429
-0.028570749
0.007845061
-0.02232555
-0.050848227
0.053347006
-0.061594546
0.016045542
0.026707506
-0.035068903
-0.037980445
0.015468215
-0.07282533
-0.030766385
-0.024575192
-0.06670734
0.018669764
-0.004432069
-0.070196345
-0.011661753
0.02004101
-0.06255331
-0.041943505
-0.022623029
-0.07103715
0.030876169
-0.029438585
-0.044008292
0.042365093
-0.0006032261
-0.07274921
-0.032520644
0.004025451
-0.062802486
0.022398654
-0.04885114
-0.027593182
-0.0070570973
-0.017126868
-0.022457145
-0.012554695
-0.011639718
-0.0629362
0.027634734
-0.08009214
-0.013662837
-0.0046047154
-0.06514528
-0.04581621
-0.016616205
-0.054493148
-5.3914497e-05
-0.031162612
-0.04060557
-0.014408026
-0.0064772097
-0.08313427
0.0046292013
-0.020059362
0.027466398
-0.057724666
-0.0037896666
0.015418081
-0.008972748
-0.054352097
-0.0009536232
0.01621319
0.006381585
0.018480955
-0.039175246
-0.046944797
-0.04320024
0.031261493
-0.013279457
-0.040038567
0.030927878
0.018803697
-0.079266705
-0.061439425
-0.04273747
-0.048089013
-0.058398236
0.022300642
-0.008280167
0.003913357
0.041665576
0.0042442163
-0.04860881
-0.013114523
0.013147601
-0.06093191
-0.019490076
-0.031221408
-0.047170784
-0.030072507
-0.04396209
-0.01695742
-0.027256953
0.018932577
-0.004630029
0.048131652
0.0020817502
-0.07107881
0.038031865
-0.004286995
-0.01438689
0.017098423
0.08881103
-0.024618462
-0.017972235
0.045315634
-0.03149553
0.02511885
0.03783332
-0.033669274
-0.007562927
0.097378515
-0.07439484
0.014439857
0.04037353
-0.048824985
0.010618323
0.07117608
-0.017485794
-0.022174325
0.034561533
-0.005368823
-0.027561015
0.058763944
-0.03061897
-0.025285533
0.07495031
-0.016935136
-0.024766259
-0.0043852977
0.00848542
-0.041219607
0.0058449702
-0.054471206
-0.09212007
0.053669076
-0.04838194
-0.09395678
-0.001454344
-0.06351356
-0.057136267
0.0055678063
-0.052445088
-0.029359698
0.057570215
0.002377005
-0.027163718
0.08231455
-0.012295318
-0.065590374
0.02013958
0.0051718666
-0.06971871
0.037288412
-0.06241072
-0.06701267
0.051050548
-0.028488448
-0.04251403
-0.036982756
-0.061812084
-0.03538075
-0.06260222
0.001426714
-0.08351199
-0.062476967
-0.013641156
-0.0118702
-5.5831348e-05
0.009554656
-0.011524894
-0.04347384
-0.008370046
-0.06278351
0.043779403
0.00046057205
-0.04975251
0.053765424
-0.058784157
-0.005445804
-0.055658385
-0.03369571
-0.011184564
-0.051842723
-0.025032189
-0.07522636
-0.062379356
0.011087296
0.026996864
-0.034054462
-0.039123844
-0.051177602
0.010728779
0.00066728896
-0.034055907
0.027213272
-0.011967424
0.017191127
-0.04764767
0.006697038
0.048723284
-0.04225137
-0.044095114
0.020555504
0.030891266
0.014642348
0.09402151
0.019344216
0.0466826
0.05862098
0.003211807
0.022252483
0.07919905
0.01253495
0.031705223
0.0656891
-0.0047262344
-2.2050226e-06
0.08285944
0.03943398
0.07119355
-0.046765342
-0.030540245
0.018247314
-0.038708363
0.032659788
0.012227189
0.04656398
-0.03468381
0.056460608
0.05541103
0.031367447
0.006582695
0.051411357
0.03526367
0.030571483
0.08769129
0.05671399
0.0027272217
0.0073400517
-0.024076512
0.01810851
0.0006204022
-0.01716649
-0.011219971
0.007973377
0.029281724
0.048963115
-0.03958499
-0.056570143
-0.029916147
-0.08915439
-0.035376363
0.024664199
-0.030962355
-0.08302029
-0.032550022
-0.01608552
-0.070631735
-0.011663952
-0.046064474
-0.05876121
0.023190169
-0.01424462
-0.041716475
0.0067362795
0.011508544
-0.08840503
-0.03621384
-0.051719204
-0.088453695
-0.0471995
-0.044174895
-0.037731588
-0.06435797
-0.044373613
-0.09920665
-0.024632966
-0.020848637
-0.10066874
-0.05076672
-0.01748745
-0.11151759
-0.047071613
0.032889053
-0.108615726
0.010117485
-0.017130274
-0.06838245
-0.056802906
-0.03436446
-0.102663316
-0.01622838
0.05323636
-0.07368716
-0.039104693
0.033190165
-0.09518654
0.0035374216
0.022602286
-0.05943303
-0.0390748
-0.0006696765
-0.041511595
-0.03551169
-0.035267655
-0.059491705
0.01752973
0.028425364
-0.08503444
-0.00793865
-0.017698783
0.010149155
0.025617288
0.014324959
-0.10934581
0.0050817174
0.025720784
-0.072520345
0.001563332
0.027739363
-0.088902906
-0.039458245
0.03303013
-0.07058506
-0.0007901681
0.027093077
-0.025541658
-0.06652667
-0.01954526
-0.07440809
-0.06661488
0.007751763
-0.08042315
-0.021369396
0.050688356
-0.095649
-0.060540803
0.04053499
-0.029212331
-0.07037971
-0.0036661075
-0.0008396954
-0.020526798
-0.049556803
0.0064791297
0.0020700868
0.06053324
-0.065146156
-0.014520611
0.06835923
-0.028381508
-0.059110627
0.06590087
-0.0701963
-0.05540668
0.026803158
-0.010680101
-0.0104081165
0.04421151
-0.07106935
-0.027479315
0.011424271
-0.09830146
0.0023451792
0.017357564
-0.087176934
-0.031641573
-0.03985869
-0.0074923565
-0.006503292
-0.004510264
-0.09823914
0.01310415
0.026096333
-0.074242465
-0.0009369927
0.034032147
-0.051313832
-0.039858237
-0.011029312
-0.108711615
-0.046099238
-0.01594005
-0.066772945
-0.06180229
0.00041510435
-0.0970058
-0.006934997
-0.04219857
-0.104376964
-0.048212722
-0.051284406
-0.048669737
-0.0713494
0.0050193076
-0.09235519
-0.039896015
-0.037129983
-0.033170614
-0.048612554
0.033947863
0.025209926
-0.017891893
0.008047012
-0.0083739655
-0.021704199
0.008609121
-0.020943101
-0.09296033
0.048417687
-0.06350494
-0.09525132
-0.016664917
-0.027253212
-0.031180562
-0.034168195
-0.057240456
-0.037454385
-0.024521334
-0.04904527
-0.031284895
0.013312244
-0.019148862
-0.05247504
-0.046209723
-0.09488604
-0.024125148
-0.036642347
-0.08162811
0.009266543
-0.009491899
-0.08592529
0.036258835
-0.057317875
-0.004268642
-0.0041148346
0.018812185
-0.044378385
-0.022203669
-0.0028355892
-0.05493886
-0.066743165
-0.0062251454
-0.07561644
-0.053947315
0.003600135
-0.11216798
-0.06867816
-0.0075290273
-0.09290765
0.0069940016
-0.0123197455
-0.10683714
0.009603498
0.0110834045
-0.061943654
-0.038305234
-0.018259974
-0.07571676
-0.046702154
0.012087276
-0.09306374
-0.06251446
-0.026843052
-0.07422841
-0.03261449
-0.04026633
-0.10202872
-0.09314877
0.004036627
-0.10764417
-0.021994878
-0.012196523
-0.03857567
-0.08202373
0.026460232
0.05170308
-0.03385004
0.02789744
-0.024243483
-0.022980824
0.0025396307
0.033094443
-0.009229934
-0.06047853
0.021625033
-0.024073107
0.022317385
-0.042386185
-0.09490977
0.01257494
-0.009421411
-0.064508595
0.03668612
-0.0029587143
-0.020059092
-0.042848513
0.0173408
-0.07998006
-0.04599415
-0.009442234
-0.014645517
-0.049502388
0.029588426
-0.036191843
0.017632544
0.0028535414
-0.08586261
-0.04399696
0.030532554
-0.028055666
0.036469612
-0.0022759319
-0.08801475
-0.041006837
0.016866991
-0.031784553
0.006350486
0.07122017
-0.018396929
-0.031167855
0.052980255
-0.09514428
-0.026487678
0.03837498
-0.025582695
-0.0077360887
0.041929953
-0.039581414
-0.057598293
0.034714296
-0.043487504
-0.010925209
-0.0072103706
-0.01693255
0.03374963
-0.013132889
-0.0448384
0.020695828
0.012250675
-0.068603046
-0.023508564
0.009565521
-0.07305073
-0.0114811165
0.004957686
-0.10026076
-0.0016655771
-0.034742855
-0.027136466
-0.028218009
-0.03394855
-0.08963119
-0.027159944
0.030157853
-0.05491602
0.028582765
0.004020142
-0.049321163
0.040380344
0.014084384
-0.061316755
-0.04641714
-0.010859067
-0.06608202
0.06161338
-0.015143247
-0.050043683
-0.019876432
-0.022777254
-0.025226558
0.045404054
0.019185586
-0.07803867
-0.025632553
0.018523088
-0.068911605
-0.022122378
-0.0042711752
-0.017651765
0.036882102
-0.0022907876
-0.021757832
0.04589974
-0.040170323
-0.05202493
0.05658624
-0.067870826
-0.08525131
0.00328068
-0.042445604
-0.08131053
-0.02760909
-0.023815535
-0.09278675
0.0803578
-0.01736312
-0.09267172
0.017408704
-0.06770048
-0.093157545
0.050123975
-0.049324792
-0.03604083
0.0033618284
-0.023769347
-0.046516676
0.007863244
-0.046124138
-0.061291244
0.0355099
-0.0032158978
-0.11198936
0.01397519
0.0015888908
-0.13210526
0.045693886
0.009376553
-0.09375467
0.09920299
0.04276887
-0.11784227
0.07721789
-0.013743707
-0.110745504
0.16495293
-0.033099614
0.09114669
0.069024704
-0.007896088
0.09866155
-0.015746223
0.09067388
0.008847378
-0.016935458
0.053746093
-0.015724128
0.0061752396
0.05165979
-0.0066294675
-0.018835789
0.030826185
-0.04453578
0.057747517
0.0016440123
0.0066753314
-0.010376778
0.009905682
0.0037720802
0.01415332
0.024666699
-0.014529229
0.03763559
0.008794461
0.040658865
-0.027471207
0.013433274
-0.02523994
0.0049436493
0.05043335
0.0038706143
0.0008757494
0.07040238
-0.050967377
-0.052100483
0.0014547327
0.0006601622
0.02016612
0.03019075
-0.029845407
0.04348396
0.04182146
-0.018125052
0.053879723
-0.050461557
-0.043597065
0.10565386
0.020353563
-0.08555227
0.049598508
-0.07083571
-0.05178001
0.09376989
-0.016558107
-0.11050785
0.08787481
-0.050861377
-0.048339866
0.08773012
-0.07118438
-0.08705072
0.08525672
0.0076928246
-0.067954235
0.03853839
0.012772857
-0.05477517
0.00852571
-0.0053204847
0.027805988
0.043275006
0.015855424
0.067473084
0.033351198
-0.014032639
-0.0071778344
-0.007146958
0.04320332
-0.01328577
-0.040914796
-0.002787436
-0.023241276
0.11115876
-0.023895726
0.065123506
0.15851721
-0.0162796
0.045483597
-0.0015465028
-0.05560203
0.08557666
0.054214615
-0.030570293
0.06768368
0.05309651
-0.0668913
0.016868534
0.03197435
-0.037792306
0.0629697
-0.0061301254
0.044255592
-0.036386006
0.017712321
0.06743378
0.011683945
-0.023863195
-0.04888496
0.0066571836
-0.028855186
0.015884072
-0.0117856935
-0.0050644884
0.016161442
-0.040988468
0.013973333
-0.043682158
0.0642354
0.0061422093
-0.04956688
0.035640128
-0.027423935
-0.012762225
0.064171754
0.06377685
-0.050432518
0.016805494
0.05980702
-0.07544055
0.043825403
0.013711679
-0.044769473
0.0020391503
-0.0059664873
-0.022303931
0.05905468
0.033879884
-0.041184783
-0.016525665
0.07246789
-0.078574166
0.02538759
-0.0050769043
-0.03591774
0.012879072
0.00081825507
0.0080156
-0.0021690899
-0.01791773
0.0058903736
-0.0039620954
0.03746171
0.003569584
-0.04754607
0.03740237
-0.01776
-0.085827895
-0.059059016
0.0105949445
-0.076670215
0.03603545
-0.07480171
0.0031847323
-0.044258762
-0.07797236
-0.03669549
-0.045206748
0.009125117
-0.022060826
-0.025060438
-0.073363505
-0.001773545
-0.05173234
0.029830039
-0.022413045
-0.03954521
0.08882643
-0.047095373
0.0017094156
-0.030868882
-0.08664902
-0.063663594
0.01338979
-0.029546844
-0.01803522
-0.0296796
-0.10695989
-0.051401816
0.056137484
-0.049892113
-0.042176597
0.025128195
-0.041312773
-0.010656836
0.010247127
-0.098871574
-0.02426787
0.020188827
0.010708233
0.021645876
0.00039378268
0.030185368
0.027113654
-0.038655
-0.039993778
0.0010902331
0.02389191
0.03207802
0.024942046
-0.043524195
0.028123785
-0.052607153
0.03153566
-0.083554894
-0.055067006
0.010729964
-0.07512957
-0.00028013525
0.057137415
-0.07902021
0.0074914075
-0.025057005
-0.031733118
0.0017587494
-0.053302523
-0.069322996
0.003770638
0.019345025
-0.060555074
-0.004787806
-0.014456459
-0.0009278554
0.022973694
-0.010801786
-0.0031073058
0.014274991
0.05578659
0.01585869
-0.083133034
0.016069982
0.050984878
-0.0502802
0.060227297
-0.007073734
-0.01565491
0.06347785
-0.06500123
-0.05827465
-0.017298276
-0.08061006
0.009347031
-0.012957183
-0.006201413
0.0060634944
-0.045847595
0.019747892
-0.0120729795
0.020451564
-0.026005208
-0.04593763
0.060368326
-0.03249322
0.010377843
0.07717004
-0.029853016
0.028018907
-0.0031125909
0.0048462646
-0.017842833
0.040497936
0.057650916
0.053435117
0.04695895
0.0049755336
-0.07397863
0.036042724
0.06957167
-0.06202931
0.024078596
0.046929013
-0.09558005
-0.018569533
0.042579744
-0.09064101
-0.093844585
-0.010497869
-0.0695146
0.016874742
-0.03525863
-0.07904324
0.01860832
-0.091427475
-0.015314961
0.06445978
-0.0806
-0.089100756
0.010232243
-0.04926916
-0.12772776
0.027308384
0.05381266
-0.08977463
0.038796987
0.07143631
-0.10211823
0.020336742
0.08083813
-0.09755129
0.00865105
0.074557714
-0.101608984
-0.023590071
0.07291197
-0.08340439
0.07572566
0.07080243
-0.082890235
0.036806744
0.0633919
-0.12061288
0.057488356
0.105343804
-0.15633292
-0.026476208
0.0936755
-0.09623681
-0.025561891
0.078841716
-0.15410468
-0.00317803
0.11247183
-0.08885409
-0.010314766
0.051331602
-0.028825177
0.0068737813
0.037362967
-0.035512395
-0.034014743
0.02334111
-0.09515417
-0.014469563
0.074915424
-0.07562243
0.0037323483
0.030882692
0.02997635
0.08133132
0.006487258
-0.016572421
0.0017075597
0.0037821045
-0.08856244
-0.0028865477
0.07891177
-0.10214478
-0.051011704
0.05670186
0.0055544176
-0.086640395
0.09092177
-0.021639
-0.03391839
0.09589454
-0.032688707
-0.054171126
0.042871892
0.036094427
0.046375223
0.095942914
0.058154985
0.05128214
0.083587505
0.039965115
-0.038517512
0.07349826
0.053252302
-0.0295378
0.11008868
0.07873604
-0.033131972
0.08233133
0.04552165
0.0065579675
0.0594685
0.07706715
0.0025058328
0.04614774
0.00869462
0.011931728
0.0726757
0.062777705
0.082354605
0.040645115
-0.0121700475
0.01497747
0.049105287
0.019694574
0.095343955
-0.00047085978
-0.05286368
0.026537385
0.0294567
-0.045215305
0.102949634
0.054531176
-0.020408263
0.023990905
0.03184566
-0.02192897
0.051236756
0.023450317
0.013707955
0.0375762
0.029102214
0.009407836
0.040555853
0.039842635
0.017650153
0.060105477
-0.014579488
-0.0074979644
0.0104178805
-0.030731648
0.018518008
-0.025009537
-0.010387017
0.02544525
-0.046412554
-0.055809904
-0.01750087
-0.042896423
-0.025019087
0.07504535
0.019047186
-0.015019937
-0.04072661
0.07307699
-0.013671269
0.04502532
0.06446605
-0.06567485
0.035369366
-0.014442003
-0.046563666
-0.02266647
-0.062810354
0.009795568
0.00937175
0.016592823
-0.010538479
-0.037363417
-0.01786503
-0.029953789
-0.03960947
0.08454416
-0.022302836
0.011520403
0.044274516
-0.029672783
0.029893866
-0.00038720088
-0.051058654
0.032934662
-0.02632865
0.0027066246
0.063521676
0.039330658
-0.048373587
0.019041218
-0.006837268
-0.027894486
-0.026800962
0.050224844
-0.0421629
0.049695004
0.0050482913
-0.018498218
0.018350806
0.023738045
-0.054797344
0.04428131
0.060803
-0.026886784
0.01271795
0.037505683
-0.011683085
-0.032964077
-0.07253457
-0.064337246
0.022339495
-0.04738748
0.0041209464
0.0332243
-0.019425452
0.006203201
-0.03470729
-0.008295832
-0.049029365
0.013969618
0.055454034
-0.017566724
-0.014177557
-0.018820377
0.026710605
0.054256544
-0.022461917
-0.0059148357
-0.025266996
-0.044979777
-0.023887392
0.004966394
0.020728638
-0.0022216332
0.014147942
-0.025382418
0.026934618
0.016905779
-0.019687407
0.04563425
0.03185153
0.00040731468
0.014578341
-0.08326401
-0.110557675
-0.00024209416
-0.10725756
-0.10342151
0.010599682
-0.03291653
-0.084497906
0.04337986
-0.1002294
0.06755347
-0.05553522
-0.032910623
-0.003966067
-0.020573635
-0.036359653
-0.022625972
-0.063455455
0.024055406
0.038857874
-0.0732586
-0.03663085
0.011800959
-0.11114292
-0.038993783
0.0063322443
-0.03541915
0.005071088
-0.019461527
-0.0777965
0.00029233214
-0.030716263
-0.10253987
-0.0027665016
0.004904931
-0.12719348
-0.031001095
0.05192979
-0.08264071
0.075261466
0.0007266077
-0.063174866
0.022154503
-0.03209907
-0.07269958
0.097722456
-0.010843184
-0.07782474
-0.008800819
-0.014749802
-0.03802756
-0.04376897
0.00042980057
-0.023693293
-0.05512742
-0.0058505815
-0.12555522
-0.03143179
0.0017894825
-0.12934902
-0.024633698
0.018663278
-0.06205648
0.0021313962
-0.006584658
-0.05830459
-0.024597447
0.034078043
-0.10232199
0.024974879
-0.0057745585
-0.12003331
-0.010552032
-0.005103758
-0.11233497
0.0037252172
-0.041457225
-0.11703344
-0.041719846
0.010674491
-0.007527277
-0.024003306
0.0065714414
-0.14498357
0.004916312
0.017342001
-0.08816717
-0.020508552
-0.016739491
-0.14748481
-0.012540911
-0.031701252
-0.054903913
-0.04933173
-0.0055579594
-0.115860246
-0.06173323
0.018499725
-0.04340025
-0.03770888
-0.08497558
-0.028135883
-0.05727549
-0.06948632
-0.0063620885
-0.03812202
-0.046565887
-0.010644306
-0.06735997
-0.09898223
0.033034932
-0.07822654
-0.05877727
-0.0430294
-0.048062544
-0.069386095
-0.00025120485
-0.026637712
-0.04940187
0.0074424976
0.0028627992
0.010441453
-0.021665484
-0.052067272
0.07058276
-0.014204298
0.0007540931
0.047890462
0.007350602
-0.006562162
0.016458318
-0.020132767
-0.054542042
0.08037344
-0.04258893
-0.017444227
0.057464313
0.0054136645
-0.05153477
0.08023958
-0.027567018
-0.018345654
0.0062801517
-0.034423925
-0.07998224
0.08640429
-0.044271465
-0.06958658
0.06450072
-0.0468118
-0.036466546
0.040864173
-0.046285983
0.0034986523
0.03509571
0.023048716
-0.050904065
0.025371274
0.025549293
-0.023074433
0.0373308
-0.024018852
-0.046083808
-0.04136649
0.021134458
-0.027183106
-0.09183531
-0.026773136
-0.0020177553
-0.037892547
0.02199992
-0.086775154
-0.09159069
0.00681579
-0.04505836
-0.090286046
0.046556115
0.007362836
-0.03668803
0.038907267
-0.046215218
-0.043581758
0.008201919
-0.03376762
-0.045310352
0.03897143
-0.01230605
-0.08742525
0.05130758
0.0025467756
-0.053714104
0.0060295286
0.026233623
-0.02458464
-0.025993204
-0.028994324
-0.085215025
0.00038328505
-0.066161536
-0.07655622
-0.009316413
0.0063197087
-0.04791819
0.037476122
0.005626825
-0.09228231
-0.0012352092
0.010724426
-0.00014754327
0.022955155
-0.0070241527
0.056699973
0.021176975
-0.0327526
0.019847443
0.010313751
0.01928092
-0.04789226
0.06718986
-0.017889734
-0.017123545
0.006267719
0.053499125
0.022870753
0.06790079
0.086462215
0.05072899
0.009751417
0.010184204
0.040643357
-0.015902061
0.016526112
0.12549353
-0.0022818649
-0.020097693
0.067679286
-0.015501123
-0.022259625
0.07593534
-0.02613557
0.021728301
0.06263957
-0.02723329
-0.032954462
0.07474823
-0.029269915
0.029122608
0.005113506
-0.037967466
-0.0056794016
0.07930978
-0.008085572
-0.016655393
-0.0074500334
-0.06769844
-0.056944896
-0.0004486668
-0.06453033
-0.027299225
0.022309784
-0.043326642
-0.04413763
0.03225038
-0.0037551452
-0.004329115
0.0633183
-0.042003542
-0.058594406
0.0112076225
-0.044814844
-0.020396061
0.048713103
-0.047637686
0.0007764174
0.09222721
-0.00024220135
-0.07994601
0.080903456
-0.019050878
-0.058278102
0.06392883
0.022025697
-0.039497446
0.015835857
-0.076327875
-0.01459364
-0.0147368945
-0.022024637
-0.02667121
0.025971487
-0.072725035
-0.017620094
0.0072595817
-0.061479114
-0.015445882
0.061335955
0.0075344983
-0.0026237553
-0.04208673
0.013053195
0.014900946
-0.014493284
-0.037856515
0.046353623
-0.01114398
-0.06320501
-0.011815727
0.007866515
-0.05848337
-0.0077613737
-0.08011996
-0.04274323
-0.045397352
-0.083928674
-0.052304987
0.014101301
-0.11847771
-0.05347501
0.02734332
-0.07683435
0.005867999
-0.014248533
-0.09479777
-0.049181208
0.012110098
-0.0534735
-0.062342394
0.0043324176
-0.042333595
0.004574861
-0.035907768
-0.08282579
0.0032875163
-0.040623255
-0.0937508
-0.08018922
-0.0061626527
-0.07109917
-0.066403285
-0.036760487
0.048287738
-0.038865484
0.011920553
-0.0119625395
-0.051057134
-0.054603312
-0.03551223
-0.040986508
-0.05300984
-0.055218685
-0.04365703
-0.03756876
-0.03192964
-0.048507016
-0.038900457
-0.05411186
-0.05356799
-0.013333203
-0.011362081
-0.056248534
-0.0034325165
0.00017551595
-0.01942148
-0.00626185
0.015163015
-0.019473335
-0.051177647
0.038364023
-0.07277487
-0.033254456
0.020050379
-0.07600801
0.028337114
0.051942036
0.0048316233
-0.09146432
-0.010381073
-0.061355677
-0.017531479
0.01765928
-0.0361724
-0.054494012
0.060229614
-0.056476805
-0.06513328
-0.009074677
-0.020880941
0.015575663
0.0077460604
0.019392658
-0.009984897
0.048578195
0.008247185
-0.011785622
-0.067658715
-0.04137107
-0.007363442
0.053401064
0.0054194108
-0.044254374
0.06285306
-0.037591957
0.004363586
0.06700338
-0.055180077
-0.0116967205
0.024607927
-0.019162934
-0.028737389
0.009184982
-0.003479952
0.016307201
-0.021434382
0.027353909
0.009429776
-0.03420567
-0.0074194926
0.017874546
0.014427115
-0.033197515
0.051878836
-0.02027106
-0.025058921
0.009674918
-0.0066066636
-0.028396986
0.015535094
-0.055835493
-0.030029273
0.007971833
0.0007635575
0.036516566
0.0055149323
0.015868243
0.023492401
-0.055700433
0.026642662
0.039906424
-0.050861195
0.01599567
0.07108442
0.0003778336
-2.577972e-05
-0.0028468207
0.03132698
-0.03447266
-0.0067324205
0.058995724
-0.0010303451
-0.026272086
0.023546021
0.010271026
0.03519439
0.04623255
0.0071179117
0.0060436833
0.061995894
-0.05217426
-0.0005350498
0.06197292
-0.05236517
0.03268748
-0.024072586
-0.0025246008
0.015104478
-0.03838838
-0.07275194
-0.044639107
-0.023236068
-0.074664
-0.062762015
0.027504513
-0.036444776
0.027545357
0.03859251
-0.0053210757
0.00760647
-0.0110156555
6.2785526e-05
0.0069318665
0.0125408005
0.0752541
0.021705853
-0.0045508225
0.021157341
0.030838009
-0.008087333
-0.090739794
-0.029246313
0.014673554
-0.016337391
-0.016483022
0.0056376373
-0.050072767
0.017522529
-0.045403805
-0.002333754
0.005732912
0.031341773
0.041339245
-0.035927624
0.029819041
-0.03186611
-0.025406104
-0.025347237
-0.037536465
0.018889775
0.048741158
-0.0584434
-0.027781814
0.03310751
-0.081315674
-0.040820565
-0.030045792
-0.039898407
-0.06841732
-0.05314147
-0.08762769
-0.051623605
-0.052012116
-0.0483564
-0.026417343
0.019656425
-0.08331838
-0.061366834
-0.023848783
-0.12539373
-0.068718225
-0.008851857
-0.10388483
-0.015163872
-0.043518182
-0.027312338
-0.055352032
0.008888744
0.017486257
-0.05995158
0.011551897
-0.012375533
-0.08181046
-0.026525453
-0.024628619
-0.041443553
0.031181572
-0.060962763
-0.047238782
-0.018005976
-0.07266199
-0.001410609
-0.04209636
-0.09587106
-0.06580069
0.040424116
-0.10843441
-0.020181363
0.04432908
-0.10948818
-0.017451061
0.012402887
-0.057443224
-0.08995673
0.014515657
0.033414222
-0.048812486
0.008486327
-0.02529652
-0.09097559
-0.05188087
-0.007470743
-0.026428157
-0.06611107
0.055363473
-0.022475183
-0.010568834
0.06599129
-0.056165963
-0.020483116
0.051087998
-0.021774506
-0.049156163
-0.00039668882
-0.03406225
-0.041241374
0.02480671
-0.053594895
0.0012256029
0.05720761
-0.08558482
-0.019428955
-0.023524078
-0.016607879
-0.004677975
0.0074870326
0.0067497212
0.020229025
-0.011074565
-0.08063887
-0.037412953
0.030593006
-0.073021404
-0.019354016
0.011946994
-0.093030564
0.043135315
-0.0346992
-0.06377114
-0.02339594
-0.033570718
-0.00314994
0.032420598
-0.023795953
-0.060450595
-0.01512405
-0.0134923505
-0.062845625
-0.030448165
0.005457254
-0.045812566
0.02672682
0.07189739
-0.05673344
0.0039581163
0.051130354
-0.022726597
0.0071819345
-0.040928084
-0.027287556
0.064484544
0.023501486
-0.02815657
0.040210932
0.002613002
-0.03306545
-0.011113442
-0.05440894
-0.08153075
0.02302558
-0.0030642853
-0.07045196
0.02362068
0.008002147
0.0040312875
0.023279702
-0.039676867
-0.012964384
0.04666847
-0.071607776
-0.023141047
0.06129091
-0.015764816
-0.048838876
0.03980665
-0.035825606
-0.06256367
-0.016252967
-0.052288044
-0.08173467
0.0900236
0.0130248265
-0.05934457
0.079749584
-0.002831434
-0.11466507
0.032720886
0.025971511
-0.0374494
0.012245879
0.047898684
-0.05658865
0.001824197
0.068554334
-0.08391491
0.0776712
0.02833244
-0.07915834
0.056402605
-0.0073035485
-0.05936109
0.07007606
0.059266504
-0.042631444
0.0728338
-0.0030207955
-0.09363457
0.028125944
0.018129723
-0.036283012
0.118384965
-0.061882105
-0.112353265
-0.006865453
0.047682926
-0.10241497
-0.010039757
-0.000369046
-0.050642367
0.059000496
-0.0033412601
-0.035882823
-0.0064649116
0.002875535
-0.10174073
0.092299536
0.02855553
-0.12185261
0.062009905
0.007878521
-0.0980353
0.013441728
0.018374767
-0.08829345
0.028439905
0.0032197568
0.07994949
0.03319056
-0.042654235
0.04084384
0.019777004
-0.024605397
0.09161611
-0.00031650334
0.04265124
0.03751049
0.031505294
0.02507187
0.034531485
0.008956248
0.08629751
-0.0023600084
0.05446945
0.04700278
0.077959724
0.017244184
0.060504336
0.0083748605
0.009947809
0.01415636
-0.015250443
0.0029318617
0.01704261
0.025906947
-0.024294592
0.05421677
-0.026002072
0.0063406387
0.07236107
-0.0019160473
-0.015705397
0.022902718
-0.0051089064
0.06689171
0.021138987
0.015897278
0.024425885
0.0015346281
0.021589674
0.014761341
0.022165237
0.021737354
-0.039809804
0.055034023
-0.039278693
-0.034662154
0.034194537
0.020828843
0.02466014
0.03176584
-0.031472035
0.045270685
-0.003955917
-0.05004725
0.007937421
-0.0036373008
-0.050160438
0.042696662
-0.051769763
-0.065707
0.036089282
-0.01167203
-0.066765994
0.020823075
-0.02776481
-0.08659661
0.025578512
-0.040861342
-0.09987182
0.02296664
-0.010255404
-0.085962445
0.03702758
-0.05694205
-0.04538897
0.057838462
-0.006979174
-0.08868878
0.09724844
-0.046130843
-0.053370193
0.05421284
-0.00052899105
-0.06570108
0.036029913
-0.024773063
-0.0638913
0.06487703
0.007010063
-0.05412815
0.032636415
0.004527479
-0.0010196859
0.030807607
-0.071708605
-0.02624082
0.077946976
-0.06639115
-0.07103239
0.10340527
-0.022396453
-0.10605439
0.040274788
-0.046602678
-0.06505403
0.10378285
0.020697521
-0.10343704
0.04342243
-0.0017766913
-0.12558712
0.10929451
-0.021046236
0.07738953
0.07242099
-0.05147499
0.042492077
0.04445984
0.03646738
0.054137785
0.008346727
-0.014910294
-0.00417741
0.03572737
0.026909793
-0.008123994
-0.038071956
0.07162406
0.018227661
-0.03404251
0.057380423
-0.04230797
-0.01995395
0.014498071
0.0051322896
0.016490413
0.0027813197
-0.065156184
0.04599925
-0.08058277
0.023923786
0.11013313
-0.05341569
0.055840034
0.16686143
0.0024238166
0.027173216
0.07447417
-0.0317342
0.07193627
0.051446844
0.015385752
0.043476477
0.1073882
-0.020160498
0.07775819
0.07290846
-0.062778905
0.11530597
0.11253963
0.005687506
0.042094782
0.11070593
-0.010770871
0.058554284
0.059833437
0.01058096
0.082243934
-0.002005498
0.038791005
0.027624967
0.021818073
-0.021770308
0.05310665
0.022035215
-0.04744895
0.06713175
0.053015683
-0.0016356842
0.022847898
0.029035367
0.031737983
0.04079158
-0.021938173
-0.056704123
-0.00026653544
0.072547704
-0.039889988
-0.006959698
0.0482562
-0.037648108
-0.049796168
0.13779955
-0.0556709
0.10508743
0.04561275
0.015220133
0.06808021
-0.006259982
-0.009924822
-0.003986372
0.0034729457
-0.026176797
0.028225811
-0.027089665
-0.017885087
0.026361788
0.03841472
-0.008596079
0.017947352
-0.014726122
-0.080599576
0.05015266
0.046289124
-0.061251167
0.066583194
-0.010009255
-0.08865043
0.06436632
0.0073159393
-0.068357036
0.0030539243
0.046036366
-0.037479926
-0.0040769875
-0.02113633
-0.0031175427
-0.034524377
0.13676392
-0.04319341
0.06358218
0.014914991
-0.03068082
0.003258422
0.0040615965
0.055683408
0.014180788
-0.02181301
-0.011401258
-0.03394692
0.0060261213
-0.0086429445
-0.09239034
0.0040726517
0.039986596
-0.093895756
0.0024553114
0.03595183
-0.06217621
-0.037806638
0.061020017
-0.08924066
-0.015918816
-0.030373499
-0.07527735
0.021954356
-0.015176677
-0.07148801
0.0051676077
0.0027777639
-0.10423229
-0.06415316
0.026701242
-0.07907517
-0.041422863
-0.098398864
0.002360085
-0.06343671
0.03740041
0.08266848
-0.07524958
0.040089544
0.046865866
-0.09662984
0.05862955
0.07858544
-0.12200314
0.035385657
0.069873504
-0.0068871547
0.01441625
-0.02958928
0.026065633
0.08621456
0.017918926
0.020297661
0.048694614
0.046597727
-0.038646657
0.02831281
0.0152591765
0.03956397
0.04300345
-0.04335331
-0.03363303
0.020043947
0.06312103
0.027381744
0.04628549
0.014111509
-0.11417402
0.00090454577
0.09575911
-0.06426291
0.005589311
-0.02090459
-0.012035193
0.08364344
-0.02408738
0.022560488
0.055741668
-0.009414936
0.034883257
-0.03131036
-0.043762866
0.0038364357
0.029344918
-0.00041094635
-0.08477209
-0.03538577
0.0050794743
-0.03925594
0.013940885
-0.055440027
-0.09586998
-0.025033781
-0.006743382
-0.06688837
-0.032613464
0.015815886
-0.07154955
0.011653992
0.09078569
-0.09796828
0.0027018622
0.016964542
-0.11259769
0.037026074
0.07492345
-0.11412264
0.015470346
0.044907022
-0.075480856
0.0422765
0.07591137
-0.09742964
-0.010028014
0.068150744
-0.12086458
-0.0017030218
0.026322925
-0.098608166
-0.060601257
0.12120849
-0.15677018
0.018142546
0.104240894
0.001344523
0.037049428
0.033743314
-0.11043026
-0.046953358
0.040648468
-0.081222706
0.011638424
0.09080785
-0.084570475
-0.033389065
0.021283196
-0.10257828
0.011526711
0.07736808
-0.031080032
0.015395002
0.017458534
0.01675013
-0.015455643
0.05483777
-0.07719642
-0.021534946
0.083841115
-0.039486524
0.0052176244
0.081832506
-0.08164122
-0.019542988
0.096326195
-0.04925478
-0.0665315
0.084905975
-0.09020951
-0.09181648
0.05121376
-0.051107336
-0.067102775
0.10717991
-0.01092657
-0.023330858
0.04467938
0.002255021
-0.072537586
0.010916974
0.030331865
-0.046861194
0.08530989
0.098579995
-0.10256932
0.03679189
0.071089365
-0.0072725005
0.037855003
0.024665678
-0.008407928
0.057085354
-0.055263937
0.075387195
-0.0012503425
0.0018620848
0.006087694
0.04804727
0.040037252
-0.034511946
0.01716407
-0.004333629
0.012961787
-0.032474834
-0.00072421867
0.061117735
-0.01930562
-0.0032450675
0.04913762
-0.04574848
0.027372966
-0.03874631
-0.051034555
-0.0639928
-0.01824739
0.032957718
0.018122738
0.0013255922
-0.0007971483
-0.068589315
0.056847293
-0.011621862
-0.0150141865
0.04477779
0.06852042
-0.068408884
-0.027831348
0.03952335
-0.06614355
-0.03568463
-0.033990726
-0.10125905
-0.0072782245
-0.057260964
-0.07679248
0.057778563
-0.07099242
0.040642783
-0.0002970239
-0.116243586
-0.0032358347
-0.0063576726
-0.048476126
-0.007309547
0.03068198
-0.0652086
-0.056036208
0.031734858
-0.09543048
-0.049614526
0.02460494
-0.07998009
0.0471928
0.018321225
-0.08068906
-0.032687273
0.042881273
-0.069495745
-0.073478125
0.05853942
-0.07608544
-0.087499
0.05840942
-0.089062706
-0.06503747
0.029990826
-0.089951485
-0.0342313
0.044853996
-0.04867377
-0.0013280003
-0.020205049
-0.07628737
-0.029161965
-0.014185454
-0.11057069
-0.016900921
0.07697396
0.015995346
0.026176743
-0.018682202
-0.1331516
-0.011481608
0.002463158
-0.10937237
-0.06117627
0.038149677
-0.06425942
-0.045607653
0.012550353
-0.10073547
0.021386748
-0.014051801
-0.041126166
-0.05129732
-0.034793437
0.011112226
-0.038099114
-0.013185297
0.011797159
-0.0035792806
-0.07966667
-0.033010207
-0.051172633
-0.028778626
0.03565198
0.0019487278
0.04798111
-0.05949983
-0.004509008
-0.011957601
-0.03491078
0.010522509
0.024949338
-0.02249907
-0.034769215
0.03674202
0.011187456
0.015283462
0.036841907
-0.014527279
-0.011127043
0.053249426
-0.03220142
-0.040097583
-0.10298308
-0.008027542
0.04709264
-0.020493079
-0.026119053
0.050295208
0.03706671
-0.010311334
0.055787355
0.06798263
-0.0015165778
0.084969975
0.014190062
-0.032164745
-0.010246656
0.019275418
0.043570288
0.008130013
0.034236956
0.06916339
0.042224605
0.043294534
0.019220455
0.0075894515
0.011849868
0.0268452
-0.015421465
0.009316557
-0.02282433
-0.01605641
-0.0511343
0.057598673
0.0378934
-0.07957817
-0.0040608947
-0.011089063
0.001123212
0.0253668
0.0065146633
-0.027416324
-0.024613269
0.06040148
-0.022999927
-0.031528734
0.060570035
-0.062392462
0.0035657932
-0.012077813
-0.03723024
-0.02374334
0.022732357
-0.014597403
0.0154858185
-0.033530198
-0.05813103
0.040739022
0.0015829344
0.0027653407
-0.06278842
-0.022784237
-0.04233802
-0.038597748
0.04466575
-0.0051877876
-0.015463861
0.0660245
-0.063103184
-0.10322579
0.08900484
-0.035874955
-0.10666834
-0.013251321
-0.019519767
-0.09810984
0.058856033
0.022069056
-0.13920951
0.07968626
0.0726744
-0.06971435
0.010277202
0.012261565
-0.020505767
0.062112372
0.05251766
-0.10177003
0.038146332
0.015935117
-0.0683713
0.097611815
-0.0010712643
-0.020637805
0.045933496
0.07046157
-0.0784309
0.051090814
0.06849467
-0.06338274
0.09850585
-0.042749994
0.021359602
-0.0017610334
-0.045316055
0.112801224
0.008358879
-0.049710147
0.05081974
0.10546879
-0.04064647
0.068826415
0.10312141
-0.0066315425
0.0807391
0.060933374
0.0032982633
0.035472564
0.051540866
0.0048614913
0.0068035154
0.040610768
0.002662767
0.048118707
0.03457738
-0.033583306
0.04348335
0.07244373
-0.022062883
-0.07810992
0.047361188
-0.069303654
-0.12890589
0.101059034
-0.009827058
-0.06481139
0.10980928
-0.05650952
-0.053373005
0.061860573
-0.04084068
-0.06058849
0.030783359
0.027276138
-0.0994605
-0.002640692
-0.027527273
0.0030413999
0.054882646
0.019895893
-0.0119006215
0.07758444
-0.038374443
0.0076739313
0.12302207
0.0037992236
-0.022168742
0.0853945
-0.024278909
0.05256249
0.1633215
-0.0065913396
0.06617533
0.10114036
0.030380167
0.03819639
0.17231402
-0.026274847
0.08568819
0.10834751
-0.07127653
0.060947876
0.060875032
-0.012617387
0.06977203
0.018589223
-0.06253514
0.05899571
0.12063182
-0.08162539
0.10085613
0.10646022
0.005865733
0.049425542
0.033274505
0.00055957894
0.06767802
0.052282937
0.04946956
0.006312403
-0.028410181
0.054187927
0.0145063205
-0.015544274
-0.030207714
0.001606298
-0.001641444
0.03765308
-0.013477555
0.14007547
-0.04227161
0.08603152
0.11602796
-0.07360273
0.105806164
0.10479911
-0.07361064
0.11109988
0.10430128
-0.036068466
0.06959485
0.16061075
-0.024720596
0.106996775
0.07949156
-0.07151217
0.04809086
0.11531961
-0.008673005
0.091859244
0.14702149
-4.012884e-05
0.09404092
0.057923514
-0.00068191526
0.090107754
0.120655686
-0.037939444
0.04727765
0.051019657
-0.057582594
0.07996601
0.09657953
0.015838575
0.08616605
0.06734212
0.00582525
0.07914398
0.15720715
-0.054136094
0.09240586
-0.012959941
-0.06903749
-0.0028592453
0.045596927
-0.061701957
0.027197147
0.086857654
-0.057535935
0.019999528
0.032518595
-0.046570178
0.085279375
0.010057318
0.07326806
-0.018655894
0.044002727
0.0018375043
-0.030732142
0.023305625
0.030235935
0.0039493293
0.02600259
-0.06488116
0.057400066
0.049598742
-0.060775887
-0.059181854
-0.005455793
0.01444826
-0.023718258
0.026875254
-0.036777873
-0.03389716
-0.008044066
0.03046716
0.010569104
0.059322808
-0.0030444039
0.034446847
-0.049369562
-0.06740309
0.0016831585
-0.03614526
-0.038875002
-0.08287228
-0.017118255
-0.052112237
-0.05992591
-0.0884364
-0.020508924
0.072608046
-0.033092603
-0.011300906
0.03500743
-0.039213907
0.045972396
0.01299565
0.00030186807
0.048151366
0.033204507
0.055796664
0.096789
0.06958697
0.014245713
0.055561155
0.034759704
-0.0019805098
7.900773e-05
0.0030552666
-0.13340592
-0.04416859
0.064995974
-0.090902664
0.018013874
0.0018101553
-0.07621346
0.006431601
-0.0560264
-0.0112032825
0.05415941
-0.030641168
-0.005075552
0.05922051
-0.013790896
0.007785972
0.013854409
-0.03462461
0.008442251
0.06959429
-0.0028572176
0.015606412
0.0072408854
-0.0063187103
-0.043217864
0.045700263
0.0058099427
-0.0204914
0.07533374
0.0076370765
-0.00968586
0.018457597
0.055270184
-0.00028928518
-0.0012247495
0.081062205
-0.07768732
0.08529593
0.013415582
-0.030518357
0.034985915
0.08252704
-0.11115421
0.027420407
0.07700079
-0.11639959
0.044699475
0.07306752
-0.10401839
0.037174013
0.09748947
-0.07652039
0.0030191147
0.011065586
-0.061084576
-0.056083016
0.015401122
-0.12535127
-0.06624854
0.07292816
-0.05407853
-0.030965429
-0.08089336
-0.08117016
0.044137806
-0.03625077
-0.04738146
0.05655176
-0.0444574
-0.033908572
0.0060345596
-0.051188156
-0.062290676
0.05932564
-0.038268182
-0.031342227
0.003434744
-0.07915629
-0.048328552
-0.012793274
-0.003982151
-0.007885748
0.035968594
-0.02799787
-0.05985639
0.0071312636
-0.023689846
-0.07249241
-0.02952016
-0.043233965
-0.10738054
-0.090812914
-0.015249112
-0.07126291
-0.052988943
0.048058152
-0.048939135
-0.019500159
0.04156238
-0.059534293
0.007705249
0.07349582
-0.11531043
0.020678815
0.087122865
-0.07372184
0.0466331
0.072473705
-0.047135655
0.052765824
0.06177734
-0.10775568
0.007641775
0.07563156
-0.0786275
-0.035237473
0.016978165
-0.080191344
-0.0070202043
0.07239622
-0.12907535
-0.037215665
0.055872858
-0.08785657
0.03995785
0.02917762
-0.08932822
-0.027353574
0.031143352
-0.14183319
-0.041707896
0.030377517
-0.078676075
-0.02878481
0.08332954
-0.07745284
0.055812646
0.069050066
-0.093266286
0.020406561
0.023017686
-0.10435414
-0.0073734154
0.03369181
-0.045753352
-0.040566444
0.04256447
-0.10214596
-0.0013095172
0.0681137
-0.071583614
0.0036048389
0.03830999
-0.079151236
-0.030972766
0.03666249
-0.15762511
-0.010667585
0.09080118
-0.10370813
-0.06042687
0.11138956
-0.12830985
0.028060319
0.09278939
-0.09236186
-0.051394504
0.1328823
-0.16078076
-0.058578648
0.09810591
-0.11140274
0.017616734
0.08511574
-0.10001577
-0.020826962
0.09365352
-0.095774956
-0.037235778
0.031144414
-0.08997899
-0.016475273
0.10347001
0.002854192
0.08124336
0.09923256
-0.0010153352
0.07018927
0.043930884
-0.005810041
0.058848176
0.030607088
-0.072461344
0.010845893
0.08157346
-0.020877648
0.078261934
0.08985281
-0.08556189
-0.026876116
0.04734005
-0.009314268
0.06872927
0.07054932
-0.05211037
-0.014532488
0.101586655
0.00025881254
0.07457818
0.09721535
-0.06616961
-0.06092381
0.024143655
-0.111181684
-0.07088198
0.09205655
-0.052177362
-0.043896668
0.017417109
-0.046902258
-0.027292162
0.074746326
-0.11373513
-0.02959114
0.094619185
-0.047195513
0.06434955
0.014734641
-0.037342925
0.037077256
0.062284462
-0.07161866
0.053677995
0.09033004
-0.026433557
0.03348745
0.08444546
-0.046769932
-0.00067367486
0.07952362
0.018613098
0.053057376
0.03970328
0.014562826
-0.00031968323
0.037464842
-0.00012123868
-0.012548293
0.051478937
0.01935231
-0.017234774
0.060525432
-0.038301103
-0.01733837
0.06369238
-0.05197252
-0.048899785
0.07683821
-0.07071707
-0.029556492
0.021717327
-0.0721049
-0.017752066
0.056190796
-0.11627328
-0.07968784
0.030894348
-0.042051323
-0.042916253
0.09476083
-0.08093666
0.022238
0.06576891
-0.04840169
-0.08110653
0.08624639
-0.029461129
0.013910645
0.02061498
0.051096473
0.061496522
0.09883167
0.03747882
-0.0076478464
0.08445753
-0.01796094
0.07175229
0.080601245
-0.07213358
-0.033867825
0.037091654
-0.02081772
-0.0006637517
0.05524925
-0.06661268
-0.055766243
0.025562024
0.025205182
0.030005287
0.04325263
-0.045742363
-0.05806299
0.033735927
-0.031800956
-0.06742022
0.058766562
-0.02971395
-0.0017532068
0.054458834
-0.03074282
-0.06658046
0.08289599
-0.059762474
-0.057291873
0.032753773
-0.037778996
-0.034351487
0.050579406
0.022129893
-0.03972283
0.054598596
0.0020330267
-0.03507922
0.05285093
0.017192025
-0.03323812
0.06923265
0.038312204
-0.03449657
0.04238121
0.038303576
0.081440814
0.07804691
0.022014374
0.062266674
0.10162221
-0.010557754
0.03191181
0.09160872
0.04732329
-0.0057978355
0.05771626
0.053714145
0.026380539
0.022101976
0.027036108
-0.04441506
0.077090055
0.10253826
-0.069898926
0.058965918
0.039389674
-0.005809301
0.048108015
0.032026604
-0.015973931
0.071241185
-0.012114123
-0.064464025
0.07709574
-0.0125014745
-0.04033177
0.07165964
-0.015000181
-0.049017645
0.035115678
0.04699145
-0.05899096
0.01804651
0.037374146
-0.07304014
0.022028938
0.03622053
-0.07882587
0.04259067
0.044280868
-0.09207291
0.08358083
0.115288176
-0.03274453
0.08253641
0.062274188
0.019176496
0.07805022
0.04193555
0.03714359
0.028753862
0.070964195
-0.10532171
0.0981818
0.051518694
-0.041587695
0.058230005
0.04743318
-0.08412164
0.095422685
0.051347394
-0.098029286
0.10713716
-0.012033719
-0.06983718
0.066471025
-0.039186463
-0.037924405
0.06678883
-0.0135375215
0.007554234
0.08855092
0.04287854
-0.015420189
0.05424197
-0.03038564
0.054119103
0.068009086
-0.03589044
0.058532983
0.019330712
-0.038989555
0.046160843
-0.011817873
-0.029958775
0.09237743
0.028049488
-0.011347232
0.0694557
0.032975577
0.033181462
-0.004829623
0.07376949
0.055937767
0.07705936
0.0169472
0.023043668
0.019463874
0.012165871
-0.008182724
0.04583394
-0.013154963
-0.0067127673
0.016348643
0.03351586
-0.051856957
0.050857253
0.010218939
-0.036170464
0.10741537
-0.018277347
-0.020963311
0.1043516
0.0445098
0.051376462
0.030142087
0.03278933
-0.039766278
0.011362656
-0.024564218
-0.012077457
-0.0070908405
-0.02201703
-0.002727673
0.062239792
-0.03832613
0.014331805
0.08077115
-0.024747109
-0.035864238
0.07639089
0.021194117
-0.02643566
0.007112558
-0.009104073
-0.008737177
0.023455547
0.013242244
-0.022504931
0.0583374
6.046521e-06
0.050428864
0.048043884
0.03716474
0.030318903
0.05772194
0.010073727
-0.024856081
0.010286789
0.08405765
-0.107978545
-0.09400164
0.063359044
-0.104488626
-0.067395486
-0.031497363
-0.08930793
-0.08825555
-0.051601756
-0.02966345
0.024308873
-0.009184209
-0.020823462
-0.00016403652
-0.05806868
-0.023214027
0.051113993
-0.07956915
-0.038568743
0.0070919157
-0.031933375
-0.03547025
0.036021676
-0.08659842
0.0122954
0.038722567
-0.13814965
0.02847719
-0.011477576
-0.1278203
-0.00569931
0.0080805635
-0.08480464
-0.01690667
0.006148828
-0.13329045
-0.026416244
-0.035183787
-0.12003059
-0.07598841
0.022283211
-0.06930486
0.012804641
0.045817286
-0.08556438
0.0003090133
0.022539508
-0.068174876
0.0032780147
0.048332162
-0.07050449
-0.04048271
0.01700242
-0.09143972
0.0026234463
0.0029860935
-0.10396622
0.03659882
0.02881021
-0.08429149
0.060880456
0.02068752
-0.08230048
0.048199885
-0.07417128
-0.059658453
-0.009896478
0.039501123
-0.054794766
-0.0071524302
-0.002411679
-0.09392511
0.023426127
0.008017509
-0.087850675
-0.057207186
0.073006436
-0.07137366
-0.00834123
0.04620511
-0.043112054
-0.05531613
-0.019155277
-0.0390401
-0.10545014
-0.02637907
-0.12318327
-0.121516675
0.023626067
-0.09076279
-0.03936482
0.007185618
-0.08425177
-0.11375418
0.021455875
-0.047017034
-0.028002203
0.045934368
-0.044536285
-0.0390211
0.04594562
-0.109779246
-0.10724408
-0.010098448
-0.09218261
-0.028232438
-0.024541298
-0.11688623
-0.026663527
-0.00894517
-0.047626313
-0.053917926
-0.0058127656
-0.14185415
-0.02263084
-0.017952621
-0.019113082
0.015851067
-0.058513276
-0.03690861
-0.04958433
-0.065299
-0.025256122
-0.051898394
-0.054321103
0.011536425
-0.010893956
0.081861235
-0.016698923
-0.005697897
0.051589575
-0.027870292
-0.027612284
0.09781748
-0.056181617
-0.012155915
0.030249542
-0.026959207
0.005014845
-0.017768076
0.025640612
-0.017119072
-0.017280107
0.014771434
0.029500712
3.6271613e-05
0.016376901
-0.0006436076
0.029921174
0.006899258
0.025855469
-0.016654192
0.04193813
0.0074488358
0.060292326
-0.057820622
0.038153537
0.007738353
-0.018245667
-0.025426025
-0.0038090718
-0.01923367
-0.029532064
-0.016749715
-0.01416569
-0.037775964
0.034599233
-0.011155812
0.027876094
-0.0033871199
-0.051917654
0.008136626
0.08079444
0.0044004777
0.076055095
0.015064939
-0.05742565
0.032833487
0.040202588
-0.0288655
0.016149824
0.01204951
-0.03907754
0.0054731085
-0.0031366658
-0.024901908
-0.0029915308
0.012787487
0.013466367
0.11139013
0.02855855
0.0109017305
0.05823082
-0.0352968
0.0047616316
-0.009363898
0.026766269
0.01323853
0.0062615364
0.0132741565
0.007118494
0.03441023
0.03533927
0.05588359
0.024129247
0.008984456
-0.019409595
0.033122145
-0.010498693
0.029765591
-0.0087513365
-0.027370567
-0.04067167
0.022602603
-0.043675944
-0.032687444
0.031483255
-0.046648417
0.01408105
0.00905125
-0.04111333
-0.046802524
0.06047125
-0.0969585
-0.03363622
-0.0062343883
0.021525383
-0.012958662
0.04822662
0.014430181
-0.014730081
-0.034810692
-0.015602655
0.036956623
0.060739804
-0.08250481
-0.033265535
0.038451478
-0.014850456
-0.0725579
0.024892487
0.06305544
-0.032822575
0.04229167
0.053472124
-0.00082866073
0.027793473
0.030070938
-0.007072397
0.030004766
0.0054163532
-0.04428185
0.03481603
0.0035860247
-0.11590352
0.072397575
-0.06077695
-0.116179824
0.11948304
0.01168663
-0.10426751
0.043075748
0.048138566
-0.09120787
0.061494596
-0.014455803
-0.09152086
0.058225386
0.0368886
-0.09585689
-0.026989743
0.0680389
-0.06319881
-0.040671475
0.026186299
-0.04145659
0.044610396
-0.025464023
-0.06907008
-0.009340394
0.010443587
-0.07492948
0.040898804
-0.012156737
-0.059172217
0.085259646
0.014843248
-0.11175335
-0.0006644236
0.09424692
-0.027961522
0.009040898
0.07216319
-0.008138309
0.063297935
0.036910255
-0.038007658
0.009188478
0.018567435
-0.060551137
0.031601455
0.018828362
-0.02684538
0.023484005
0.06588869
-0.0200719
0.06953847
0.029907657
-0.025085285
0.039522503
0.017941331
-0.07056323
0.07193056
0.07527861
-0.09194628
0.06065297
0.023541467
-0.07405641
0.04076813
0.028104896
-0.053413812
0.043906696
0.077246785
-0.060189836
0.028558893
0.0140178
-0.08602907
0.092690304
-0.031322487
-0.10015476
0.05808647
0.009210336
-0.10684176
0.016815735
0.057952534
-0.07828056
0.024181733
0.025168337
-0.07977909
0.03686224
-0.021581713
-0.04300626
0.05392351
0.029201794
-0.07671121
0.072586045
0.00034494296
-0.05097391
0.068126276
-0.012910712
0.059160676
0.09946608
-0.07938107
0.09343344
0.04192089
-0.017859366
0.056567885
-0.014879107
-0.043832716
0.029192617
0.02039707
-0.005851936
0.07332039
0.058178518
-0.06315203
0.113524534
0.067566164
0.053038485
0.06371017
0.08191833
-0.0049146083
0.10222108
0.0055561033
0.087457076
-0.00011504526
0.049457937
0.057065982
0.009347476
-0.0016467109
0.04113776
0.0027043526
-0.048574813
0.04778386
-0.008563934
-0.017849172
0.028583165
-0.06854419
0.0150723895
0.064462334
0.0024901135
-0.0031536168
0.046309542
-0.074159786
0.05321245
-0.050882734
-0.07338839
0.10180202
0.009523885
-0.04910421
0.08175535
0.033535607
-0.040209714
0.0834977
-0.054315425
-0.016130542
0.09071696
-0.021940889
-0.0405806
0.12040997
-0.050768346
0.070792004
0.11268938
0.06426492
0.03725105
0.07044642
0.021260472
0.07344066
0.17968853
-0.07321963
0.1265622
0.13832682
-0.10322124
0.12650634
0.11745003
-0.093443096
0.13253516
0.14306547
-0.06293611
0.0834649
0.10310493
-0.08163844
0.10580663
0.09807037
-0.034562893
0.0572288
0.07067884
-0.015702032
0.06777284
0.059793416
-0.068424426
0.11258009
0.11051153
0.017539855
0.12457868
0.09356728
-0.018903924
0.03912474
0.04570177
-0.014995428
0.053658184
0.043125644
-0.0031907673
0.023053551
0.07144798
0.014882978
0.058612265
0.078694366
0.0029666047
0.0986451
0.067464426
-0.005342916
0.024850203
0.007862124
0.026772402
-0.051340066
0.047182094
-0.014260423
-0.03548002
0.08083386
-0.061712533
0.006294802
0.18221946
-0.06383015
0.10519847
0.11782914
-0.028967632
0.12796494
0.16072609
-0.088862814
0.11451224
0.13494442
-0.07407796
0.09764974
0.06830984
-0.01950359
0.084873244
0.09260892
0.0062708305
0.11743124
0.15382361
-0.06453585
0.07306796
0.1475682
-6.634911e-05
0.11572884
0.13051112
0.008153723
0.06756756
0.14277868
-0.009435923
0.09249137
0.11312321
-0.034947637
0.09897193
0.1163381
-0.048634753
0.07797388
0.07456889
-0.004217664
0.058760446
0.081742994
0.006479084
0.06668269
0.027197523
-0.0316887
0.092433
0.07936334
-0.06041266
0.09484536
-0.014152361
0.004168863
0.05803288
-0.028861305
-0.04816897
-0.04826903
0.045474764
-0.06939018
0.024528038
0.0946355
-0.026976256
0.06951055
0.08046088
-0.06925148
0.106268555
0.08138638
-0.017870767
0.09714569
0.030337522
-0.0033762525
-0.03422649
0.024478342
-0.016459528
0.024097398
-0.023204578
-0.049530502
0.031005427
0.059546907
-0.041988887
0.018819766
0.07130149
-0.060274642
0.012504723
0.044887736
0.0013802093
-0.030480899
0.007559049
-0.0026579597
-0.059826933
-0.07737475
-0.07143496
0.055033524
-0.052050054
0.02624039
0.05339657
-0.033715814
-0.026243163
0.013933892
-0.071092956
-0.0029382028
0.06072319
-0.0040741996
0.060909454
-0.0006825698
0.017920254
0.009976587
-0.02345644
-0.0048228665
0.019748956
0.031601414
-0.03799704
0.06178794
0.056155387
0.0026733882
0.06393584
0.071048185
-0.03261017
0.037192337
0.07094101
0.019726334
0.05180278
0.0005515841
-0.00069508346
0.04447615
0.07039174
-0.04789292
0.07428177
0.09389363
-0.09648428
0.029462272
0.09434052
-0.002504614
0.058692314
0.07892889
-0.021220632
0.03589278
0.049260344
-0.10790923
-0.06847662
0.09361614
-0.14478615
-0.043806482
0.12483438
-0.102843314
-0.0051617096
0.101166375
-0.07136275
0.075042576
-0.03012805
-0.046761774
0.0347662
-0.085786924
-0.013152249
0.012224767
-0.0548495
-0.03957293
0.0019277933
0.029474277
-0.14509681
-0.056022022
0.088452846
-0.081624135
0.008778139
0.04697277
-0.084052175
0.0012202858
0.058358956
0.038120326
0.061301302
0.055843864
-0.0041252505
0.027326304
0.057650257
0.049686424
0.0071352217
0.09432446
0.042883217
0.059388265
0.01990951
0.05617166
-0.04142828
0.09835967
0.07862507
-0.0046294658
0.097110495
-0.06643981
0.0031457534
0.023173872
-0.08010509
-0.02611415
-0.0804711
-0.025316732
-0.043504827
0.019923955
-0.03517239
-0.09927124
0.01471389
-0.009398336
0.023781404
-0.004395784
-0.015703747
-0.0096883625
-0.02193808
0.010768402
-0.0036666286
-0.07320857
0.012542294
-0.0049263686
-0.016072065
0.04564578
0.04830479
-0.08317703
0.075166196
0.05830237
-0.019082095
0.05014501
0.029537182
-0.043375652
0.16622697
-0.11121876
0.08781048
0.15328954
-0.038592346
0.09380444
0.14528614
-0.039024122
0.0551627
0.1309605
-0.034925684
0.08954899
0.120451495
-0.07441284
0.09437629
0.075229086
-0.06410689
0.050403632
0.014118133
0.008639048
-0.008095822
0.15904008
-0.05530432
8.279622e-06
0.1254137
-0.049526345
0.07017337
0.102830864
-0.03268924
0.036135957
0.16211936
-0.026930647
0.06360455
0.069142364
-0.0057163755
0.06361893
0.07702015
-0.011751372
0.054753974
0.0069681606
0.022150718
0.02474709
0.03345802
-0.020564944
0.039637666
0.06031036
-0.0055728317
-0.043140963
0.02933414
-0.07024686
0.04671188
0.14388204
-0.075623535
0.10376786
0.104391105
-0.006640898
0.025080826
-0.055709414
0.019599212
0.05180614
-0.04285924
0.016347451
0.062446363
-0.041976925
0.003092705
0.028274383
-0.0137521485
0.036995366
0.033666782
-0.07426452
0.04163053
-0.06204999
-0.09520163
0.057908997
-0.029667657
-0.046783328
-0.0027624373
0.043847874
-0.07209325
0.0276757
0.038638975
-0.065781265
-0.021739801
0.061876774
-0.099758714
-0.008787555
0.006670192
-0.05648451
-0.026197266
-0.009529994
-0.07750672
0.0015391983
-0.05491334
-0.09676793
-0.0057861153
0.002317922
-0.12594128
-0.023506746
-0.021305468
-0.14788747
-0.027953826
0.049376693
-0.073656775
0.02182937
0.08848192
-0.09157754
0.008027668
0.08802277
-0.058293257
-0.029258234
0.055712655
-0.09293214
0.07077362
0.034442086
-0.12391947
-0.021265555
0.038758762
-0.090088464
-0.050640598
0.03355668
-0.13587521
-0.03657541
0.10355929
-0.038931474
0.05380581
0.024295915
-0.057838652
0.07430312
0.07127474
-0.09348443
0.07939372
0.052534647
-0.07668389
-0.008378881
0.0916556
-0.03771603
0.020531781
0.07573841
-0.117119
-0.01598611
0.11499864
-0.08547634
-0.04835544
0.112617604
-0.0890164
-0.01809676
0.03041472
-0.0067328475
0.012983578
0.09523309
0.0035118992
0.05569608
0.039552405
-0.05551873
0.015997902
0.060814098
0.0014540957
0.007893457
0.06763929
-0.028600086
0.017964901
0.04365847
-0.053081553
0.004687136
0.0128148
0.038646497
0.04137229
0.04040826
-0.09810771
-0.07401323
0.09531738
-0.06739257
-0.06298803
0.009167273
-0.09755072
0.005320405
0.093301184
-0.0028406647
0.033661004
0.10204376
0.02439366
0.021113193
0.10410958
-0.06579807
-0.09995822
0.07429298
-0.06307766
-0.048762873
0.058190916
-0.031712864
-0.026811602
0.056382764
0.044783622
0.027883599
0.08063732
0.0015622639
0.032369334
0.077298515
0.06930605
0.0025302144
0.09955417
0.027938189
0.044204764
0.04215509
-0.032941908
-0.08856506
0.03309427
0.07591292
-0.01615651
0.08911955
0.031396475
-0.026681859
0.06369061
0.08383509
-0.0688364
0.038747992
0.09002822
-0.045809142
0.09919525
0.021351313
0.030207936
0.033607468
0.03556806
-0.00436488
0.093699835
0.13365884
-0.050313987
0.053721037
-0.0006536141
-0.060385693
0.05265344
-0.00062949106
0.05673844
0.029219331
-0.052465305
0.015755353
-0.016526481
-0.053429388
0.05212001
0.07659592
-0.029051946
-0.029563
-0.055546477
-0.05592744
0.051128346
-0.04980191
-0.07596201
0.027442355
-0.10124704
0.052301385
-0.0036902712
-0.07628298
-0.014819109
0.021801319
-0.1042446
-0.025302285
-0.039600413
-0.07271843
0.05877811
-0.0047987485
-0.0979434
-0.009098047
-0.012837384
-0.045689084
0.036956266
-0.018505018
-0.064845875
0.021081634
-0.0031304278
-0.07858182
-0.028512707
0.053462677
-0.0712771
-0.09140031
0.050972987
-0.06855915
0.04511141
-0.016125534
-0.04063899
0.0005799625
0.06662517
-0.018284168
-0.040339287
0.05240248
-0.063618
-0.05183398
0.027141012
-0.053676102
-0.042140666
0.012698319
-0.07054206
-0.014267514
-0.01718763
-0.0031612928
-0.023300212
-0.039028514
-0.04828124
0.0035848478
-0.026192978
0.0073063737
-0.058076207
-0.044277366
-0.041172538
-0.06878808
-0.030924778
-0.048151795
-0.04368244
-0.032393724
0.0071205385
0.012164443
-0.021004818
0.0020217942
-0.0066562616
0.062014736
-0.008185677
-0.037436564
0.0340426
-0.053742543
-0.030041186
-0.034319263
-0.04834199
-0.0052347444
0.0050378693
0.0031374583
0.0025449835
-0.015448118
-0.03764788
0.030232284
-0.0067727463
-0.07348817
0.03312788
0.06019722
-0.09329896
-0.002069289
0.096345685
-0.053450212
0.052176636
0.016716985
-0.0736509
0.035775017
0.025137568
-0.06289978
0.06830457
0.0060704635
-0.005080759
0.0154683
0.0689412
0.0012515638
0.05448735
0.0700489
-0.03275359
0.05627026
0.06629273
-0.07018797
0.08856868
0.050707262
-0.035480034
0.05373018
0.07693447
-0.08421686
0.0130948825
0.040788036
-0.09583595
0.08167882
0.041677184
-0.040775735
0.044648737
0.043176986
-0.07220745
0.04864582
0.07497647
-0.037545487
0.05163116
0.044625998
-0.08518438
0.08709856
-0.0076184236
0.02925163
0.010747643
0.05437522
0.037817955
0.091114216
-0.06128527
0.07316146
0.03986286
-0.0074557574
0.054032266
0.066279985
0.012134763
0.06611133
0.043325596
0.031099686
0.029385103
-0.0474124
0.024611374
-0.06561521
0.046350643
-0.024451565
0.011893725
0.058360353
0.04666361
-0.009963862
0.08586723
0.06808336
0.034548778
0.014045619
0.051199272
0.068603605
0.13793568
-0.043369412
0.04073842
0.12631734
-0.025405135
0.102278225
0.14384872
-0.09298642
0.08654861
0.09998383
-0.01967717
0.06372685
0.10638085
-0.06299335
0.07121662
0.04725701
0.044705875
0.05440925
0.07993853
0.0054481565
-0.0055657327
0.040456668
-0.03136221
-0.0029427274
0.10168987
-0.032019023
0.027667547
0.13046141
0.011521686
0.07326816
0.1022263
-0.040506568
0.10642447
0.14030617
-0.06925833
0.06250696
0.05503595
-0.05999998
0.099356465
0.03769565
0.011777491
0.10044897
0.1044705
-0.04987051
0.09143964
0.003015511
0.023842592
-0.039189655
-0.008396924
0.039300527
-0.0026000743
0.016558055
-0.039412975
-0.018997382
-0.01444223
-0.050927848
-0.016354151
-0.02603219
-0.05543024
0.013003654
0.06365506
-0.07134067
0.020445231
0.062890194
-0.0245559
-0.02005848
0.008315928
-0.055408824
-0.044478375
0.025589587
-0.018332899
-0.0686567
0.15446539
-0.030111084
0.08908823
-0.038125537
-0.03497204
-0.052203875
-0.1194087
0.03598416
0.033956025
-0.081718445
0.0116489865
0.0372442
0.014199484
0.07418336
0.0033052121
0.0341327
0.00042281928
0.046682466
0.05173457
0.035142582
0.039459202
-0.02791011
0.005403517
0.06333881
-0.106129594
-0.031225443
0.084006235
-0.07363611
-0.03478238
0.05275839
-0.058537286
0.054779135
0.0040782606
-0.06214519
0.0014929746
-0.040704545
-0.07973346
-0.0008678073
-0.069268145
-0.0685513
0.090284176
0.015315681
-0.09849748
-0.016292693
0.04785587
-0.11521676
-0.04803595
0.06537606
-0.067168094
-0.057819456
-0.019901523
-0.055583406
0.03131515
-0.016835082
-0.10345721
0.069036
-0.073894724
-0.10395176
0.009843171
-0.0536503
-0.10276537
-0.014883097
0.05309506
-0.085457996
-0.033775337
0.11353528
-0.13297667
0.005408038
0.08467825
-0.10179469
0.012060461
0.058256768
-0.12091983
-0.0220855
0.04183644
0.0014481364
0.046786696
0.03508687
-0.008175333
0.043762848
0.08130583
0.017302653
0.030491803
0.08353478
-0.011739182
0.013803911
0.08936358
0.009531301
0.110278755
0.07413293
0.023202471
0.035520945
0.0862641
-0.08643633
-0.039026696
0.0970648
-0.08950302
-0.0138163315
0.06385266
0.0054610977
-0.035630874
0.02255388
-0.06016367
-0.015276146
0.053752895
-0.059830893
-0.045369744
0.021778159
-0.020891376
-0.07767939
0.054155078
0.004733404
-0.0683577
0.06483305
0.007666905
-0.036634795
0.09272401
0.052192636
0.029092764
0.033344403
0.005216845
0.012121077
0.09619531
0.09123532
-0.084333226
0.1269357
0.088433884
-0.0634735
0.057570998
0.042067453
-0.053724393
0.07861057
-0.021049406
-0.0019111087
0.10480713
0.0019561413
0.023333795
0.03900937
0.02443296
0.06035616
0.059694793
0.0076056817
0.03243276
0.016227897
-0.0078015896
-0.013270925
-0.016986929
-0.082928434
0.07058345
0.039803337
-0.07200198
-0.118885055
0.031378206
0.0011740932
-0.0030530444
-0.013836959
-0.029617697
0.05455094
-0.03475377
-0.112541534
0.003827048
-0.056442767
-0.032401647
0.025829408
-0.037475456
-0.011106316
0.04507563
-0.00437321
-0.044019505
0.03426525
-0.07851009
-0.021675488
0.055692833
-0.028194971
-0.053742524
0.049786575
-0.051543493
-0.025400821
5.010182e-05
-0.032285172
-0.035144757
-0.0042787213
-0.06962773
-0.0074799955
0.066007875
-0.07889691
-0.051836092
-0.014197522
0.0017717248
-0.044972315
-0.040254284
-0.027498746
0.022944123
0.010601325
-0.060379524
0.007408679
-0.027467612
-0.01688223
-0.013985302
-0.04507673
0.024233496
0.007600993
0.024022484
-0.04591921
0.026645046
-0.028815828
-0.123180404
0.0880185
0.055648122
-0.057339113
0.03236315
0.023111068
-0.046619486
0.074380465
0.04709281
-0.06328667
0.052945483
0.054145005
-0.0057981834
0.04867714
0.0187258
-0.021482507
0.010069651
-0.00035355895
-0.026619093
0.022741381
0.072495885
-0.009840814
0.08996523
-0.014586805
-0.04055103
0.05042641
0.038172908
-0.03273819
0.056567702
0.06615854
-0.08762644
0.013383616
0.07620702
-0.071023144
0.014309153
0.015091418
-0.062032305
0.08702076
-0.047065787
0.049915876
0.11459467
-0.10132261
0.118148535
0.12832926
-0.026828002
0.0901486
-0.031195391
0.021806585
-0.021713361
-0.041137997
0.050380424
-0.002613737
0.058848362
0.032061506
-0.052924708
0.027807359
-0.039962616
-0.009504998
-0.0008317312
-0.031337924
0.002672508
0.05163837
-0.0039085704
0.08686656
0.027776249
-0.021828067
-0.015144872
0.052291226
-0.02247892
-0.040625606
0.09581807
-0.06605396
0.008559614
0.093173966
-0.018146198
0.09053492
0.0897779
-0.036837295
0.040061504
0.032094166
-0.023778832
-0.037005417
0.012770847
-0.0775418
0.0021657818
0.06135499
-0.04303774
0.008092457
0.08884303
-0.07828563
0.034330502
0.09787769
0.005411772
0.10091165
-0.037949964
-0.007967177
0.02691114
-0.03874739
0.05581578
0.0026572915
-0.0838624
0.03637393
0.027978584
-0.100316525
-0.016997535
0.06776407
-0.09658492
-0.01502383
0.098609395
-0.06572253
0.040467303
0.047359936
-0.09582251
0.013465508
-0.01949024
-0.039906338
0.067633525
-0.06223558
-0.026636595
0.04184121
-0.010447952
-0.014087807
-0.029197505
0.0009085794
-0.05691663
0.000629044
0.006870175
-0.015966816
-0.018070893
0.047552675
-0.06251611
-0.016781628
0.0333481
-0.10094243
0.058620404
0.03520735
-0.1022324
-0.08715193
0.0063748807
-0.09188597
-0.059086338
0.046216086
-0.015581535
0.024818312
-0.018063474
-0.059612595
0.034914616
-0.06764878
-0.09517709
0.036262624
-0.05998271
-0.056101017
0.015388315
-0.06665618
-0.056207944
0.07483046
-0.046124697
-0.0773294
-0.01648855
-0.043273605
-0.034187313
0.039526246
-0.029958798
-0.11654399
-0.039793156
-0.03479487
-0.081318386
-0.049106825
-0.013180088
-0.10550497
-0.023251016
0.029276643
-0.086213924
-0.014472872
0.025685117
-0.08729532
-0.05327368
-0.014527681
-0.09867948
-0.029156338
0.014976734
-0.06996727
-0.009501132
0.04686124
-0.031121882
0.03121042
0.03908928
-0.015460045
0.03176443
0.022151679
-0.07528676
0.09014786
0.045179587
-0.036699656
0.053002752
0.026037006
-0.06488921
0.0061724004
0.08483837
-0.07284404
0.015505045
0.071249194
-0.09020836
-0.013811314
0.046491753
-0.0656333
-0.007532883
0.03253652
-0.012902729
0.01828719
0.06597037
-0.042217262
0.055795472
0.054666303
-0.05664555
0.08271197
0.011868467
-0.09937705
-0.0116736395
0.12943824
-0.11085967
-0.0049883807
0.11455869
-0.061428353
-0.015705692
0.114519544
-0.034482
0.048228752
0.07463418
-0.06304746
-0.0040822364
0.022360055
-0.047794998
0.06196791
0.049720008
0.014296378
0.0053599346
0.0844306
-0.058303967
0.0115579255
0.04684005
0.0015783061
0.025230749
0.07074457
-0.05011256
-0.059422467
0.07861988
-0.11211657
0.011325173
0.056061212
0.005415965
0.07331634
-0.015881974
-0.0022994848
0.01930411
0.07714616
-0.044631157
0.013111622
0.082118124
-0.029164813
0.0009454654
0.013232431
-0.073023014
-0.001708921
0.04478052
-0.07322289
-0.002543095
0.026112543
-0.018118441
-0.0041095177
0.030717649
-0.05953928
0.0074490537
0.07790995
-0.051413856
-0.022636255
0.054686558
0.040967077
0.021333402
0.081790864
0.0018487425
0.054885134
0.04801486
0.06068979
0.0012086129
0.05181775
0.013463395
0.06265842
0.08491299
-0.029676104
0.049427904
0.08266547
-0.06260116
-0.07743504
0.02618609
-0.019410258
-0.071089126
0.062695734
-0.022084877
-0.0035361345
0.059122525
-0.02191522
-0.0779378
0.0032934372
-0.0015179354
-0.08289382
0.07957494
-0.017789833
-0.027362196
0.08333444
0.024983263
0.019723592
0.079180144
0.0076646367
0.058322415
0.090018176
0.013210042
0.06963995
0.019150464
0.07620553
0.0068919486
0.09198367
-0.01112295
-0.06758187
0.053202152
-0.005774831
-0.0325702
0.09422919
0.001180468
-0.0761733
0.058996096
0.12132695
-0.064803585
0.056140754
0.11883843
-0.122221515
0.09153348
0.13718286
-0.03759029
0.11424237
0.0901217
-0.099200666
0.04199565
0.011524834
0.03608438
0.03181617
0.044507515
0.005226777
0.081163056
-0.05401691
0.06074534
0.060581587
0.019515797
0.047542993
0.043094415
0.024150802
0.017454632
0.005798916
-0.039835095
0.081624456
-0.0018257899
0.042275287
0.04640562
0.014414546
0.053831533
-0.0055640913
0.025927799
-0.058396734
-0.057911787
-0.027617319
-0.040169153
0.04164439
-0.086465366
0.008622675
0.03948153
-0.14447705
-0.07250355
-0.023474447
-0.09755455
0.012436333
-0.060796093
-0.051202405
0.0023455028
0.059489965
-0.05464072
-0.05080613
0.030011496
-0.089511774
-0.038978662
0.05306081
-0.036420856
-0.025003668
0.049809635
-0.033153202
-0.0532358
0.03958587
-0.11268249
-0.022419948
0.03862431
-0.093212195
-0.00023919481
0.06721797
-0.037601687
-0.060624994
0.01751881
-0.038657762
-0.058426596
0.02149114
-0.030932738
-0.02662939
0.045127615
-0.027169762
-0.010510039
0.038933318
0.026050154
-0.02810682
-0.036304653
-0.05020095
-0.04449542
0.0062797843
-0.017602379
-0.0139672505
-0.05760879
0.015025976
-0.0327799
-0.066786796
-0.052189443
-0.033252556
-0.044646733
-0.014228646
-0.044330258
-0.03428462
0.013120655
0.012607775
-0.027816009
-0.034096878
-0.0120227
0.08137087
0.009875189
-0.051125366
0.049042907
-0.04148097
-0.020408591
0.101222396
-0.0120385485
-0.031787608
-0.036676444
-0.030626623
-0.019652046
0.037720606
-0.0017812836
0.04930985
0.021729156
-0.06766388
-0.019696495
-0.069774434
0.043589417
-0.055189703
-0.044858254
-0.0476496
0.019316126
0.011214003
-0.048794366
0.08554498
0.058444202
-0.07875716
-0.0097387135
-0.06712848
-0.01890043
-0.001160269
-0.04980675
0.023297217
0.066223025
-0.071226746
-0.023185756
0.050460458
-0.0050958726
-0.13182387
0.008998659
0.021169923
-0.120306075
0.049488217
0.09018046
-0.026647117
-0.01812516
-0.005854741
-0.06461302
-0.003892532
0.017782062
-0.0069542946
0.02392314
0.051003516
-0.06533136
0.033671156
0.033551805
0.015089501
0.0048250444
-0.0049683442
-0.05942685
-0.0058422517
0.037897665
-0.03278932
0.001787851
0.06284082
-0.068294406
0.019496897
0.05695571
-0.019861154
0.0010080826
0.060164716
-0.036610853
0.0756016
0.017802108
-0.027808297
0.06535985
0.018286088
-0.013999157
0.02395973
0.07246699
-0.014659793
0.0025440354
0.07159684
-0.04989349
0.056762405
0.040755536
-0.032608215
0.041996077
-0.010894271
-0.09178137
0.034016706
0.068335176
-0.040249463
0.05548353
0.07743619
-0.08344359
0.05024374
0.03791583
-0.10082878
0.0421134
-1.3040555e-05
-0.06453722
0.02077752
0.035682537
-0.02295872
0.058586974
0.0025345753
-0.026497766
0.016392184
0.079941496
-0.038975924
0.06604148
0.002897523
-0.03088908
0.04280158
-0.00080737344
-0.025803598
0.099340975
0.049042404
0.030450989
0.03786335
0.042081844
0.05601453
0.044534992
0.037278645
0.06535859
0.02422962
0.0006601392
0.093371354
-0.0050101676
0.0828001
-0.057943683
0.007976519
0.005854693
0.0070154266
0.010855223
0.02039961
-0.035705984
0.11634892
0.003424349
0.041623514
0.10424285
-0.0052830866
0.029443514
0.03611368
0.0038752654
0.08182795
0.0102042025
0.042160757
0.03027443
0.08791285
0.03104006
0.017772099
0.1400198
-0.026470581
0.093958214
0.13357303
-0.058761626
0.09123346
0.091841444
-0.05844674
0.104136825
0.026111482
0.011248613
-0.055881355
0.0020604748
-0.0011816114
-0.034878578
0.13669902
-0.05208569
0.048882984
0.16839115
-0.025416419
0.073074944
0.101843916
-0.0042339605
0.10282394
-0.010761885
-0.018691964
-0.021284323
0.02941874
0.014462158
-0.04819602
-0.0276859
-0.06719819
0.012568675
0.09525591
-0.09276867
0.0038933866
0.10530471
-0.06966782
0.087637186
-0.007347101
-0.05619406
-0.08025354
0.03785717
0.008943477
-0.000473907
0.010024375
0.013653096
0.037758786
-0.09932759
0.0491337
0.07904805
-0.012994527
-0.0012072214
0.034357447
-0.051393505
0.047029298
0.06424057
-0.11684255
-0.059196923
0.075634435
-0.056089137
0.08284145
0.0027427087
-0.08560326
-0.019780267
0.081755415
-0.022160009
0.075376436
-0.001770362
-0.07167969
0.020937884
0.022318263
0.08664474
0.0034337884
0.1025274
0.050481096
0.059482224
-0.037456177
0.037638165
0.030461233
-0.036591668
-0.011706129
0.054069977
-0.058826856
0.03929403
-0.00030535134
-0.05037426
-0.01947669
0.08851858
0.0050021955
-0.0006723625
-0.004422256
0.05638185
0.035979025
0.04853286
0.047140572
0.01926751
0.1200646
-0.020360958
0.0062478986
-0.014711371
-0.06448743
0.11410912
0.019874847
0.019196425
0.02501857
0.008089584
-0.006090332
-0.05286045
0.067394406
-0.019252103
0.059473
-0.026393397
-0.07350459
0.009921834
-0.060160957
-0.035277095
0.03811597
-0.05501008
-0.06259936
0.05411875
-0.061107956
-0.08501807
0.054044735
0.013688746
-0.13853294
0.08192524
-0.036272537
0.09137743
0.0960745
-0.039805643
0.040079307
0.012826404
-0.007940681
0.047315665
0.018242752
-0.031669743
-0.0012088477
0.105390325
-0.0932312
0.0888228
0.011084511
0.044803094
0.020463238
-0.028802248
0.06037302
-0.056693576
-0.0916444
0.03525142
-0.02526951
-0.11997734
0.00024695208
0.035596263
-0.118636124
0.03694705
-0.0043979636
-0.084969185
0.036225513
0.0872258
-0.011426096
0.059619125
0.102027476
-0.113947995
-0.09296864
0.055877443
-0.055093233
-0.07934244
0.048984323
-0.041121766
0.04152535
-0.011022125
0.002227868
0.025078539
-0.041911103
-0.05877325
-0.018385299
-0.11526284
-0.040881045
0.02638903
-0.077689804
-0.009443771
0.115037635
-0.040009294
-0.02888881
-0.019464899
0.030072328
-0.025935294
-0.03188623
-0.029448017
0.0091544
-0.021413773
-0.037572578
0.028661415
0.04514451
0.03170324
0.03572083
-0.015829973
-0.029697722
0.09025722
-0.041115213
-0.015845295
0.0759331
0.033303972
-0.067989156
0.010237871
0.0075549036
0.081258565
0.050466776
0.031057475
0.024094032
0.05205777
0.007838033
-0.034548078
0.1640017
0.0029066522
0.037825447
0.09176296
0.030466164
0.032386597
0.06306878
0.083900735
0.038970083
0.009111234
0.074905485
0.07677761
0.0268747
0.04057423
-0.030984372
0.0063295253
0.059542473
-0.068619266
-0.016018687
0.054279678
-0.01332308
0.11931103
-0.009941459
0.053222246
0.05468764
-0.046299804
0.007930295
0.053232808
-0.027841907
0.031706244
-0.048621327
-0.08550464
0.05085295
-0.0636514
-0.038903363
0.08485248
-0.049683925
0.071645066
0.019276433
-0.021895759
0.0664435
0.047338214
-0.07074031
0.044743285
0.043035027
0.0020328106
-0.0038208354
0.038377926
-0.06310849
0.034877483
0.027493855
-0.1369116
0.018377794
0.07382495
0.022542382
0.06987163
0.058718104
0.014622198
0.07967372
0.06948865
-0.035313122
-0.07703675
0.035235837
-0.09147761
-0.13277984
0.058772344
-0.024591213
-0.009506585
-0.14466646
-0.08039101
0.03525565
-0.074435316
-0.04015093
0.065162554
-0.024395214
0.0318894
0.1321282
0.015510041
0.01986797
0.036632296
-0.032092296
0.07836571
0.02833141
-0.07555239
0.17383802
0.035793588
0.014242176
0.02711375
-0.041984174
-0.07203024
0.09538413
0.021964077
0.024848826
0.10698616
-0.061200656
0.08532703
-0.010905719
0.028966673
0.021238951
-0.094994225
-0.03419865
0.07940964
-0.013519993
0.017671632
0.004739501
-0.07945876
0.005327158
0.022871494
-0.042958673
-0.059962567
0.005184007
-0.06926354
0.07023335
-0.07640051
-0.088467054
0.02859127
-0.009010584
-0.03221513
0.031891026
-0.066868
-0.020682968
0.015505315
-0.0074909977
-0.05114157
0.015667308
0.06516777
-0.014133544
0.04475115
0.052303918
0.003693257
-0.0019902294
0.02179177
0.065277666
0.0022823517
0.056456912
0.03358371
0.005333369
0.050284978
-0.009260399
0.015740499
0.061904553
-0.011762912
0.014200007
0.026130259
0.044182394
0.08162927
0.08474767
0.07469805
0.07003394
0.06496764
0.02330238
-0.06348797
-0.028518388
-0.0098921005
-0.005749881
0.07749696
-0.038707074
0.04057478
-0.07778899
-0.0056359693
0.005220666
-0.081686154
0.055186756
-0.009471416
-0.13280638
-0.05096443
0.014371731
-0.040331934
-0.06581261
-0.017610993
-0.053850338
-0.05256881
0.05574711
-0.027445218
-0.0361232
0.0054201414
-0.020007966
-0.024382195
0.07682949
-0.064481825
-0.013774546
-0.038089696
0.039008565
0.03635334
-0.08422202
-0.010850447
-0.033586167
-0.047119282
0.027427275
0.101454794
0.012850254
-0.040003937
0.074186906
0.00051657367
-0.05506104
0.04358043
0.0835563
-0.0046366337
0.047116
0.04516434
-0.02427543
0.008698752
0.05298563
-0.06385257
-0.0075274957
0.07150143
-0.077066705
0.0848678
0.055767316
0.025398498
0.08730824
0.08223955
0.022439659
0.04224437
0.06268801
0.020107374
0.022180906
0.01729998
-0.047243416
0.021486083
0.03819237
0.023019597
0.046264194
-0.02961303
-0.05388976
0.08481157
-0.053283237
0.092332035
0.053667136
-0.014334799
0.04000127
0.05131384
-0.028701723
0.007415456
0.06369871
-0.07160227
0.01526996
-0.029454809
0.021422496
0.04189169
-0.01547024
0.03460498
0.09757298
-0.052562676
0.018678362
0.023195162
-0.026790695
0.0033677316
0.08002412
0.0008281279
0.019152498
0.07559222
-0.069395944
0.058833774
0.053561516
-0.06663831
0.026893869
-0.064746924
-0.070688635
0.004516892
-0.04259236
-0.09090595
-0.02179256
0.04202861
-0.042870995
-0.0346205
0.024078919
-0.009446638
0.07161479
0.055690452
-0.02712359
0.046360616
0.048134502
-0.056678444
0.043363556
-0.036057018
0.060555533
-0.014860236
-0.07200498
0.062274963
0.0085895555
-0.09202876
0.09742932
0.06730078
-0.06285613
0.067673184
-0.0074699577
-0.0707183
0.09546808
-0.068506725
0.10604766
0.062350508
0.033422302
0.018265465
0.085961886
0.082139045
0.06828777
0.083693646
0.011330925
0.012019441
-0.011046281
0.074871115
-0.037880905
-0.035051826
0.043324128
-0.07741122
-0.075348765
-0.038380172
0.058679823
-0.06360978
0.028870411
0.05311977
-0.005862762
0.057915892
0.02431019
-0.0420915
0.044757813
0.07003592
-0.02905622
0.0819573
0.05759726
-0.028934801
0.018943567
0.06257912
-0.0142811835
0.040364567
0.04178354
-0.09305394
-0.047110964
0.027875004
-0.029577477
0.017724637
-0.002710547
-0.10680577
-0.055763494
0.056649663
-0.003916096
-0.03254215
-0.028703196
0.047192805
0.07990374
-0.03617405
0.06840547
0.0061168466
-0.0069426657
0.01698582
0.050628945
-0.017385202
0.056970257
0.013380843
-0.047021654
0.015663197
0.0070225513
-0.031307925
0.019239582
0.07117826
-0.07210855
0.060006477
-0.019470109
0.031647902
0.042350095
0.063853
0.07442187
0.030177534
-0.024220882
-0.022300271
-0.04128598
0.028349446
-0.06818214
-0.061689958
0.04721541
0.042163543
-0.07147821
0.07504208
0.07805851
-0.07476503
0.078133546
-0.020912476
-0.08107341
0.057871886
-0.014257007
-0.09029639
0.034714386
0.07280818
-0.060068388
0.046044245
0.06434848
0.0075511164
0.09420604
0.033847496
0.028700056
0.0011025282
0.08574779
0.061859943
0.022058263
0.07166584
0.05150977
0.024985887
0.02039254
0.017896075
-0.03849672
-0.0013084464
0.039497335
0.07310291
-0.074661955
0.13430387
0.002165937
0.017501045
0.007836105
0.041046396
0.05878346
0.04446916
0.034424473
0.07918755
-0.04742747
0.018002756
0.0092876125
-0.01443231
0.073198006
0.057524405
-0.08557842
0.03960748
0.04242336
-0.071752794
0.07278951
0.03723976
-0.085331865
0.0036330028
0.08224161
-0.05790906
0.07337825
0.06845825
0.0029610223
0.06854227
0.071227536
-0.04426994
0.05910043
0.025781801
-0.031763148
0.0450973
0.057047352
-0.05034584
0.020260654
0.041716162
-0.035377882
0.03567032
0.07741966
0.04345565
0.045678146
0.023883967
0.0040650116
0.018475745
0.022598201
0.023643414
0.01975577
0.066078946
0.05399299
0.0608617
0.08401349
0.017745506
0.054447133
0.029700669
-0.09991983
-0.030743802
0.019974202
-0.03020426
0.015343638
-0.09325546
-0.03337946
0.057477523
-0.035659105
-0.046754837
0.025438761
-0.10168919
-0.030436747
-0.0065011834
-0.0884802
-0.060567733
0.059250016
-0.047217503
0.035741463
-0.048815746
-0.011320508
0.0036849345
0.05324921
-0.03467169
-0.025203558
0.028620299
-0.043285515
-0.027136128
0.029567527
-0.036420815
0.0048491308
0.062406335
-0.01693292
0.026464934
0.041557264
-0.113591395
0.011242691
0.009318763
-0.032051843
0.00087878475
0.043184783
-0.07586606
0.095126666
0.07950535
-0.058268823
0.012919557
0.026086502
-0.03349985
0.055673696
0.0267312
0.0069752503
0.035708085
0.08081432
-0.04469749
0.08838808
0.03009869
-0.07793634
0.042296264
0.0038396956
-0.04371988
0.03817223
0.041777413
-0.038966067
0.023290472
0.048613444
-0.024859864
0.019471923
0.03583988
-0.022911008
0.048010476
0.07209452
-0.0650397
0.032521565
0.04621047
-0.089118846
0.007987946
0.063515246
-0.04832642
0.066544175
0.012869727
-0.03895032
0.080970235
0.063434996
0.008766897
0.0063416758
0.04263432
0.0766321
0.072413035
0.06582637
0.013795835
0.073830135
0.016111387
-6.0028084e-05
0.06798322
0.048713207
0.07506521
0.054034643
0.052701894
0.014471378
0.15135723
-0.06672445
0.054063737
-0.03855995
0.013045818
0.031063544
-0.06821678
0.061002
0.009947327
-0.0445972
0.026104836
-0.023611557
-0.018422065
0.060561202
-0.0498599
-0.064460576
0.07087149
-0.009912105
-0.00983942
0.04945786
-0.0280172
0.0002955567
0.032827914
0.055826847
0.061226383
0.0086793015
0.041488804
-0.10690757
-0.0026052063
0.070407696
-0.010151749
0.016711982
0.07448757
-0.009726613
0.04117644
0.04652167
0.0029968384
-0.003038798
0.04779238
0.018539123
0.03815852
0.09232047
-0.028238209
0.04274339
-0.07642466
0.049035754
0.054011934
-0.07225272
0.052729264
0.0033808078
-0.08942414
-0.03242405
0.026697975
0.007919506
-0.07176049
0.042923585
-0.0191202
0.004656049
0.038591538
0.03207162
-0.028960602
-0.0048680725
-0.040896285
-0.069342524
0.07020378
-0.066365086
0.005740433
0.036649175
-0.047686175
0.010269549
0.041702304
-0.033427443
0.050724052
0.034399785
0.0040755337
0.05787534
0.028318504
0.031052005
0.0061212545
0.030875457
0.03659811
-0.100121826
0.035715617
-0.042794574
-0.05965932
0.040484697
-0.044588216
-0.052160654
0.015965983
0.04914313
-0.07713567
0.061083335
0.055261776
0.020529233
0.03215328
0.081027694
0.023586135
0.025850188
-0.025708618
0.08357582
0.012459413
-0.05485724
0.08513595
0.022838678
0.06275896
-0.014551852
0.07687703
0.06429561
-0.09202084
-0.002702957
0.024807872
-0.081834555
0.05174774
0.051327623
-0.047475774
0.052712657
-0.006431096
-0.023737952
0.011306572
-0.09555292
-0.09527303
0.0062034815
0.0022873068
-0.06349315
0.0026734
-0.0073909475
-0.082164295
0.0124170715
-0.049572915
-0.068028666
0.05998987
-0.05837475
-0.07512917
0.023362104
-0.10253483
0.008435874
0.054338094
6.1160776e-05
0.0074811038
0.073214866
0.09814596
0.05533988
0.0034945095
0.09555741
0.037070584
0.06353579
0.095008664
-0.075923145
0.025513956
-0.051473558
0.01522838
0.06163679
-0.043760628
0.049526405
0.013333052
-0.03535167
0.072114676
0.044191316
-0.07083471
0.066504925
0.011777087
-0.030043056
0.082624696
0.02504962
-0.07873044
-0.052081246
0.006903231
0.04648528
-0.03841726
0.01971445
0.019256588
0.029125068
0.05280407
-0.048820652
0.07534541
0.00676231
0.05426974
-0.014756193
0.018823331
0.055707175
-0.009516625
0.06664519
0.05092871
-0.028127199
0.061070878
0.030153487
-0.029650996
0.060438544
0.051878612
-0.0381377
0.056822103
0.0064436626
-0.033271533
0.005518729
0.04113156
-0.0653418
0.07402944
-0.019774145
0.02449
0.040809467
-0.04638339
0.07923262
0.0045971884
0.04731084
0.053512253
0.0058173877
0.0064127673
0.05425713
0.029680338
0.0515595
-0.051829617
0.0035304402
-0.073464125
-0.044183932
0.027204672
-0.03380405
-0.002850084
0.061330806
-0.09720492
-0.0399001
0.07746337
0.059065215
-0.008837167
0.07245024
0.048037276
-0.008247142
0.033057787
-0.021818656
-0.00196182
0.016132131
0.017058672
-0.07091369
0.048479993
0.033905637
-0.062905125
0.04848397
-0.021939794
-0.041009054
0.043560285
-0.057139307
-0.027980832
0.041602466
-0.033527628
0.016805494
0.073989995
0.0016465249
-0.091427006
0.03413186
0.025280794
0.05062309
0.010081795
-0.04363793
0.034270357
0.073398486
0.0047309734
-0.0067162393
0.07125295
-0.037623763
