512 1
0.011521839
-0.005061117
-0.003674007
0.011084992
0.005520897
-0.01370292
-0.005298883
-0.011608917
0.0064499136
0.00040351786
-0.0041062003
-0.006043377
0.0073745516
0.010647621
-0.0049016
0.008155402
0.003997719
-0.007832921
-0.0002380563
0.009450004
-0.011126365
-0.0045970376
0.0062914
0.0045815445
-0.0049850964
0.010377327
0.0025893366
0.0010648249
0.007928531
0.0021501966
0.011852758
0.001957736
0.00058247504
-0.0020328965
0.008564558
0.0035659613
-0.00066149555
0.0020696335
4.2123087e-05
0.0082734
0.0041931295
-0.0027784167
0.0039501376
1.7679953e-06
0.010159792
0.00053780683
-0.0029737195
-0.00852981
-0.00035110489
0.0044781696
0.009830482
0.0082869455
-0.007534828
0.0014780564
-0.00031006522
0.006806737
-0.0020964069
0.004417397
-0.00076906756
-0.008747493
0.0072070844
0.002322383
-0.009712895
0.007128317
-0.009165799
-0.0013385821
0.0019213768
0.0074951747
-0.007518698
0.0054425695
0.0011395972
-0.010446127
0.00053940155
-0.002756657
0.0056290943
-0.007648235
-0.011863065
-0.010784019
-0.007021278
0.0041689184
0.002086781
0.009008843
-0.007193205
-0.012319743
2.7739443e-05
-0.012306864
0.008504268
0.004594516
0.0012452081
0.007762906
0.01196271
0.0078102313
0.005994532
0.0075564682
0.0015299888
0.007251989
0.0021829158
-0.0032232702
-0.010261981
-0.011538185
-0.008185307
0.0005102232
-0.011563852
-0.0030009309
0.0101833055
-0.00048043765
0.0049425927
-0.009560072
-0.00088672823
0.009747192
-0.005442923
0.010380929
0.0075246687
-0.0043205596
-0.006578008
-0.0038763117
-0.0013542073
0.003043833
0.008019939
0.0057952795
-0.0088881925
-0.007819142
-0.00072960457
0.0018069344
0.0057582464
0.0028056623
0.0081513375
0.0015708491
-0.00079332106
-0.0097566135
0.0013663443
-0.0030983407
0.0016461732
-0.0094724195
0.0079079075
0.007809967
-0.007304058
-0.00081735104
0.008773437
0.012165956
0.0055810865
0.008818233
-2.9182062e-05
0.0075556636
0.00885326
-0.00036352442
0.010907479
-0.011094363
-0.0027240366
-0.0069689485
0.007648001
-0.00053861586
0.0023984287
0.003414441
-0.006534134
-0.0014528374
0.007924715
-0.010492219
-0.0013229549
0.008271102
-0.010676567
0.007760133
0.00659696
-9.800121e-05
0.008744968
-0.0031468784
-0.009490345
-0.002828422
0.009831529
-0.010654098
0.0053660795
-0.0037221771
-0.0053165285
-0.0027911067
0.002689163
0.0017197477
-0.0073369844
0.006560728
0.002425774
0.0057955254
5.526468e-05
0.003112837
-0.007670904
-0.0007773731
-0.007526526
0.008884767
-0.008064596
0.005035136
0.006093758
-0.005910245
-0.0013701664
0.0003467531
-0.009330248
0.0035807882
-0.009848395
-0.0044048973
-0.00064624485
0.008298859
0.0054671434
-0.009595164
-0.0062273648
-0.009234977
-0.004814036
-0.010236769
-0.007989133
0.0052524754
0.010115424
0.0009113244
-0.0027030122
0.008054885
0.0014352772
-0.0075404737
0.008883674
-0.010761347
0.004721002
-0.009164984
0.00367965
-0.0014460486
-0.010248035
-0.007959262
0.0047858753
0.008596281
0.0037744357
0.0051656007
-0.0015009353
0.0021273529
-0.0043818965
-0.0023583155
-0.0043175546
-0.0001257956
-0.0076427287
0.007994456
-0.0070524574
0.005667
-0.012533795
-0.0024548424
-0.0057906467
-0.00021360724
-0.007932719
-0.004622108
-0.0045841592
-0.0013268236
-0.004498223
-0.0097695645
-0.0067421463
-0.0004970806
-0.0049829814
0.0019234857
0.01117347
0.0066258283
-0.010263109
-0.01099362
0.003889786
0.0041411184
0.0028295629
0.0085873995
-0.007703453
0.0073275664
-0.0018332675
-0.011791399
0.0111067165
-0.0098076975
0.006779072
-0.0020805728
0.008178389
0.011080107
0.005908454
0.0025249114
0.0027118651
-0.0104785655
0.010835467
-0.010376741
-0.0027928648
-0.0052983332
-0.010346817
-0.00351281
0.002632883
0.008893043
0.006294083
0.0017550709
-0.010063003
0.008314114
0.005524123
0.006876811
-0.008457165
-0.010489732
0.005062571
0.011327013
0.008316077
-0.0007397458
-0.0052664215
0.0023750467
0.0090865055
-0.01051748
0.006075908
0.004518653
-0.0073301652
-0.011992328
-0.009891373
-0.0065419325
-0.012036118
-0.007085407
-0.0045364876
0.00035084816
-0.0026626976
0.00027148612
-0.001283004
-0.0038090218
0.0035258553
0.0070386864
-0.01003274
0.011601839
-0.0028526797
-0.0074182423
0.009622674
-0.0060303784
0.010036921
-0.0006325338
0.010201918
-0.007872792
0.007343481
0.010936322
0.011664487
-0.010363723
0.0021946449
-0.005773341
-0.0041292114
-0.0037403665
0.011774604
0.010701996
0.0040017553
0.0074497596
-0.0020555805
0.010115532
-0.0015535094
-0.007937073
0.00050773105
0.0055197626
0.0042282105
-0.0032557417
-0.010851503
0.0017831149
-0.0073579196
0.010831265
-0.008070133
0.0019432679
0.0027911863
-0.005441194
0.0054037888
0.0010001865
-0.00058277714
0.0033121146
-0.0024206478
0.009411659
0.009525774
0.010085657
0.010467218
-0.0052435454
0.010414323
0.0070784204
0.00466582
0.009941909
-2.4488196e-05
0.0061165397
-0.006780663
0.015711786
0.00042728175
0.003807169
-0.003213253
-0.0027511788
0.001558327
-0.010942751
-0.0012812614
0.009806257
-0.0023520235
-0.009534751
-0.004028762
0.010544237
0.007729249
0.0036664829
0.008383641
0.009178523
-0.009954894
-0.008364215
0.0018756319
0.0042915214
-0.011644137
-0.0071877046
0.005551501
0.010618037
0.0075240824
0.0042315386
-0.011832411
-0.003051458
0.0016955889
-0.0058225384
-0.008090317
0.0092748795
0.010895185
0.0027342548
0.015558219
-0.009652354
-0.003172823
0.009387523
0.010443433
-0.0012242002
-0.0035560578
0.00073554274
-0.0025496113
-0.0002880348
0.006302867
-0.007880415
0.00508335
-0.008711418
0.0026024443
-0.0046470305
-0.004774877
-0.01132057
-0.009469779
-0.009807027
-0.00083096605
0.006928187
0.0027683405
0.0068329903
0.0011982055
0.0037655386
-0.010264203
-0.00015696789
0.0051888004
0.001039635
0.010931492
-0.006195632
0.0073287804
-0.008302744
-0.007077997
0.01803062
0.00013033587
-0.00783614
0.010744568
0.00021429188
0.002385339
0.0019534177
0.009678628
0.007760427
0.008367611
0.0062607885
-0.0038648723
-0.011284952
0.009283181
0.00681627
-0.011211658
-0.00020654307
-0.0026508346
0.008497506
-0.0048067276
0.0014305431
0.0010371106
-0.008879966
-0.0094978325
0.0075527974
-0.004583569
-0.0040460164
-0.0005319447
0.0041232286
0.0057081115
-0.0067782262
-0.0029436129
0.006364299
0.011713998
-0.011279991
-0.000904046
0.000741226
0.0042495173
0.0058078864
-0.0024130978
-0.0037853236
0.00997428
-0.0022144192
0.009368402
-0.011822131
0.007967999
-0.00164054
-0.0101978155
-0.0077823186
-0.010287564
-0.010403704
-0.0121857645
-0.005218894
0.0006855642
-0.009500954
-0.0035812675
0.0019098844
-0.008534075
-0.0075158537
-0.008048443
0.004085161
0.0057580397
0.0063601322
-0.0028124405
-0.0012416579
0.011418862
0.0039623734
-0.011223203
-0.0075008385
-0.008689388
0.0019026017
-0.0010391793
0.0015926044
-0.0086855525
-0.008009939
-0.0045306864
-0.0035805535
