128 512
-0.01429434 -0.044172704 -0.0076829083 0.017973643 -0.044175744 -0.04410956 0.0063155615 -0.036554877 0.0363668 0.00036896393 0.0012889504 -0.009378002 0.035934586 -0.022387646 -0.026730206 0.014755439 0.004100442 0.025211617 0.011113875 -0.023560392 0.017637067 0.035913188 -0.036776826 -0.0013449043 0.024033166 -0.041324675 0.0023270398 -0.0039919317 -0.01981094 0.01480714 0.0178794 0.023994919 0.019689843 -0.0020611063 0.007575523 -0.03522818 -0.0022593776 -0.015115045 0.027130783 0.027784336 0.041056897 -0.0388877 0.03321263 0.018997299 -0.022241835 -0.040695485 0.02391493 -0.0320733 0.04274985 -0.031134658 -0.023449669 -0.02088109 -0.03489483 0.0019570105 -0.006630849 -0.0393347 0.039930467 0.01805083 0.03307456 0.013619505 -0.0013618805 0.016863097 -0.028645284 -0.039474353 -0.011571152 -0.025904113 0.023147412 0.0362042 0.012836438 -0.016444797 0.015639413 -0.022538003 0.037774544 -0.0053743646 -0.02211141 0.012429774 0.030427888 -0.008965671 0.0061685108 0.0060689673 -0.018770183 0.039487395 0.009006233 -0.045267113 0.007814519 0.010941317 -0.014380967 0.0009388216 -0.007633228 -0.042448416 0.033131953 0.027508467 0.023768626 0.022947162 -0.021522129 -0.03463506 0.009637108 -0.042113364 -0.030009238 -0.0131913945 0.015113469 0.01233593 -0.011473946 0.034256022 -0.039153848 -0.008879762 -0.00892294 0.024250716 0.0318236 -0.0057561942 0.0007432215 -0.004780721 0.027312681 0.028049204 0.03006576 0.018898848 -0.0065829493 0.04356027 0.03877042 -0.0054053105 -6.150827e-05 0.03050249 7.8672594e-05 0.03484704 -0.03607106 0.019547988 -0.027219698 -0.042115234 0.028801035 -0.008181041 -0.020114599 -0.010267189 -0.022369957 -0.009382288 -0.043827675 0.043130618 -0.007970396 0.012124822 0.018568873 0.000808898 0.017089508 0.015515771 -0.0265232 -0.027017238 0.01984223 0.043099526 -0.038992073 0.03316207 -0.033837326 -0.03358429 -0.009311149 -0.044721697 0.03363632 -0.027519625 -0.010722533 -0.004346469 0.013478804 -0.019463552 -0.021945985 -0.013638129 -0.0047914945 -0.030834157 -0.031986002 -4.04343e-05 -0.041945465 -0.013642998 -0.03124591 -0.029514216 -0.04276016 0.038747076 -0.008717712 0.0019586794 -0.020799227 -0.026512148 0.03419141 -0.022150444 -0.0046231016 -0.034647617 -0.0046070903 -0.002912663 0.040200282 -0.032167897 0.031967055 -0.008365508 0.0093241315 0.008530453 -0.020158267 0.026247162 -0.025777832 -0.01983098 0.011833809 0.01791399 -0.03148225 -0.0053128935 -0.04112054 -0.030606091 -0.031593136 -0.0126803955 0.025290847 0.030699216 -0.011710543 0.007151302 0.028375402 -0.013636998 0.029457215 0.036271658 0.0012654172 0.022562362 0.014338063 -0.0030821937 0.020070307 0.005178239 -0.014173958 -0.01309533 0.041309666 0.010189058 0.00666881 -0.012380177 -0.014319761 0.033154752 -0.012200257 0.0069435337 -0.03322199 0.012718258 0.019642938 0.023943879 -0.021663347 0.024703637 -0.0046587153 0.0063786097 0.03969526 0.012859497 0.028358541 0.041137632 -0.009887724 0.040791962 0.007898845 -0.0388455 0.026311588 -0.024764398 -0.004088249 0.04249343 0.005886603 0.019693874 -0.010359077 -0.0029485899 -0.024986954 0.003936995 -0.035617508 -0.004849105 0.019722365 -0.033869486 0.042176228 0.007126484 -0.04160512 0.002405889 0.037738826 -0.03841788 -0.0050967224 -0.028904952 0.017717503 0.04005241 0.0046296553 0.02603719 0.03440353 0.028675571 -0.036548313 -0.016997566 0.04206844 0.026248176 -0.0006578006 0.030533891 -0.034766015 -0.04221882 0.01403627 0.00075767934 -0.008989943 0.0022000156 -0.042693987 0.035042692 -0.0041944385 0.0015220903 0.014912657 -0.044663347 0.01633985 0.0019135736 -0.021518774 0.021628778 0.036556493 0.04351907 0.028555222 0.013461236 -0.005460297 0.0023619456 0.018985055 -0.037306853 -0.030881306 -0.047208644 0.016981361 0.039123412 0.018638216 0.023151617 -0.020499911 -0.026943447 -0.01813915 -0.03555081 -0.0014066808 0.030339275 -0.049662907 -0.009511918 0.013261694 0.018601734 -0.024479443 0.03553475 0.010539848 0.013558844 0.00861228 0.032623228 0.021471798 0.010236332 0.035241004 -0.0066121146 0.040165383 0.0037980538 -0.0040288717 0.018830515 -0.034574304 0.01809913 0.0020274369 0.011254037 -0.0007016292 -0.039965644 -0.007442673 -0.030335024 -0.033714484 0.02538076 -0.030257974 -0.0035843067 0.023332141 -0.00845233 0.035795692 -0.0031371787 0.0234444 -0.028818084 0.010843103 -0.014680026 0.0054988326 -0.031273957 0.016018182 -0.0075596594 -0.02895908 0.03898477 -0.02342139 0.024070434 0.0010006088 -0.028748715 0.023787528 0.006389782 -0.035278425 -0.0171994 0.015832853 -0.027750717 0.004931338 0.0067915157 -0.002917126 -0.027733497 -0.032475714 0.027237624 0.03452668 0.010571079 -0.038457196 -0.02984159 -0.012527678 -0.04042136 0.008848313 0.015377432 0.022144102 -0.0040888935 -0.03886831 -0.015691957 -0.033119135 0.008885 -0.029209733 0.038778763 -0.036943395 -0.002175767 0.0072055706 0.0070611895 0.013276731 -0.04248618 0.004902765 -0.011337956 0.0063027614 0.043763977 0.016852234 0.020456638 0.032773454 -0.0013827017 -0.017205449 0.029045098 0.024158856 -0.017379295 -0.0066462695 -0.042903416 0.025220603 -0.008049753 -0.01086219 0.037481192 -0.007638098 0.00086123496 -0.02177877 0.010262245 0.031292964 0.013700698 -0.026682593 0.03144702 0.039039787 0.010460742 -0.0056577027 -0.04393117 0.024826098 0.017931942 0.026332367 -0.036357243 -0.017513596 0.038474057 -0.02770169 0.03636894 0.007816553 -0.04036923 -0.013692347 -0.0407043 0.042528626 0.044036616 -0.01012628 -0.03858978 -0.025054002 0.017615546 0.0416802 0.03664941 -0.03422442 0.0129265655 -0.0070418566 0.03384721 0.020205062 -0.02922155 -0.019683706 0.042572718 0.016631484 0.037729207 -0.043425746 -0.03854915 -0.018935625 0.005497473 -0.015774146 -0.008552201 0.0033532977 -0.04051831 -0.03537651 0.010737443 0.015521284 0.0038259712 0.0024528762 0.020895086 0.042397466 0.02800985 0.018600814 0.024382386 -0.03059693 0.040170033 0.025692556 0.00892627 -0.037900433 0.0033240055 0.008096684 0.018368438 0.001471463 -0.009359857 0.02626697 -0.033289105 0.004358515 0.03242689 0.010482305 0.042254847 -0.020184942 -0.041435946 0.04040237 -0.027430799 -0.027087525 -0.043168914 0.0068725296 -0.015015077 -0.01646006 0.015080191 -0.03654541 -0.004445193 0.0041323826 -0.0059262253 0.0035353042 -0.010975171 0.009105135 0.0010525845 -0.017913133 -0.017800635 -0.021519832 0.00936209 0.038085785 0.00082717463 -0.020190878 -0.009575991 -0.0126610445 0.022582274 
-0.02496502 -0.024654746 0.0036550276 0.0053106435 -0.018790798 -0.011197748 0.015805863 -0.014690952 0.003296394 0.029433835 0.01949853 -0.042991053 0.037013922 -0.0054517165 0.03786679 0.005446799 -0.031106792 0.038284827 -0.02206695 0.0015636103 -0.017964741 -0.038263164 -0.008030849 -0.041928552 0.016913123 -0.006536793 -0.0009304285 0.040221866 -0.033412326 0.039780054 -0.031017272 -0.010419693 0.03677867 0.0013571493 -0.013331285 0.03185332 -0.022269325 -0.037260685 0.027313288 -0.039158277 -0.0077549405 -0.012127429 -0.03608502 -0.012127018 -0.0138703175 -0.02140816 0.040874172 0.0022504367 -0.00060790405 0.024158921 0.016063493 -0.007959362 -0.04179454 -0.02775213 -0.036831666 -0.0062011704 -0.020971201 -0.014220683 -0.0022842214 0.022382194 0.009933569 0.0012556277 0.028160866 0.014303409 -0.042461533 0.04341238 0.026022118 0.0035807092 -0.029655049 0.026167544 0.0028743744 -0.029693982 -0.014413448 0.03316133 0.0043595396 -0.03214598 0.021442108 -0.021803096 0.019488383 -0.026962377 -0.0342695 0.013818525 -0.0043724924 0.04253858 -0.011113174 -0.024439355 0.018260773 -0.011445183 -0.036065158 -0.017242724 0.024130736 -0.029271822 0.020604098 0.020500269 0.0072696656 -0.0030859038 -0.013852689 0.021325994 -0.026360167 0.010241821 -0.02737795 0.037912954 -0.011689223 0.00039445236 0.024239395 -0.04251695 0.014563095 0.015405179 0.00023272261 -0.02852741 0.008117821 0.041576277 0.016401798 0.0119619705 0.036032233 0.011430088 0.017389484 0.010288924 -0.008892205 -0.03528372 0.029733997 -0.0025690496 -0.015986612 0.01823584 0.028514775 -0.004504986 0.024547134 -0.02348447 -0.014560103 0.039384928 0.010962557 0.030094456 0.0018065237 -0.0042720875 -0.012655396 0.024896558 -0.040055726 -0.043655384 0.011283543 0.019542156 -0.0001090616 -0.032474574 -0.028459912 0.02527593 -0.009083126 -0.019461611 0.03623564 -0.0018743873 -0.024732528 -0.03430357 -0.020323757 0.019441266 -0.0058623143 -0.03075267 0.015641466 0.024405612 0.0021970943 0.03822429 -0.007364318 0.01321701 -0.039130744 0.038247634 -0.026096607 0.043718006 0.013905637 -0.0425408 0.02867699 0.038410854 -0.026680946 0.021940563 -0.014057264 -0.0149176065 -0.04391158 0.0038756616 0.018395074 -0.04395349 0.0070815394 0.020458769 -0.0019041768 -0.029934376 0.002981685 0.03925349 0.016106565 0.035852652 -0.025638586 0.019774307 0.017780397 0.010373592 -0.019334681 0.02470347 -0.038713414 -0.020508366 -0.010243788 0.033263143 0.020767268 -0.038070254 -0.011691995 -0.022209523 -0.03618634 0.029504266 -0.022636855 -0.0066127665 -0.034562394 0.022328442 -0.017583638 -0.02075014 -0.04368876 0.013859086 0.008281359 0.03551413 -0.03718754 0.034686156 0.03780375 0.032853898 -0.022767186 -0.031916454 0.027288955 0.026426721 0.0034980774 0.0011744536 0.0325728 -0.023951985 -0.008569635 -0.03855308 0.03873324 0.018370459 0.040605273 -0.041943923 -0.034029417 0.038765866 -0.04046043 0.007540006 0.0019754432 -0.03986237 0.021987487 -0.0031791478 0.043935183 0.019432466 -0.024594678 -0.02740547 0.02408569 0.027621139 0.04190809 0.02137373 0.039623115 0.03049643 0.038744804 -0.019572727 -0.029981822 -0.00016614766 -0.022498654 -0.04471666 -0.00036467984 0.027311813 0.015177023 0.025927406 0.0077142804 0.02355535 0.017971732 0.039568137 -0.013976473 -0.028420346 0.037202682 0.012371384 0.006641511 -0.0052776188 -0.03562986 -0.0078817345 -0.024840783 0.007096801 0.0008298233 0.010882132 -0.043418486 -0.026140613 -0.007998429 -0.00986534 -0.023557412 0.010024706 -0.026899282 0.023267586 0.024470557 0.017530296 0.00044989586 -0.0009665423 -0.034935128 0.022715416 -0.037760373 -0.025933199 -0.0031626746 -0.0033113845 -0.034241073 -0.022437433 -0.0004236065 0.04367737 0.03762989 -0.030370234 0.0038327537 -0.0020552697 -0.04532846 0.0046396814 0.022988174 0.03608657 -0.023840185 -0.044095855 0.003872942 -0.009423349 -0.043743964 -0.025586272 -0.011098411 -0.03972401 -0.026883515 -0.027508948 -0.024370667 -0.027849799 0.024720322 -0.012409916 0.0033365227 -0.04231733 -0.025356391 0.010999665 -0.01234008 0.04199857 -0.009854451 -0.02596893 0.012678925 0.007583118 -0.013341032 -0.015512223 -0.0069195568 -0.023837613 -0.011270751 -0.032671154 0.027675902 -0.022637283 0.042116765 -0.023699716 0.0031020073 0.001855135 0.008624967 0.009612463 -0.020136641 0.025390226 -0.035563473 -0.0016042208 0.015729792 -0.0050693825 -0.039388116 0.019110847 -0.010479324 0.031032832 0.019009273 0.0072617494 -0.010437926 -0.0056104995 0.037052687 0.04325724 -0.03454697 0.032828245 0.01334412 -0.028950991 0.040522482 -0.027068982 -0.019031582 0.018662985 -0.015466303 0.008355669 0.0397948 0.029238254 -0.02432634 -0.013028001 0.044187266 -0.013280366 -0.014646182 0.0064790016 -0.0039390586 -0.015904808 -0.008617967 -0.007084079 0.025779035 0.002104096 -0.026942726 0.039962973 -0.025335414 -0.042989045 -0.029264119 -0.041485168 -0.019599812 0.034827396 0.025774214 -0.0030559648 0.041146975 -0.015448421 0.02504861 0.023881275 -0.0073009245 -0.03158084 -0.0053636357 0.010495562 0.008919712 -0.04065709 0.008749145 -0.02519152 -1.3958322e-05 0.03367772 0.041855574 -0.026952151 0.041653406 0.00029652938 -0.014140427 0.00549978 -0.009861894 0.017863404 -0.038211465 -0.02472658 0.032816835 -0.009373765 -0.013786292 -0.032128114 -0.019563101 0.023463186 -0.034301534 0.03073771 0.017175034 0.029173197 0.010113917 0.04320753 0.02143884 -0.021100575 0.0023789033 0.02110565 0.027859394 -0.0214908 0.038567502 -0.008036178 0.02228072 0.02294492 0.004464368 0.022940855 0.020203989 0.018210698 -0.026613375 -0.016536372 0.008105826 0.016314955 -0.0033125058 0.03808656 -0.03195923 0.01846138 0.03172158 -0.019912573 -0.0077333525 0.036425944 -0.00011372691 0.024332497 -0.020502623 -0.00089901686 0.01931544 -0.03144339 -0.017194135 -0.04605055 -0.0052971914 -0.027135747 -0.0016403496 -0.024026522 0.023668487 -0.007241741 -0.0066125765 0.040524017 0.010838851 -0.04141066 0.002271168 -0.027792979 0.030084718 0.019487377 0.0431501 -0.011919769 -0.008097425 0.024600763 0.014021836 0.0038953386 0.028616901 0.0067585595 -0.022461256 -0.023888744 0.030818332 -0.021904308 0.028414859 -0.0126618 0.021489616 0.042914312 0.033524293 -0.035048444 0.027663942 0.035168957 0.015755452 0.038551737 -0.019887164 0.009115867 -0.0313918 0.0060919635 -0.0069351755 0.01817536 -0.0043811053 -0.0436185 0.008423828 0.03333286 -0.038153704 0.033122245 0.0053117475 -0.04368937 0.009250372 0.01022372 
0.00948159 0.0077842027 -0.016502324 0.03802463 0.018475208 0.010814895 0.014002904 0.011757918 0.004089866 -0.024284039 0.037848648 -0.031358186 0.013477866 0.014377974 -0.019637944 -0.03401709 -0.013914539 0.022404592 -0.0047488697 -0.0063381605 0.024840716 -0.028376177 0.016250137 -0.022523366 0.014814585 -0.004833944 0.009769008 0.032238748 -0.010962997 0.021440107 -0.039405935 -0.00017966703 -0.030762516 0.0016323626 0.03853913 0.037946012 0.03216822 0.033043336 -0.00197516 -0.033709828 -0.03789905 0.037221033 0.020413902 -0.028781766 0.0044084005 -0.036327597 -0.0046292692 -0.015106441 -0.029312838 -0.01753095 0.023322832 0.042475898 0.040950518 -0.0357163 0.01003186 0.008044954 0.009699948 -0.040263627 -0.04301787 -0.021111783 -0.020962678 -0.008436386 -0.03940056 -0.044090103 -0.03606938 0.020870622 -0.030957293 -0.035671897 0.026176762 -0.021391153 0.036418643 0.04134209 -0.028505974 -0.0032065958 -0.03282306 -0.005265806 -0.029739384 -0.022549212 0.013702679 -0.0013589524 0.015427917 0.017602235 0.018343855 -0.02620517 -0.027066858 0.009435467 0.027486648 0.00073568895 -0.015830483 0.010197882 -0.011534713 0.027162228 0.041012164 -0.024908924 0.022699285 -0.014538888 -0.040231828 -0.027086278 0.042742994 0.007855207 0.015762169 -0.017415883 -0.0011169426 0.021499578 0.003681723 0.025219169 0.020822499 -0.007603001 0.039616536 -0.032523315 -0.038482632 -0.029945426 -0.0061808787 0.031561058 -0.009839177 0.012015719 -0.0011016019 0.0355382 -0.0062638856 0.025143165 -0.02529293 -0.008427225 0.0043537584 -0.0066875294 -0.026967322 -0.0076686926 0.03693262 -0.025339708 0.013121985 -0.017311502 0.038117174 0.032413308 0.0034403317 0.029688131 0.021324087 0.021464106 0.028865594 -0.017407766 0.04278994 0.0071547446 0.0014416426 0.021241281 0.03984039 -0.037771612 -0.042469896 0.024674159 -0.0038540661 -0.016109068 -0.02371573 0.04213414 -0.025705563 -0.024391655 -0.021991456 0.02610949 0.004970137 0.012237262 0.003772147 -0.028926205 0.0073672794 0.00023882464 0.0264945 -0.042991843 0.028398056 0.023165185 0.04358658 -0.006868344 -0.027420344 0.034521636 -0.014644248 -0.00035675243 -0.0059055574 -0.029741136 -0.0339757 0.026365165 0.026910122 -0.012246974 -0.016034147 -0.016569754 0.0071955584 0.0032551587 0.013982717 0.031503897 -0.040875588 0.029402267 0.03692353 -0.015324177 -0.0017514005 0.024396215 0.03297637 0.022984717 -0.042786263 -0.011633705 -0.013587732 0.017984428 0.04190917 -0.041169416 0.04148614 0.043064956 0.026716348 -0.0018707886 0.03992175 0.005122438 -0.023660334 -0.007824905 -0.0053304285 -0.018194078 0.0025794618 0.021106329 -0.0066255964 0.033926588 -0.04014514 -0.028136523 0.039685998 -0.03675733 0.042368647 0.021083724 -0.0006625131 0.0020330586 -0.023197124 -0.03354875 -0.04201969 -0.019956432 -0.038468797 -0.0077712312 -0.018209726 -0.038680024 -0.03800852 -0.03313169 0.04070257 0.04228277 -0.027155172 0.019542668 -0.022350442 -0.018120432 0.020154867 -0.041309547 -0.027536917 0.029755924 -0.006271694 -0.002654057 -0.013749318 -0.025996301 0.027555164 0.011780597 0.043577287 0.022836048 -0.030741457 0.017196763 0.0111428425 -0.041121848 -0.03222869 3.2782555e-06 -0.043437522 0.025749657 -0.008294068 -0.019356145 -0.04296135 0.040851947 -0.007919908 0.03944874 -0.001910273 0.022402633 0.03781007 0.043274935 -0.006772317 0.0058108084 -0.0038060956 -0.003561519 0.0011945665 -0.0022055358 -0.02312402 0.040637646 0.0020594336 0.039290432 0.029560696 -0.041204654 -0.029159438 -0.04476834 -0.009581331 -0.02280795 0.041505042 -0.010382555 0.035006348 -0.027082963 -0.03427892 0.024240699 0.028388556 -0.034500908 -0.036411595 -0.042526584 0.040960934 -0.03933891 -0.037310787 -0.04346206 -0.034030296 0.0007601604 0.01652227 -0.034695912 -0.03953604 -0.025372202 0.011113424 -0.01310895 -0.028856214 0.027162593 -0.031521708 0.0012932383 -0.025376765 -0.016081609 -0.030274836 -0.026510388 0.012964282 0.041294727 6.881356e-05 0.00051509216 -0.0110170245 0.0070568733 0.031502638 0.015831072 -0.01999093 0.0070796125 0.0256824 0.0010900386 0.025219139 0.004249025 -0.043866467 0.025073465 -0.017897312 0.02333923 0.020357195 -0.022654379 0.00039656088 -0.02092258 0.003419511 0.011706554 0.0099818595 -0.016855199 -0.026015125 0.0026449189 0.035647165 -0.0357995 0.02507567 0.026876416 0.036480945 0.009964932 -0.03968758 -0.013216488 -0.027515875 0.011883952 0.0015332513 0.0032478422 -0.029117228 0.017269854 0.009283964 -0.0030284673 0.03476711 -0.016970756 -0.021468204 0.019767042 0.015297499 4.030764e-05 0.01618855 -0.015428891 0.0006969869 -0.009033401 -0.004329808 0.025677845 0.03429472 -0.009684004 -0.0198108 -0.035642885 -0.01883325 -0.02085442 -0.018924372 -0.02294182 -0.03519129 -0.028277554 0.012842294 -0.02828584 -0.021105144 0.013237283 0.0268262 -0.02277752 -0.03408605 0.0372882 0.018364813 0.017131407 0.036180783 0.0128576495 -0.018888917 -0.029604062 0.002273459 -0.01558112 0.023969952 0.032820646 0.005273599 0.0399863 0.023066763 -0.007926721 -0.005948495 -0.04232921 -0.03037413 0.029035348 0.030813213 -0.022965942 0.02358314 0.009997908 -0.021258602 -0.023576178 -0.03889685 0.03430355 0.020791579 0.02543484 0.034265038 -0.010850273 0.013510473 -0.027397795 -0.042519804 0.033194434 0.024372127 -0.027182372 -0.014172636 0.032607343 0.0035716593 -0.0347307 0.026312243 -0.012053419 0.027440187 0.016757797 0.008194592 0.027735716 0.02828532 -0.020021923 -0.036590807 0.025634337 0.041863684 -0.025970707 -0.014209114 0.025410522 -0.03173576 0.035220873 0.034175184 0.0058286563 -0.036857683 0.01683345 -0.034476936 -0.021595675 0.023993704 -0.038016092 -0.039122805 -0.013386561 -0.022278238 0.032561917 -0.0028955042 -0.034628764 0.036941264 0.010992829 0.0323481 -0.03988077 -0.036120765 0.00029285252 0.0016954131 -0.04361379 -0.028989945 0.025415417 -0.039235737 0.04281934 0.016915094 -0.032845557 0.021095712 0.010777019 -0.03261835 -0.0026331283 -0.02014801 0.002804 -0.01838659 0.033221234 0.013480168 -0.0019910224 0.006275777 0.027252693 0.028726052 -0.036516715 0.020506669 -0.012436517 0.02601603 -0.012972955 0.03486431 0.00014237314 -0.03771553 0.03815807 0.013948604 0.034745794 -0.02155344 0.011278823 0.034904215 -0.027029406 -0.0234592 -0.0034925938 -0.014501644 0.010257464 -0.0018734448 -0.041271433 0.013782397 0.0025811978 -0.013655985 -0.043053243 0.01720665 0.007213939 -0.019016942 -0.019849528 -0.04916591 -0.003398288 
-0.029482607 -0.011345178 0.03950579 -0.038717 -0.025942175 -0.032901216 0.026650853 -0.0347666 -0.013998559 -0.036336247 -0.026747491 -0.034389526 0.027396142 -0.03109791 -0.017115677 -0.015130008 0.037700336 -0.008527091 -0.022374012 -0.041454334 0.032640096 -0.0042030104 -0.031983316 0.009169679 -0.017570186 -0.03229051 -0.03323382 -0.027326003 -0.026818227 0.029831775 -0.04236301 0.02212349 -0.009700118 0.010595977 0.04339594 -0.01552145 0.0032891072 0.0016302243 0.0052662664 -0.031082015 0.04334115 0.03074091 -0.014593309 -0.031818315 -0.028013002 -0.0063156015 -0.034117937 0.017115712 -0.04322663 0.026877057 0.002517093 0.01893001 -0.013762236 0.03970064 0.015341915 -0.029554266 0.0057272264 0.039196845 0.030788865 -0.009216629 -0.043072022 -0.010723645 0.028870326 -0.039553285 -0.025007445 -0.03580463 0.01290599 0.03437229 0.027888123 0.0035713022 0.041944984 0.019866735 0.01749751 -0.011816733 -0.032912474 0.021547455 0.00092752976 -0.041323353 -0.010454576 -0.020709949 0.029115256 0.009080827 -0.03189235 -0.0045273863 0.024854172 -0.01820977 0.0019214519 -0.038776908 -0.017081711 0.024090335 0.013241254 0.0028228534 -0.019887747 -0.040416256 -0.013640912 0.019958552 -0.018015314 -0.015863115 -0.0007384387 0.023139764 0.005395714 0.022069696 0.025105607 -0.004496306 0.010369071 6.771833e-05 -0.009617237 0.012954446 -0.030834189 -0.038644314 -0.032881517 -0.0030867457 -0.0056597493 0.022419538 0.042682815 0.0048393942 -0.016889112 -0.03865821 0.0025074594 -0.019705022 0.027808499 -0.014315071 0.030527309 -0.014341481 -0.0144530125 -0.025593584 -0.0146245565 -0.031953335 -0.032035127 -0.02908156 0.013678037 0.025312975 -0.007072769 -0.009929648 0.00710577 0.014638178 -0.013002256 -0.03771754 0.024252914 -0.0416348 -0.014274621 -0.038371038 -0.017294595 0.016158376 0.040803704 -0.042095594 -0.01976631 -0.03640719 -0.03165137 -0.012753416 -0.025426243 0.023509748 0.00278718 -0.0041118506 0.028085161 -0.03821318 -0.02200881 0.035583157 -0.041498255 0.041371968 -0.013319189 -0.008881963 0.031647626 0.0044789575 -0.009980369 -0.031736214 -0.041465484 0.029596593 -0.039503444 -0.008267205 0.033774804 0.04256325 0.0009130426 0.022738595 -0.014106587 0.006409414 -0.0049212365 0.033789422 -0.018286925 0.02096377 0.02041367 -0.0123662455 -0.032821532 0.026863482 -0.044198137 0.007401336 -0.009443985 -0.04285854 -0.0036245885 -0.030150283 -0.009032097 0.0016020531 -0.041588236 -0.03716783 -0.009817878 0.012212718 0.030946596 0.027143218 -0.0009547253 -0.005894193 -0.039469726 0.025717463 0.043418627 0.012450838 0.0037824549 -0.020447962 0.023956195 0.02395828 0.0042890594 0.041941438 -0.018626075 -0.039787762 -0.0040466227 -0.017991578 -0.031680357 0.02181311 0.036806192 -0.007281394 -0.023656676 0.029040862 0.042319227 0.037714045 -0.040886585 0.011828945 0.034782123 0.014066779 0.03599837 0.019532748 -0.039040543 0.01090068 -0.0366842 -0.0330624 0.028823115 -0.018683637 -0.024029665 0.02948175 -0.026385102 -0.021213602 0.025220755 -0.037693903 0.042769406 -0.023474403 -0.014292344 0.015860919 -0.04189325 -0.0066147237 -0.027258595 -0.026883356 0.008483348 0.038651768 -0.011145676 0.041203413 -0.0053180046 0.029003594 -0.02974037 0.0151894335 0.012372883 0.02423843 0.042899866 0.00853144 -0.035159923 0.004225644 -0.02073032 -0.0050252676 -0.024226211 -0.019911027 -0.040143088 0.03387971 0.0034745112 -0.015097823 0.022357296 -0.03645451 -0.013458907 0.005112171 -0.036205843 -0.016559197 -0.009333952 -0.015093628 0.0026347525 0.004106179 0.013040207 0.012829259 0.002681002 -0.044780012 0.018243767 -0.025855025 0.04200064 -0.017354492 -0.006645009 -0.00773206 0.043321017 0.02905086 -0.0065196767 -0.012697475 0.03324305 0.03782053 0.037189927 -0.0148143 -0.013329355 -0.03372679 0.013785159 0.03715835 -0.0041228905 0.00619218 -0.024717143 0.017016273 0.013289433 -0.022168178 0.009172505 0.027937379 0.016002685 0.009236362 -0.041820273 0.038407836 0.0013813265 -0.034463465 -0.024023501 -0.030834323 -0.0007783068 0.031803902 -0.010720434 -0.04375597 0.009134527 0.010236984 -0.04106047 -0.004261693 0.020457279 0.0080483975 -0.012221532 0.043354753 -0.015348237 0.014796475 0.02807863 0.028537333 -0.02978522 -0.03830666 -0.0107120965 0.026028525 0.0014073844 -0.0059240125 -0.013608653 -0.010673851 -0.00053697126 -0.01738659 0.010192715 0.04412486 -0.021550076 0.043704946 -0.012887415 -0.021041038 -0.0064141206 -0.015907312 -0.00023897755 0.025139615 0.034624185 -0.029743945 0.032224614 -0.0077110454 0.007362588 0.04205611 0.025607754 -0.0053985566 0.014884796 -0.026299035 -0.031003878 0.009192245 0.015626274 0.024162613 0.0045660646 -0.005323989 0.004733684 0.023882609 0.030641776 -0.022336202 0.004312277 0.040143166 -0.027276542 0.02988733 0.014629699 0.03192221 0.027786028 0.03892399 -0.024855886 -0.018205488 0.021088675 0.02158482 0.018839613 0.020003341 -0.04018771 -0.043466203 0.02683672 -0.0059531457 0.014654612 0.028188538 -0.042070106 -0.030479394 -0.02890276 0.0034263954 0.03404407 -0.01779163 -0.017942637 0.031349536 -0.043841414 0.03881072 -0.019168163 -0.015858237 -0.0035332553 0.028416533 0.042939868 -0.0025239736 0.0073125274 0.017960273 0.029218681 0.021336008 -0.041676622 -0.03115603 -0.013284111 0.037085798 -0.034235105 0.03095278 -0.028190978 0.02602518 -0.01306566 -0.013691224 0.031355765 0.00013069797 -0.019197594 0.012670824 -0.0031404085 -0.029220212 0.010415211 -0.013696519 0.033903453 0.022414785 0.004282734 -0.017219672 -0.030649964 0.030613057 -0.024172334 -0.030410945 0.04350226 0.034379918 -0.008637261 -0.040194016 0.007993314 0.024814695 0.016401656 0.010093084 0.024380714 0.008398723 0.008370943 -0.013767837 0.008651421 0.03446908 0.0055982047 -0.027141016 0.041460384 0.037261594 -0.03758279 -0.0007117612 0.030558985 0.039617937 0.028128073 0.017168783 0.001290258 0.013566855 0.01671081 -0.03338579 0.018715244 -0.0030860044 -0.022819879 0.038151536 -0.03167791 0.043571156 -0.0031863116 -0.03850863 -0.019398011 0.017543733 -0.042605776 0.007125631 0.040596258 -0.016506294 0.023418069 -0.0014472082 0.030340355 0.005939773 0.00395955 0.036813978 0.03204396 0.018829722 -0.0214258 0.006853948 0.005978296 0.024042364 0.040066984 0.024181038 0.003880009 0.017098602 -0.028205339 0.02385014 -0.031748034 -0.030984303 -0.003733389 0.020292364 -0.04313879 -0.017365396 -0.02134649 0.029989857 0.039309915 0.025579877 -0.038310807 -0.003992602 
-0.018046727 0.007947668 -0.028362678 0.022170376 0.02642015 -0.0029335977 0.03274964 0.042396244 0.010201436 -0.026095295 0.039093155 0.000101584104 0.019430425 0.020204443 -0.01420187 0.0020492412 0.001393158 -0.012455061 0.0046587326 -0.03891023 -0.004335627 0.026646521 -9.2753005e-05 -7.281825e-05 0.04128206 0.012100544 0.03442591 -0.014286343 -0.021362197 -0.012781486 -0.040035136 -0.013999065 -0.0036820956 0.029532332 0.040183697 0.024050351 -0.006951142 0.040846583 0.000704556 0.0038799718 -0.041404095 -0.0033929534 0.038746957 -0.033162564 0.02021848 0.025940763 -0.029725019 -0.04047089 0.033404004 0.009706445 -0.042283904 -0.015013756 0.039282177 -0.01209376 0.031882886 -0.042515744 0.04313093 -0.00036204234 0.023023035 0.01590786 0.033159036 -0.026406433 0.027304273 0.020354632 0.019617531 -0.04144244 -0.026011977 -0.009836894 -0.00028050318 -0.0105526745 0.0022520616 0.020551108 0.013104446 -0.03460715 0.038279656 -0.024126584 -0.022519017 0.042928863 0.02285188 -0.0116040185 0.022513669 0.026031535 0.009377283 0.007340235 0.030045088 0.021203075 -0.039805505 0.040530857 0.022863518 0.017005509 0.03185161 -0.016091445 -0.013946298 0.038053755 -0.006335363 -0.004195504 0.0006364845 -0.010036502 0.018430892 0.02690899 0.035991523 0.03526317 0.040757116 0.0062265284 0.02252047 -0.0038145408 0.009373768 0.00821752 -0.035108704 -0.0052201315 -0.020046758 0.021114182 0.021978427 0.044149313 0.009911817 -0.034763888 -0.007705543 0.016043467 0.0031188019 0.014063023 0.043069955 -0.036387853 -0.030530613 -0.009700198 -0.039316434 0.0009948462 -0.013157314 -0.0021996908 -0.027104696 -0.01772824 -0.036585987 -0.019980103 0.037892114 -0.034281664 -0.01613603 -0.0034284256 0.037812475 -0.035254516 0.015051592 -0.045103595 -0.024187792 -0.02534563 -0.00019098818 -0.0050567267 0.021140534 0.025201712 0.023229364 -0.03581655 -0.041358903 0.0066124387 -0.011184823 -0.030008335 0.036311943 -0.0067125545 -0.034007818 0.01313176 0.04105557 -0.03177174 0.0056404658 0.020206373 0.01889963 0.04403973 -0.034737486 0.023247864 -0.036977895 -0.03676825 0.040810827 -0.03844841 0.007973626 0.0088493265 0.018548395 -0.004042338 0.03238156 -0.012149315 -0.01795227 0.017517041 0.010261023 0.022880834 -0.030480118 0.0114568025 0.028273862 -0.002479442 -0.0062342994 -0.02521315 -0.040965844 -0.024868816 -0.0063180733 0.03399724 -0.014826274 0.0023928657 -0.027031709 -0.03706951 0.024944518 -0.032405335 0.0060473406 0.0054692696 -0.03282691 -0.030832943 -0.040777635 0.015610806 -0.025542354 -0.0085847005 0.032583054 0.041864898 0.0015428588 -0.044056363 -0.022515044 0.014556635 0.00930338 0.04101598 0.0044926736 0.027175887 0.021007147 -0.017563313 -0.0025265971 0.025061417 -0.025370205 -0.027891083 -0.021854242 0.0015903115 0.03586084 0.03598002 0.031789716 0.027229173 -0.02035336 0.012559078 -0.029177696 -0.01583456 -0.011971289 -0.029004 0.030301716 -0.03810353 0.004524395 -0.008390733 -0.025654422 -0.022859601 -0.02755032 -0.019230131 0.011218473 0.026012342 -0.038708866 -0.0048435777 0.034771483 0.04042187 -0.0400998 -0.003070629 -0.009140592 0.011504568 0.0048988103 0.033044476 0.0012518188 -0.024228694 -0.027010566 -0.03799107 0.015547205 0.028913643 -0.0021393655 -0.016634576 -0.027117029 -0.009783495 0.030611621 0.03072523 0.019212302 -0.03477194 -0.02397184 0.0126631195 -0.0097145215 0.0032153502 -0.038767613 -0.033457164 0.007745918 -0.034797538 -0.018483268 -0.022993723 -0.0074192514 -0.003003586 0.009387762 -0.040706996 0.010935746 -0.0081805065 0.01043918 0.0029825754 0.014346808 0.03166392 0.024502467 0.0042558834 0.021489654 0.016515154 -0.009023134 -0.0035125166 -0.012447346 -0.0219396 0.01230468 -0.0047426596 -0.038264833 -0.030654155 -0.010932744 -0.0060249073 0.012793936 0.008388757 -0.01198797 -0.03724167 -0.023767656 -0.019190313 -0.011808718 0.007165458 0.042957973 0.0132476725 -0.022710223 0.042896453 0.020755421 0.043036517 0.018604312 -0.012679178 0.0060239173 -0.007549145 0.023964453 -0.025623655 0.007567052 0.024554519 -0.041532114 0.012427915 0.04229219 -0.03216831 -0.042278025 0.021585727 -0.033166535 -0.016594732 0.017788108 0.0046572224 -0.023535077 0.004006084 -0.024663918 -0.026666593 -0.010288119 0.0010804896 0.038023464 -0.043697808 0.028242836 0.02908073 -0.037403375 -0.012412932 -0.015309017 -0.0064098043 -0.035809796 -0.025667135 -0.014548038 0.039353263 -0.014590934 0.011897847 -0.0035889226 0.03970932 -0.01585605 -0.035582095 -0.010264549 -0.022666322 -0.00074103475 -0.039928976 -0.037919626 -0.010175809 -0.031845484 -0.031775914 0.036973115 -0.017701697 -0.03800611 -0.013053771 0.018340208 0.008730025 0.03297691 -0.001579579 -0.0145177 0.03610244 -0.0054917783 0.024920547 -0.030099435 0.03406397 -0.021419315 -0.006118048 0.0013437271 0.013456289 0.030040074 -0.039587058 -0.024789631 -0.016826207 -0.005879733 -0.020817198 -0.040054906 -0.005251063 0.011852609 0.03926784 0.03394721 0.014362691 -0.037623372 0.0068731494 0.0120044425 -0.03395173 0.01190529 0.022088032 0.022575993 -0.01685123 -0.02931959 -0.018068139 -0.011936478 -0.0071138022 0.032606043 -0.041742526 -0.019518074 -0.028389342 -0.02937642 -0.02572388 0.007298942 0.030303344 0.02207317 0.02366599 0.011249262 -0.0062357895 0.009536542 -0.015145613 0.017357204 0.015626738 0.041016188 -0.008414365 -0.036016036 0.01893587 -0.006873804 -0.019372815 -0.041392267 0.03232752 0.014633711 -0.03334669 -0.044069428 0.024817785 -0.04145367 0.041088212 0.032047715 0.022294162 0.021638611 0.017444607 -0.03423755 0.00538421 -0.028460506 -0.025355881 0.0039201677 -0.026518682 0.0011383556 0.04231846 -0.010059174 -0.01037097 0.03089762 -0.006025493 -0.041687235 -0.022785319 0.0043049804 0.039560314 -0.021196852 0.036273386 -0.03930861 -0.01126454 0.030848557 -0.044572618 -0.022976492 0.007211541 0.0096367225 -0.023483198 -0.017359449 -0.009401511 0.0030345302 0.029397931 0.03342629 0.04230163 0.028618444 -0.027765805 -0.02773897 -0.0137164015 -0.04256825 -0.016463032 0.0030857883 -0.033959124 0.035593364 0.005843159 -0.035856925 -0.03352192 0.034674432 0.041782755 0.005750507 -0.040703427 -0.040943254 -0.015557492 0.030359762 -0.043628342 0.042782195 0.037529908 -0.013064689 0.01259942 -0.022567999 -0.030953813 -0.032981187 -0.034216855 0.008528784 -0.030322477 -0.02449961 -0.029920632 0.011815637 0.0013562747 0.008054003 0.03409831 -0.012835745 -0.040270995 0.0034129098 -0.043173037 -0.049382884 0.0023194365 
-0.017593421 0.00829364 0.029596228 0.004499104 0.030037764 -0.000644695 0.035436165 -0.023263806 -0.009627305 0.02945279 -0.02530226 -0.009852704 -0.017409636 0.0057084784 0.03376918 -0.039414104 -0.03775853 0.0287834 0.030957472 0.030714747 0.03967986 -0.0064057 -0.013082603 0.027360108 0.010534793 0.035156775 0.015768439 0.029384796 -0.024438897 -0.016380247 -0.03900508 0.020943161 0.015559632 -0.02493337 0.009496976 0.0026785992 0.011419866 -0.024414679 -0.010371249 -0.015568882 -0.0047743693 0.014589079 0.00064394996 -0.03849356 -0.0067078024 -0.02972211 -0.030229652 0.0042353906 0.006164413 -0.02635032 -0.025505064 -0.026961029 -0.0391395 0.014579155 0.011415631 0.020847071 0.02378871 0.007938083 0.027817551 0.039330956 0.04222409 0.03746267 0.008741371 -0.021494623 -0.042517357 0.013727229 -0.020404853 -0.034816194 0.043045867 -0.030603707 -0.038702965 -0.035322465 0.03177483 -0.008746773 -0.026432259 -0.021970546 0.014725201 -0.018507855 0.023038175 0.021831889 0.023826834 -0.037275176 -0.030955495 -0.0036753826 0.03564043 -0.012529656 0.015475996 -0.010430556 -0.026916457 -0.037663683 0.012508184 0.027845029 0.043484803 0.0034228452 -0.03663797 -0.02720502 -0.007268671 -0.007580638 -0.007384587 0.030634854 0.0034014918 0.0066277757 -0.022740463 -0.02677047 0.029947255 -0.026485564 -0.04088885 0.019997645 0.008517023 0.0024846606 0.036893103 0.035406206 0.015807778 -0.02708338 0.024038542 -0.016445795 -0.018644933 0.027185906 0.03764258 -0.008741692 -0.002159983 -0.0043645054 -0.04152564 -0.026158758 -0.032264728 -0.0071102716 0.004483599 0.0106853545 0.0015337095 0.034301225 -0.03779277 0.013073999 0.01686639 0.02995843 0.01904231 -0.029314123 0.041992392 0.04029351 -0.03634314 0.025782082 0.031019803 -0.014319666 -0.033393223 0.013351791 -0.024529066 0.025750283 -0.009496223 0.021452833 0.031962115 -0.026340174 -0.033828404 -0.033998307 0.031118002 -0.038098518 -0.034705378 -0.038796417 0.00920004 0.015338212 0.027028535 0.017071933 -0.021425344 0.042174693 -0.003710281 -0.023373704 -0.038168687 -0.0047658645 -0.0421262 -0.015611567 -0.030449782 0.016998284 0.03514674 -0.018811734 0.030954417 -0.005900126 -0.024381852 -0.040245276 -0.0017813221 0.02722961 -0.012824081 0.009665694 0.014220487 -0.03843489 -0.02116974 -0.027820038 0.019292388 -0.03777105 0.023657661 -0.02202813 0.042657938 0.01909152 0.007571839 -0.021423865 -0.035573922 -0.012701999 -0.044053078 -0.040184118 0.012251873 -0.03145242 -0.026932294 0.0043450147 0.032619264 0.031176101 0.01619757 -0.016313195 -0.040989317 0.019231144 -0.009970564 0.0077223815 0.030892853 0.017856754 0.02196106 0.032520015 -0.03763981 0.0025529973 -0.0069600604 0.042342585 -0.026878726 -0.018573184 -0.039860606 0.0008950941 -0.024013545 0.005668707 -0.031291228 0.020571854 0.02127627 0.031388644 0.02130552 -0.00046385825 0.031061757 -0.018805914 -0.016883468 0.0014551766 -0.018690953 -0.026868515 0.004005257 0.031757172 0.026129548 0.039733853 0.02638093 -0.010649256 -0.040121116 0.043579895 -0.008918289 0.034240562 0.034727085 0.022238653 -0.026703121 -0.024755077 -0.01975565 0.025825467 -0.0153168645 0.018744487 -0.030963272 0.03261335 0.037587266 0.022515383 -0.034415014 0.03892291 0.018100984 -0.04047045 -0.019302577 0.0019226819 0.018187065 0.029619712 0.024475131 -0.0027950257 0.024314944 -0.0010971762 0.021922048 0.015274804 -0.015068341 0.0042395666 -0.0297337 -0.03511312 -0.006061461 0.0077517256 -0.03683147 0.017010715 -0.0016288981 -0.023274776 -0.026924724 0.0006326623 0.02446552 -0.031540237 0.041223224 0.033359792 -0.017345529 0.03672724 -0.03201386 0.012627922 0.0049304105 -0.011764649 -0.019500218 -0.0313982 0.015995882 -0.035142954 0.03047702 -0.042811304 0.005679842 -0.038002264 -0.040444326 0.038219612 0.030419085 -0.02873737 -0.014525527 0.03807457 0.009701714 0.008099932 -0.030637175 -0.03598672 -0.034933522 0.03521281 0.04194368 -0.03480227 -0.035367265 -0.038425215 0.028271202 0.021299083 0.031857345 -0.0050289184 -0.011636134 -0.024213828 0.000567697 0.02734286 0.028374147 -0.016461642 -0.011616889 -0.03435632 0.038543303 -0.03105171 0.043813657 -0.0016515665 -0.0040916316 -0.0012708344 0.020897005 0.01834846 0.03427423 0.004341174 0.00022573397 0.020167809 0.025927994 0.00704325 0.032357436 0.009240795 0.043885287 -0.005446639 -0.037054755 -0.0040487833 -0.029507851 0.02191377 0.015604932 -0.0111905 -0.0040474944 -0.024098366 0.037031848 0.024360064 -0.019156337 -0.03260696 -0.044072647 -0.02598692 -0.027391715 0.0232923 0.04027782 -5.9146434e-05 0.02096286 0.043052923 -0.029501282 -0.0042709336 0.019392204 -0.03896797 -0.015569868 -0.018635591 -0.02081343 -0.023826018 0.019099671 -0.03320603 0.013202712 0.032003548 0.03981061 0.020910766 -0.03335699 0.03155386 0.004707545 0.02325226 0.0017676912 -0.03256429 0.02623539 -0.04412203 0.027075384 -0.042562257 0.026635636 0.029821869 0.0026499368 -0.028385423 -0.042422008 -0.011218131 -0.03468684 0.0010640621 0.008799329 0.033362906 0.029921118 -0.044110797 0.013198111 -0.03757871 0.033459414 -0.031768803 0.0042755827 0.0035800412 -0.0129199885 0.022890229 -0.026102075 -0.018918987 0.011190735 -0.039330766 -0.016653031 -0.00080204755 -0.034825496 -0.012135815 0.03437135 -0.03661447 0.037110787 -0.008170038 0.031619404 0.009971444 -0.021698589 -0.03964898 -0.023591798 0.024377305 0.027227487 -0.021848304 0.040940862 0.0012796111 -0.0376268 -0.014537295 0.021531504 -0.017612403 -0.002385296 -0.003957778 0.014100291 -0.018368408 -0.0021188185 -0.0072905347 -0.031681348 0.026623365 -0.024730159 -0.02014593 -0.008246504 -0.006081365 0.01628315 -0.022215009 0.019366179 0.032800343 0.02594399 -0.005695205 -0.04335481 0.024102952 0.026205312 -0.0087448545 0.015703712 0.018628221 -0.026326418 0.023383122 -0.0069017895 -0.018404901 0.0030928776 -0.0028097928 -0.033511594 0.0044360235 -0.022400707 -0.012027748 -0.009140048 0.030708987 -0.00041966513 -0.03918244 -0.014712516 -0.0132224355 -0.026437258 0.015201088 0.0078038536 -0.011362094 -0.033472143 0.018201537 -0.029017415 -0.036911458 -0.02177343 0.010115676 -0.031567186 0.009424455 -0.034370206 -0.012218129 -0.023350155 0.043187264 -0.03964873 -0.03445112 0.02963325 0.0014891326 -0.019455522 -0.02246907 0.0077845193 -0.027056463 0.022044096 -0.006916404 -0.008348834 0.007940106 0.013122 0.024692047 0.02783389 0.042026933 -0.0062381923 -0.010779627 -0.012426481 0.04407266 
0.020713001 0.038122524 0.029524248 0.0082396865 -0.036929395 -0.017592534 -0.003550429 -0.006214436 -0.030537497 0.02849942 0.01908208 -0.027345138 -0.041219182 -0.006218195 0.022354428 -0.017188417 0.028740209 0.032842126 0.017350499 0.040246505 0.0331775 0.007369239 -0.0017656252 0.02273639 0.0072033727 0.022648986 0.019164491 0.007821128 0.033677887 -0.02113494 0.029730331 -0.030191347 -0.02910276 -0.024844319 -0.014576893 -0.038174123 0.032728646 -0.0054121204 0.037403207 0.019273628 -0.021113878 0.033792917 -0.017756013 0.029515533 0.042381156 -0.02775374 -0.017050238 0.021474827 0.039523948 0.018421162 0.02537087 -0.034091927 -0.009464074 -0.03342899 -0.039843466 0.012082439 0.03993863 0.02488986 -0.040293626 -0.013360847 -0.013139648 -0.007834972 0.0065514483 0.010018952 -0.010623412 -0.028785136 0.0046616336 -0.02972911 -0.03756842 0.029565414 0.0012314371 0.027729224 -0.023481399 0.010581486 0.038520698 -0.023012843 -0.023444815 0.004909165 0.011964772 0.005443435 0.043474365 -0.00633011 0.022945972 -0.034066774 -0.015769053 -0.042058766 -0.03323687 -0.019601598 -0.015841756 -0.041978944 0.024181131 0.03255559 0.0008044489 -0.019863674 -0.020357376 0.015058052 -0.02710787 0.03785832 -0.017290426 0.0009841956 -0.021598663 0.0022144914 0.021193076 -0.021959689 -0.0014356688 0.038661156 -0.022661656 0.0016194122 -0.023952365 0.026023617 0.03205328 0.027461644 0.0054248334 0.00013466552 -0.024009677 -0.032264464 0.024617564 0.025331073 -0.039583787 -0.018929144 0.036773022 -0.005569884 -0.0472295 -0.022816507 0.024594696 -0.042256765 0.010097437 0.026135772 -0.03750719 0.021976784 -0.01593379 0.014021276 -0.013359029 0.030741325 -0.013365542 -0.00818624 -0.028351916 -0.022809615 -0.034227226 0.040161733 0.01575483 0.016698427 -0.042864203 0.04303332 -0.03690121 0.035515767 0.028426051 -0.02559714 -0.026720395 0.03443217 -0.039241087 -0.0221138 -0.03696508 0.01878433 -0.0069926046 0.037418664 -0.018783754 -0.0006185062 -0.022376394 0.014332905 0.010942371 -0.034606874 -0.029767262 0.029743101 -0.02029022 0.009531103 0.037181024 -0.01846791 0.01967344 0.03975712 -0.025320841 0.0054388153 -0.0054715574 0.027597722 -0.010279279 0.00060697645 -0.031666093 0.009220406 0.019368747 0.020504665 0.022819813 -0.01384739 0.036930177 -0.023157686 -0.022777999 -0.04039817 0.012012801 0.0363768 -0.015336292 0.035695646 0.0046716183 0.04347587 -0.039369773 0.024922434 -0.03004224 -0.005426813 -0.024768598 -0.014460409 -0.0029430203 -0.038807437 -0.030749165 -0.031419396 -0.01095455 -0.029482374 -0.041289777 0.032459814 -0.038543593 0.0049359933 0.0006955499 0.01360357 -0.0035808007 8.09201e-05 -0.035178356 0.011838075 0.0074417153 -0.019957453 0.044168655 0.01683361 -0.02985716 0.04016843 -0.032370564 0.003196916 -0.042659964 0.0023797827 -0.027234245 -0.043161463 -0.043548938 -0.027154764 0.011709911 -0.038437713 -0.031596463 -0.006431915 -0.013977174 -0.0033768972 0.023498818 0.025682036 0.0055670068 0.039116215 0.021405589 0.03858911 -0.015296197 -0.025271777 0.0011474304 -0.044317953 -0.0014562141 0.03297131 0.0018127412 0.0125889 0.021931252 0.010773076 0.019794513 -0.036277004 -0.01676874 -0.001918383 -0.002642259 -0.039272092 0.0015157636 -0.024805704 0.011289816 0.022228409 -0.03710692 -0.026687667 -0.03359053 0.020534042 -0.016522326 -0.00041540782 0.002114065 -0.03405001 0.028934162 0.0124363825 0.040140186 0.03585359 -0.039733343 0.004977554 0.022677869 0.037434835 -0.005317646 -0.0048886463 -0.03632679 0.021694701 0.0014837645 0.037677605 0.034419637 0.021976154 -0.005889365 -0.03562092 0.042492207 -0.01652922 0.03567109 0.036497716 0.032843318 0.0054338463 -0.02475594 0.02627875 0.026986532 0.02691213 -0.017288541 0.00679833 -0.00804837 -0.0064306394 0.004261074 0.027362842 0.043546323 0.019300655 0.018806314 -0.007593956 0.015494123 0.03426389 0.021892233 0.025006834 -0.015814662 -0.008870572 0.026882775 0.0349898 -0.037651286 -0.028921044 -0.0155949965 -0.024557566 -0.028687688 0.036984555 -0.030945666 0.024549227 -0.01778156 -0.03497243 0.0238338 0.0007584183 0.043912824 -0.0058472822 0.02781161 0.025971808 0.020538762 -0.02189771 -0.033812862 -0.03403489 0.018947285 0.03930383 -0.043436687 0.020706233 0.024711328 0.026302475 -0.03338486 0.011211056 -0.02520037 -0.0199499 -0.037337568 -0.043107618 0.004519624 -0.043768164 0.0065068454 -0.027456451 0.040633842 0.023298074 0.031262435 -0.028161634 0.0052826763 0.029938877 -0.019969385 0.026455428 -0.0037864745 -0.038690154 0.043733727 -0.043049783 -0.012534056 -0.016625918 -0.01741467 0.024807481 -0.013679544 -0.029838199 -0.007922616 0.012034467 -0.017273191 0.038265247 -0.03224584 0.009424056 0.029776264 0.02095592 -0.0036570616 -0.007781215 -0.021298008 0.011094924 0.017995771 -0.00047169253 -0.0341808 0.027957518 0.044083215 0.0026872568 -0.04455325 -0.007385627 0.017511157 0.011726701 -0.030545712 0.006365867 0.013497737 -0.012908995 -0.022546418 -0.015656536 0.041691925 -0.0143274935 -0.00071556866 -0.002989085 0.030435046 -0.041883957 -0.041641403 -0.019234214 0.006095506 -0.043773193 -0.03906909 -0.008094497 0.01650912 0.0007459931 -0.0041693463 0.011794599 0.024558956 -0.034913026 -0.010765833 0.026409324 -0.035648126 0.038934845 0.021260802 -0.032196272 -0.020117506 -0.004352536 0.019352447 0.012436103 0.01655095 0.028702319 -0.0317173 0.037876062 -0.036194544 -0.044699125 -0.03664271 0.031608026 0.005313106 0.03204975 0.03519174 0.020551706 -0.012171182 0.014609718 -0.005652368 0.030099027 0.00835293 -0.03016197 -0.040110685 0.018580819 0.033394713 0.013418972 0.025346015 -0.04049002 0.009924361 0.012733135 0.026971798 -0.011210088 -0.020749552 -0.014381457 -0.006385745 0.0032966807 0.0061091743 -0.015309326 -0.024745764 0.003397923 0.033507545 0.04001503 -0.008787482 0.029375661 -0.04353911 0.00984811 0.017856525 0.032965038 0.028626617 -0.017559245 0.01196773 -0.001185214 0.021407783 -0.026983531 -0.02129989 -0.014771378 0.004875219 -0.030781437 0.021469142 0.032830466 0.037642743 -0.005153836 -0.04063188 0.027619865 -0.024257898 -0.0127377 -0.0094962455 0.028042292 0.02732282 0.040231902 0.0109703615 -0.025862133 0.024315128 -0.019880315 -0.024574978 0.038329605 -0.0059048273 -0.038451537 -0.035671126 -0.007216092 -0.014938012 -0.0065774694 -0.03766306 0.033037584 0.02199116 -0.016455837 0.009823402 -0.027911982 0.0053033214 0.012076645 0.029680382 -0.0011086725 
-0.009358192 0.031465534 -0.036951106 0.021010306 0.012556337 0.0014261956 -0.040454622 0.023904245 0.016686186 -0.026637904 -0.020216221 -0.0035637398 -0.025689403 -0.019754043 0.0018671006 -0.0110409 0.029291872 0.01862432 0.01341847 -0.017149977 -0.0420122 -0.021057935 -0.02201465 0.042614248 -0.004174294 -0.042858887 -0.0053827204 0.0053487048 0.015822178 -0.01896813 0.035244804 -0.030915208 -0.013578871 -0.03251207 0.0016402826 -0.013012981 -0.018194212 0.023060586 0.02134221 -0.011728052 0.027931653 -0.026608841 0.042077947 0.03732423 -0.026718441 0.012174801 0.0112080015 -0.0022335353 0.040046263 0.02154981 0.030057449 0.033376638 -0.042133924 -0.028113766 -0.018314475 -0.023064699 -0.028142175 -0.0262669 -0.017892437 -0.03880876 0.0016620941 -0.02911816 0.016357314 0.03896441 0.005090362 -0.018485384 -0.006039304 -0.04614526 -0.0345098 -0.02853102 -0.02683313 -0.017015677 0.031091157 -0.021493142 -0.00065918267 -0.01978355 -0.04176152 -0.032775663 -0.032359917 -0.023382787 -0.031568468 -0.013936497 0.017078815 -0.0014157373 -0.0052450225 0.0035154037 -0.001185682 0.038569015 -0.023465715 -0.032324363 -0.033926286 0.03463253 -0.013152262 0.03315969 -0.010908678 0.03583594 0.019912519 0.0061327405 0.03431234 0.013082255 0.027900267 0.032361377 -0.037515774 0.031662274 0.02447243 -0.0137515105 -0.0061740745 -0.008541578 0.03525191 0.021057455 0.03392302 0.039822105 0.034493487 0.022016708 0.01996746 -0.022752265 0.01934516 0.0020763387 0.030061658 0.018962141 -0.02660515 0.007057304 -0.04816373 0.0022610836 -0.00965102 0.032632884 -0.039831378 0.0078086387 -0.029119084 0.03215378 -0.020801365 0.03674623 0.04282168 0.0023299318 0.021875769 0.035982218 0.008549161 0.040704507 0.038198296 -0.0033497133 -0.028494425 0.012834441 -0.042679764 -0.056387935 0.031521123 -0.012450254 0.034267318 0.010100719 -0.012319993 0.042716946 -0.016956143 0.033031914 -0.040908452 -0.00707904 0.013425767 -0.022372589 -8.549541e-06 -0.04043256 0.03131487 -0.042685658 0.017052008 -0.021560408 -0.0045006922 0.013528157 -0.022489969 0.03927097 0.021711178 0.03707144 0.019463364 0.016605332 0.022768069 -0.00025832333 -0.011656191 0.020809595 -0.022605749 0.008801386 -0.014373139 0.035226878 0.014098461 0.034931395 -0.0069016553 -0.0063174427 -0.028990425 0.0028638244 -0.044603482 -0.0069510266 0.028129455 0.021951612 -0.03578327 -0.039025053 0.0313596 0.019598015 0.011257736 0.043510165 0.0060196193 -0.02136059 0.0006846705 0.0033745281 0.018673196 0.00060088886 0.020119179 -0.019139726 -0.011816857 0.018743522 0.03146756 0.028266765 0.03350452 0.025009833 0.004143963 0.016131008 0.007354545 -0.029527789 0.0028663948 0.016185876 0.024536587 -0.02389728 -0.013145428 0.034270983 0.016147502 -0.040998556 -0.04403336 0.022687957 -0.027670367 0.040172637 0.023810219 -0.010063803 0.039921086 0.033423927 0.00193363 0.029892076 0.008842297 -0.037987918 -0.009788106 -0.0013331625 0.009750669 -0.0107895285 0.00083785877 -0.018493345 -0.008837655 -0.033762403 -0.037645664 0.025475752 0.04080311 -0.02644264 -0.0011854548 -0.010774864 -0.037581287 -0.038494617 -0.03364857 0.027158622 0.00792992 0.03315144 -0.039546035 -0.018174075 -0.02767059 0.022506721 -0.022748537 -0.007179217 0.04327177 -0.025229525 0.025625885 -0.0007284512 0.01345134 0.00071780384 -0.027042659 -0.007027363 0.037758153 -0.026299333 0.03755224 -0.041733947 0.026288975 -0.02110965 -0.011591727 0.008231647 0.01659891 0.013661206 -0.009184315 -0.017537996 -0.013212288 -0.02096549 0.036725875 -0.041839622 0.008406632 0.03423878 -0.026933677 -0.03580527 0.042196516 0.042000193 -0.033141896 0.015281279 0.009100078 -0.037934728 -0.030101314 0.007880998 -0.01762231 0.011237008 -0.018343167 0.0076419646 -0.02047333 0.029216086 0.021845944 0.023454253 -0.0249166 0.0052367635 -0.034019165 -0.019988533 -0.0064279363 0.038459044 0.008260735 -0.0065126903 -0.013545765 -0.04022402 -0.035020545 -0.01819536 -0.012176581 -0.0020852312 -0.03769731 -0.025222449 0.00054141827 -0.03552043 -0.022285191 0.039065104 -0.023120249 0.0015397363 0.012447167 0.018044025 -0.03419917 0.03279036 -0.019817526 -0.041060116 0.008713456 0.0093283625 -0.020689636 -0.0040152553 -0.007532552 0.014617103 -0.02091859 -0.025723828 -0.006551092 0.033585045 0.01540748 -0.011707529 -0.03012548 0.023780985 -0.006823607 0.011213418 -0.039561428 -0.0028664805 -0.02932617 0.0060575455 0.011541152 -0.024066783 0.042962577 0.03594778 0.019760102 -0.008318318 0.035032857 -0.030603033 0.043435838 0.026255023 -0.002592247 0.004338421 -0.034009874 0.012298966 -0.0047930568 -0.03573086 -0.019315835 -0.011628486 -0.014592847 -0.015307204 -0.041027527 -0.015403636 -0.01567644 -0.024279362 0.02480032 -0.04239707 0.025569856 -0.042582367 0.01347715 0.020131778 0.00880919 -0.03342826 -0.00030282993 0.0085985735 -0.018045101 0.0030805245 0.0034609325 0.0096125575 0.010995543 -0.0035473148 -0.01095454 0.022256568 0.03764953 0.027567733 -0.031656537 0.019205268 -0.04021661 0.014233144 -0.018983841 0.013416936 -0.038267307 -0.042082462 0.0042799846 -0.035962082 -0.043241616 -0.035894293 -0.025332231 0.03685199 0.030741291 0.004519079 0.009375224 0.02142787 0.018076785 -0.04233436 -0.0025428312 -0.0041587725 0.023910854 0.008068312 0.043582764 0.0327221 -0.038775764 -0.011740454 -0.04019624 -0.039662533 -0.028547926 -0.017254263 -0.026981017 -0.0039396356 0.04149032 0.008442225 0.005506538 -0.0077803857 -0.01625577 -0.0237365 -0.021109372 -0.008397538 0.0113508655 -0.037704162 0.008829851 0.018043138 0.03134904 0.036569923 -0.009117112 -0.017942457 -0.00830419 0.023214862 -0.010634877 -0.023905694 -0.029194001 0.04332563 -0.03499875 -0.017319543 -0.032065436 0.02312509 -0.007867039 -0.008919686 -0.040413875 0.03371189 -0.014084032 0.0019585646 0.023867514 -0.017238464 -0.015471064 0.0116228 0.03313197 -0.018830342 0.01678747 -0.005424205 0.024649244 -0.00081960857 -0.0055657923 0.03610382 0.024259493 -0.03398431 -0.007061489 -0.011026153 -0.010647638 -0.0029315094 -0.038624246 -0.038793154 -0.006717302 0.0306423 0.0379959 -0.0055864714 0.022376265 -0.04668364 0.026535913 0.023717545 -0.04002053 -0.015121641 0.035652507 -0.04254788 0.039817978 -0.03466249 -0.028274707 -0.035504177 0.007975902 -0.042961936 0.04058976 0.0419066 -0.018260881 -0.037366085 0.006365992 -0.014013905 -0.006553024 0.012354363 0.03825375 -0.033356685 -0.0054079643 0.040089745 -0.043143064 -0.034785237 
0.008662252 -0.028947499 0.026941199 0.04394922 -0.016216058 0.033453677 -0.023473032 0.038901333 -0.026027054 -0.042894337 -0.012068894 0.023869378 -0.016499078 -0.020089064 0.034462553 -0.01868728 -0.025862545 -0.00493727 0.02171522 -0.0064757373 0.0018272134 0.035296213 0.026329821 0.017082244 -0.0059935017 -0.027415728 0.013797108 -0.019522252 0.019364169 -0.03699159 -0.010627121 0.036682848 0.014951481 0.029455896 -0.014591306 0.012751605 0.02743186 0.008339435 0.03202788 0.02638835 -0.033804517 -0.000902005 -0.0002007559 -0.010726122 0.021769572 0.028701184 -0.027758483 0.03511217 0.024342146 0.02601431 0.043707382 -0.033098105 0.041671578 -0.024661105 0.021194864 -0.022696309 -0.02434426 -0.0065963566 0.027253147 0.034735236 -0.032943666 0.038515475 0.012370404 -0.01034474 -0.0050720773 0.04097991 -0.004586866 -0.018359216 0.034054797 -0.021714913 0.020302696 0.02358354 0.03650872 -0.02958154 -0.03924259 -0.016610162 -0.01777482 0.03203888 0.024170425 0.03480615 0.02599245 -0.03912331 -0.010946429 0.039063655 -0.0027557313 -0.0043118168 0.020774923 0.04333056 0.02578343 -0.033400647 0.0065450594 -0.017571919 0.023372289 0.03615406 0.009334136 0.006324988 -0.025989398 -0.004439637 0.0088989865 -0.03849636 -0.027177019 -0.0037308447 -0.041944586 0.03240351 0.02388874 -0.019678894 0.008713888 0.0037661223 -0.009004706 0.039809417 0.03128771 -0.037773307 0.020797871 -0.0046935715 0.029155038 0.0030617751 0.0135168955 -0.009785252 0.030730654 0.0039374866 -0.03262147 0.012928674 -0.044632867 -0.021423822 0.040410955 -0.027148796 -0.015248271 0.022046179 -0.0053971037 0.02674266 -0.02275737 -0.04076868 0.009071641 -0.03506641 0.0038739608 0.0372799 -0.024580484 0.0022311918 0.02194275 -0.0018184377 -0.0044410303 0.0065020993 -0.0015086308 0.03005741 0.023793243 -0.04054438 0.019688703 0.011267226 -0.0024667718 0.028275538 0.02162401 -0.021238163 0.02437441 0.028320385 0.04009654 -0.016511792 -0.026768738 -0.012400635 0.03078005 0.02934404 0.018707452 -0.043946914 0.0094450805 0.009166077 0.032722075 0.011700686 -0.015722204 -0.03519251 0.026717696 -0.0068239234 -0.023004957 0.0024169013 -0.016487604 0.0011464208 0.03490977 0.022391181 -0.0029997574 0.023527015 0.0022529867 0.043597702 -0.03585387 -0.010200137 0.022006962 -0.008202821 0.04167148 0.02733833 -0.042232823 0.006313108 -0.04010834 0.0025943741 -0.014467027 -0.0076458207 0.01871822 0.010609388 -0.00916812 -0.0050890627 -0.012020931 0.030877847 -0.02835509 -0.023506897 0.029671941 -0.008332599 -0.018553883 0.004528018 -0.043370787 -0.013828194 0.006648976 0.038277995 0.0003502568 -0.018504987 0.023700887 -0.013214901 -0.011128444 -0.016687933 -0.02148619 0.032579962 -0.026848575 0.029264146 -0.03129023 -0.016408784 0.025087986 -0.021512121 0.01852937 -0.03596794 -0.03310807 -0.02402198 0.009741101 0.029331543 -0.025178375 0.03852346 -0.031242773 -0.0191125 -0.030009123 0.028892456 -0.01676172 -0.04264774 -0.008383103 -0.0300893 0.042741958 0.021263126 0.0037512109 0.04146645 0.0003633313 -0.0089943735 0.034558006 -0.0324479 0.027253922 -0.00053551793 0.032647748 0.030835094 -0.008953039 0.008310693 -0.027602192 -0.02025958 -0.028353296 -0.031624243 -0.03983507 -0.023467826 -0.040089544 0.016347293 -0.009078246 -0.03306119 0.0023417098 -0.004200101 0.029657103 0.025669578 -0.031222632 -0.021107167 -0.028295703 0.012622029 -0.041689243 -0.023440892 0.0019112076 0.007813055 -0.002497435 0.041009802 0.024397349 0.014979251 0.02072962 -0.02849677 0.023139682 -0.020885555 0.024702754 -0.011726465 -0.02492883 -0.018385613 0.027268264 0.032246407 -0.020466546 -0.014322437 0.013530878 -0.016796958 0.0056296973 0.040227216 0.0115629975 -0.022889445 0.021325145 0.03672506 -0.03382174 0.024220854 -0.011800495 -0.031435616 -0.0004057996 0.030599605 -0.030189391 0.02464575 0.010753762 -0.009496737 0.015657019 -0.011580944 0.02072956 0.026877124 0.021007556 -0.027762916 -0.04152454 -0.022188723 0.037306298 -0.038476236 -0.044126865 0.014779886 0.028947935 0.031198103 0.04268795 -0.01616955 -0.027617158 -0.0047632875 0.0075185485 0.03777767 0.013714463 0.03200012 -0.024108982 0.036756083 0.0010669647 -0.027169483 -0.01908187 0.038413055 -0.038008068 -0.010939505 0.026349984 -0.0323226 0.023555424 0.018008638 0.02176195 0.021914693 0.01025226 0.0039754324 0.020995848 -0.019382056 -0.044008035 0.04048927 0.009969355 0.022588331 -0.036633108 -0.04430515 -0.032766774 -0.0019103964 0.008939193 -0.027183441 0.030582927 0.031623404 0.044186536 0.019354824 0.032372717 0.012683274 0.027233854 -0.021210724 0.018770576 0.0023217243 0.011436397 -0.01693381 0.03200562 0.029874604 -0.030738149 -0.029366778 0.035161052 -0.028710933 0.03347293 -0.0225794 -0.021778319 0.018151972 -0.03617412 0.04415567 0.024029393 -0.025504032 -0.0042577665 -0.027326562 0.013856998 -0.013292489 -0.00014316832 -0.025037158 0.043616664 -0.018585216 0.04004825 -0.01931952 -0.017163906 -0.019288236 0.038047995 -0.009913314 0.042684097 -0.01731544 -0.0031676455 0.036189493 -0.02092466 -0.03649305 -0.04154671 0.0014805347 -0.03176866 0.042769272 0.03518136 0.015159242 -0.0014569388 -0.027930833 0.041618068 -0.03290698 -0.0045886165 -0.009706698 0.027869526 -0.034077816 -0.018614592 0.033779733 0.006760802 -0.03914296 -0.04368231 -0.002619534 0.023506876 0.038648855 0.008940652 -0.018183053 0.008646209 0.008317616 -0.01572813 0.03886288 -0.012251571 -0.03902946 0.008453725 0.024972728 -0.028812256 0.014260133 -0.037928745 -0.038047485 -0.017674107 -0.02595658 0.007471841 0.033464845 -0.010312971 -0.042768322 0.033630464 0.007218229 0.017358433 0.035927292 -0.04103699 -0.023743572 0.042167414 0.030588841 0.005261498 -0.02090549 0.025834572 0.038719412 -0.040099226 0.043783933 -0.023965446 -0.012233465 0.0017864222 0.011167737 -0.003407348 0.044178274 -0.036208503 0.009910926 0.033856165 0.034640554 -0.010680195 -0.02075126 -0.0051922672 0.006232588 0.018171709 -0.002735645 -0.014909685 0.043768596 -0.04362047 0.033513006 -0.00068064407 -0.032384824 0.019367129 -0.0024166512 0.014948729 -0.030861221 -0.023501897 -0.032926127 -0.030477887 0.040767457 0.04271379 -0.028678069 -0.034910116 -0.0066289306 0.036141556 0.032589305 -0.0015897118 0.0029608011 -0.0080401 0.01171983 0.037247848 0.00083260983 -0.020277776 0.043056037 0.015589148 0.03054266 -0.009509983 -0.01943848 -0.0022314754 -0.03712309 -0.0285019 -0.0220736 
-0.000987843 -0.024757486 0.011598293 0.012147605 0.018872235 -0.03952306 -0.03301533 0.00656024 -0.026540687 -0.009410754 0.020446371 -0.027157046 0.032563765 0.013600118 0.023211967 0.008686893 0.008962899 -0.039760828 -0.0298767 -0.028158747 -0.0174456 -0.0340597 -0.025420653 -0.022460256 0.030614085 0.005504567 0.0003901124 0.027236018 -0.02326571 0.024829581 -0.04336073 0.007824682 -0.033864968 -0.01915257 0.026155319 0.032470744 0.028269693 0.027477022 0.021426857 0.003774181 0.023240954 -0.0031022392 -0.03085999 -0.038254663 0.04362629 0.027903706 0.036347512 -0.04403442 0.024595093 0.038074587 0.013135802 -0.021917922 -0.0038524643 -0.033372894 -0.03400637 0.013120044 0.032436807 -0.0052865073 -0.025346894 0.016910005 0.021573637 0.0076877675 0.0035895407 -0.004589781 -0.033748142 0.0040169866 0.0112939 -0.0115487 0.03925654 -0.024166415 0.03675625 -0.0062367446 -0.03421053 -0.03596741 -0.019673243 -0.014065435 -0.000581265 0.034356553 -0.0031702854 0.020797271 -0.020361269 0.03782143 0.009554211 -0.010432407 -0.02820181 0.013565218 -0.014648448 0.02912243 -0.003429886 -0.021436052 0.039309476 -0.020990862 -0.016566643 -0.0021199028 0.03644635 0.01821803 -0.041103736 0.04129568 -0.020917505 -0.036493827 0.010457985 0.024924722 -0.032997295 0.010217831 -0.011213536 0.010806557 0.024542637 0.02218885 0.0002353898 0.039163884 0.029692117 -0.0063489377 -0.0009816627 0.039156538 -0.0067757308 -0.01781453 -0.022937 -0.013510967 -0.0022360124 0.041132923 -0.030884482 0.027923696 -0.039577782 0.0042931363 0.013302857 0.001130633 -0.006151907 -0.0063497513 0.011376224 0.037068006 -0.004339017 -0.029724963 0.028206173 0.005825496 0.012650238 -0.006835196 0.031286996 -0.017059563 0.03867508 -0.0075207404 -0.0045564473 -0.009111006 0.025409143 -0.04218395 0.020729437 0.011115619 -0.009656353 0.039530624 0.0028814338 0.043553364 0.026948363 0.010532484 0.033582125 0.0042893016 -0.030646637 0.03006439 0.02005336 0.04042809 0.024477642 0.010923307 0.03383437 0.03550366 0.0012114489 0.008135557 -0.026141029 -0.010685366 0.040977303 0.041793976 -0.040181197 0.018951561 -0.042322747 0.016118955 0.039110113 -0.042669404 0.016733304 -0.041381672 -0.012727769 0.024748642 -0.018603494 -0.028833844 -0.028612146 -0.006340401 0.04352993 0.022260118 0.011782156 -0.02417213 -0.022171885 0.010407779 0.0007162536 0.0006986776 0.012391757 0.041632984 -0.028241774 0.04276662 0.021404408 -0.04025682 0.04232565 -0.034886822 -0.03044971 0.029062733 0.038034845 -0.037059285 -0.0027122498 -0.010156931 -0.014739037 0.031473134 0.007181103 -0.0367903 0.040528033 -0.041966423 -0.0034827518 0.025075756 -0.018523308 -0.011844356 -0.033889614 -0.011900066 0.043586556 0.015472862 -0.0015016244 -0.016796324 -0.011709394 -0.017243253 -0.0013359863 0.0011399755 0.009315766 0.0013281883 0.009838723 -0.023376504 0.037526105 0.026486803 -0.023935178 -0.02583064 -0.00048147526 -0.038591646 -0.004757022 -0.019784741 -0.028517926 0.035039905 0.020410176 0.0053275824 -0.007899653 -0.004101068 -0.0044278465 -0.013452052 -0.00973362 0.022363849 -0.039514482 0.0043165796 0.04317878 -0.023240676 -0.011533862 -0.014369661 -0.017684123 0.01780935 -0.037140273 0.004771179 0.033903863 -0.029081807 -0.0035275593 0.025215108 -0.037172962 0.012335645 -0.009545973 -0.009229366 0.019369267 -0.03619791 -0.043379806 -0.038036805 -0.023194633 0.008533273 -0.03507496 0.014466625 0.023794107 0.032455217 0.0081134895 0.032354992 -0.044317324 -0.013116668 0.0043895766 0.024976183 -0.02478662 -0.033679172 0.035154436 6.8716494e-05 0.016713936 -0.0089735165 0.018504303 0.0012271889 0.0056900606 0.02176759 0.007811546 -0.043370303 -0.016612224 -0.041938253 0.025467768 -0.038706686 0.03207196 -0.033319246 -0.0033432357 -0.04205197 0.011249678 -0.0018136017 -0.023580888 -0.012687838 -0.03289058 0.007325366 -0.0023248978 -0.009078268 0.0033395812 -0.039066993 -0.04224683 -0.037383586 0.02112741 0.027663209 0.028485175 -0.008566411 0.033334065 -0.041117795 -0.003225293 0.036182556 0.025011301 0.032640245 -0.013085568 0.013695508 0.021908347 -0.03613871 -0.015322803 0.00059910817 -0.0022565166 -0.02710874 0.030572176 -0.03980961 0.034235228 -0.039809167 -0.016021993 0.0036967178 0.0027435978 0.01987264 0.008712964 0.026227009 0.039878804 0.011405855 -0.04125378 0.0018108817 -0.024626272 0.005108852 0.037957203 0.035985414 -0.04403015 0.011197692 -0.023975454 -0.0066816024 0.029941216 -0.023405585 -0.040928967 -0.0343014 0.022891127 0.026959728 -0.00257181 0.02326503 -0.024631012 -0.0107416995 0.04039156 0.008750724 0.0017719636 -0.032321066 0.0238038 0.008071566 0.041258257 -0.0036763698 0.015878826 -0.008552451 0.027242396 -0.0285113 -0.021189107 0.03505149 -0.03879544 0.04194879 0.03351568 -0.0374362 -0.03262069 -0.017008133 0.017981328 -0.028420193 0.014141189 0.029363666 -0.03119775 -0.019594762 0.012380105 -0.0035410302 0.04148033 0.009049645 0.02901695 -0.025043821 -0.013843961 0.0015393719 -0.00392038 -0.010817716 -0.041741736 -0.021640096 0.039782647 0.01028363 0.0002950913 -0.03169102 -0.023091318 0.012417499 0.018700492 0.021461558 0.04305501 -0.030025119 -0.0015285243 0.009832999 -0.0091890935 0.023260128 0.003740065 0.035236027 -0.0034691803 0.023462784 0.03936551 -0.02708265 -0.0352589 -0.004589703 0.042569812 0.042483736 0.015457146 0.040664617 0.0072331205 0.015064733 0.019898992 -0.039353866 0.008545395 -0.04390413 0.010483518 -0.028090721 -0.011359388 -0.010038545 -0.012114036 0.027575284 0.037677895 -0.02990225 -0.023806993 0.040712487 -0.0337011 -0.012084987 -0.015260156 0.030462861 0.0040196963 -0.00014189644 -0.0034388716 0.01611194 0.0142806545 -0.025967808 0.030740008 0.015341154 -0.03531303 -0.011204343 -0.042361073 0.042828377 -0.0057469956 -0.012499837 0.017378613 -0.042319577 -0.023604503 0.029996127 0.004782267 0.039756756 -0.03896811 -0.039414994 0.0041114986 0.028334912 -0.034947123 0.002016056 -0.020253856 -0.026326077 -0.031599056 -0.017546251 0.016413137 -0.0053346916 -0.008445917 -0.01832152 0.0061464943 0.01965268 -0.03621052 -0.030143715 0.03303719 0.0024694202 0.021962471 0.0059635327 0.01082536 0.018108893 -0.040492143 -0.0222468 0.010686746 0.007440988 -0.0024878196 -0.012283707 -0.029873502 -0.0076103993 -0.016858708 0.04244035 0.012640804 -0.013726927 0.014369853 0.043305386 0.0028597005 -0.022684097 -0.02200523 -0.015453042 0.029672295 0.024616636 0.0118434 0.012586441 
0.014393597 0.009035073 -0.03331972 0.0389574 -0.0003417991 0.026393292 -0.043901328 0.017435148 0.03762659 0.040578667 0.013538174 0.042277496 -0.011408824 -0.01671723 0.027586978 0.034083027 -0.015443722 -0.015799673 -0.01946746 0.028850945 -0.00082053617 -0.023105524 0.020396119 -0.012987072 0.037936766 -0.026099958 -0.036608107 -0.0034931041 -0.03438112 -0.018514816 0.03535675 -0.014171366 0.018879946 -0.021448063 -0.030463884 -0.0094251195 -0.031081414 -0.0046977773 -0.0047241775 0.008858778 -0.039343983 0.012985896 0.000628002 -0.0032501924 -0.03394224 0.027311018 0.014825981 0.025128746 -0.020080049 -0.03897094 0.040412154 0.0035096891 -0.03416448 -0.03664902 -0.012820229 0.01812356 0.009459298 0.0026445836 -0.03087715 0.013616346 0.008440234 -0.032574072 0.0012880601 0.03781322 -0.019368162 0.0126051195 0.000715746 0.018558402 -0.022717714 -0.043024864 -0.014822382 0.00038916446 -0.0198656 -0.017042726 0.043247577 -0.008721378 0.025249643 -0.013688458 0.026048604 0.029074777 -0.01367474 -0.041271918 -0.016242769 0.02588996 -0.0060856715 -0.014451981 -0.0025677457 -0.018556915 -0.031698436 -0.01769298 -0.00079203397 0.027029205 -0.009322818 -0.014065187 0.0056132264 -0.0075639933 0.037338633 0.04228681 0.0023579933 -0.029031698 -0.044090908 0.014603805 -0.008449383 -0.04190955 0.033392537 0.031012345 0.020291395 0.014085019 -0.020589156 -0.034355495 -0.016557937 0.03256746 0.040085826 0.033366967 0.009295631 -0.017022137 0.0048686676 0.013316849 0.037787843 -0.03780573 0.007015601 0.042555254 0.042301867 0.028279778 -0.017065926 0.03226355 0.008374419 0.011906117 0.006196853 -0.021656172 0.006320078 0.013485879 -0.0125923455 0.012899998 0.00036072326 -0.029008768 -0.011738103 0.020576071 -0.0053962804 -0.0302303 0.026974928 -0.00848918 -0.032585494 0.03646168 0.017868899 -0.022247253 0.0063531846 -0.011804011 0.043682028 -0.009478364 0.0034831183 0.04246902 -0.031634632 -0.04221317 -0.026429566 0.018811285 0.01988655 -0.015874162 0.0042410158 0.008844517 0.017741948 -0.01665202 -0.015488302 -0.036414392 0.0029970817 -0.011011574 0.022343691 -0.015627261 0.026500698 -0.005934745 -0.0067224205 -0.010657977 -0.033549882 -0.007850878 0.011824361 0.021710444 -0.01367952 0.00844115 -0.029160477 -0.042317875 0.023097534 -0.028992418 -0.034363654 0.028341163 0.020191332 0.0076821633 -0.034540866 -0.02628083 0.03475414 0.00015392154 0.0071580186 -0.02624464 -0.018530339 -0.00933443 -0.02878694 0.0014547269 0.03980957 0.009918675 -0.022729617 -0.014201479 0.031878445 -0.020644737 -0.01033802 0.028776063 0.02782217 0.023495585 -0.013319021 0.014343746 -0.026364403 -0.039937645 -0.033473276 -0.040275242 0.027527135 -0.013979504 0.038316473 -0.0443542 0.031068128 -0.00839865 0.0016641011 0.022310454 0.03739728 0.007850504 0.0046431795 -0.023236167 -0.00725184 0.0348566 -0.032396886 0.019700784 -0.0008320533 0.027356435 0.010276724 0.004084572 0.030843507 -0.0024815118 0.037436437 0.027330343 0.0062701292 -0.033778504 0.012144931 0.04404599 -0.02935509 0.025763083 0.019944001 0.015317924 -0.027332645 0.00892415 -0.007546246 -0.0029195063 0.034465037 -0.042950884 0.008706524 -0.017471489 0.0038716681 -0.01933798 0.03501528 -0.025778314 -0.012113149 0.007741574 0.005134333 -0.024100395 -0.00032560618 0.026621494 -0.031166408 0.04313605 0.019786935 -0.016017925 -0.042946417 -0.0020499602 0.0065209754 0.008546811 0.037704896 -0.000717327 -0.022621468 0.032070946 0.035380546 0.030192886 0.009711799 -0.019700967 -0.02993628 -0.021585308 -0.0156245325 -0.009214792 -0.041644856 -0.022797022 -0.03757646 -0.013976643 0.032140646 0.034446996 0.020630416 0.007290948 0.038315136 0.0010435767 -0.019723175 -0.011537142 0.009749357 0.036492635 0.012134574 -0.020089896 0.0364493 -0.0195506 -0.0023022257 -0.00076585636 -0.03575288 -0.03936491 -0.008690193 -0.006925948 -0.021421125 -0.04117003 -0.028526336 -0.006469488 0.04218709 -0.031413894 -0.029480623 -0.022920853 -0.03156976 0.041330617 0.00066301227 -0.012812167 -0.025224071 0.017163677 0.02968042 -0.015593374 0.03178646 0.009664644 -0.042206302 -0.024394123 0.03364398 -0.020638546 -0.019296471 -0.023772277 -0.029701449 -0.028361125 -0.0444857 -0.022085331 0.016180247 0.02249269 0.01868319 -0.0066639185 -0.03476347 -0.018487714 -0.039303012 -0.034725863 0.043364298 -0.037246346 0.015746422 -0.0116192065 0.0049268585 0.044193838 0.018605102 0.0007180968 -0.0350812 0.025668483 0.013958411 -0.011899898 -0.039779186 0.0026657768 0.030342642 0.038239602 0.0027802624 -0.0076160207 0.0037402697 -0.020654442 0.025910351 -0.023901973 0.011614732 -0.030286385 0.008079644 0.029741105 -0.0013750216 -0.03868271 -0.037217073 0.018566895 0.043207135 0.040846474 0.0022363663 -0.005809888 -0.0191553 0.0015947782 0.016760644 0.03200162 -0.0072607547 0.03511713 0.038012102 -0.032687835 0.021112287 0.008235972 -0.020536525 0.019336425 0.028216628 0.041938573 0.021065634 -0.021724328 -0.010635966 1.0352582e-05 0.031648155 0.014270112 -0.04360232 0.013135419 0.015677657 -0.009572663 0.010988168 -0.044003386 0.018783474 0.016945256 0.027684806 0.0149340555 0.02164087 0.029352132 0.018764697 -0.008858915 -0.02235095 -0.012740463 -0.01803969 0.035883028 0.03549339 -0.041530315 -0.025075851 -0.017084382 -0.020757196 -0.03636274 0.02280039 -0.0077722 0.029838096 -0.00067285536 0.0035537854 0.017927155 0.04243085 0.033895448 0.039576564 0.031845704 0.009309877 -0.017924044 0.011302508 -0.01781122 -0.029618012 0.041507956 -0.023448363 -0.042317357 -0.022706514 0.020044057 -0.02202657 -0.018051319 0.03809948 -0.0020341352 0.018431667 0.00882312 0.0064402707 0.034169044 0.0005923235 0.014526892 0.031060781 -0.043003347 -0.007882268 -0.03564508 0.039975394 -0.028119966 0.022413645 0.013903271 -0.008847034 0.005316062 -0.026033364 0.0048311045 0.0013933256 -0.0368253 0.024479698 -0.021682572 -0.025909478 0.017300352 0.012942538 0.005321536 0.005648926 -0.0008310704 -0.019812284 -0.030709852 -0.0048008375 -0.033286087 0.008317769 0.016531844 -0.028784204 0.039275955 0.01174923 -0.024806187 -0.011684848 -0.014691928 -0.040901497 -0.011049134 0.023034321 -0.0064627673 0.016731234 0.024440598 0.04304532 -0.025694001 -0.019069642 -0.022057647 0.025134165 0.03352676 0.041077416 0.009987809 -0.0158481 0.01407592 0.041079376 0.017483428 0.008032437 0.01944377 -0.020747524 -0.019820424 -0.028007908 0.00097222626 0.03011828 0.028305944 -0.014738162 0.03546234 
0.0003063946 0.010584723 -0.035181046 0.0345088 -0.011901863 -0.030306445 -0.02587533 -0.032863166 0.01799127 0.019993838 0.039409596 0.023901789 0.0008526647 0.010172937 0.019033682 0.010577127 -0.008842979 -0.021893496 -0.03660088 -0.018524924 0.034461852 -0.015064601 -0.036865853 0.006669212 -0.03345177 -0.037072442 -0.01094823 0.03807572 0.013647309 -0.0024671555 -0.011028118 -0.0065864213 -0.038856376 -0.03799812 -0.02381426 -0.0019689277 -0.024791155 0.031313915 -0.01930168 -0.02201727 -0.0077951066 -0.022681879 0.03444903 -0.034324493 0.02611627 0.0073107183 0.010003932 0.030415509 0.038345758 0.027358826 0.008123826 0.029499445 -0.022992887 -0.005535178 -0.010614909 0.013421293 0.035301846 0.029230502 -0.01966778 0.0006892456 -0.010167401 0.038012426 -0.026915452 -0.0041740797 -0.042473085 0.00283953 -0.0414095 -0.020655656 -0.0009345338 -8.133645e-05 -0.0036158264 0.017510489 0.003646329 -0.008095741 -0.03812281 0.012718882 -0.0073173647 -0.007608887 0.018018559 -0.023486426 0.02216031 -0.013653971 -0.040740106 0.030387405 0.03003094 -0.039389674 -0.01773877 0.003864266 0.029629905 0.0007218853 -0.011983845 0.014474139 -0.008854662 0.04042962 -0.033713873 0.027035218 -0.02093071 -0.0183167 -0.021503417 5.3830445e-06 0.03680804 -0.034622204 -0.04237483 0.019334685 0.03740145 -0.0007018596 0.017577711 -0.025478628 -0.040398587 -0.044740096 -0.011409815 0.0066845417 0.028320704 -0.010854255 0.029046346 0.0024785623 -0.01376172 0.02233759 0.013394721 -0.03089393 0.030367713 0.018171504 -0.04409721 -0.024227979 0.003925591 -0.03599406 0.03033584 -0.011940092 0.031777065 -0.009925339 0.009863056 0.039294604 -0.018238707 0.032541603 -0.02451638 0.00183006 -0.0032278746 0.00698252 -0.03205269 0.026991975 -0.020419184 0.04279566 0.04020216 -0.017983384 -0.014265975 -0.04176571 -0.023446392 -0.009977207 0.012729682 -0.033243947 -0.03942639 0.005311966 -0.03889198 -0.04174812 0.00785115 -0.0356524 0.0262161 -0.016479323 -0.018087862 0.028918918 0.01445632 0.004916776 0.01151786 -0.0045794323 -0.03848519 -0.040097658 -0.037952166 0.03907339 0.006219607 -0.02440932 0.041625503 -0.03821851 0.013035893 -0.00430597 -0.005576679 0.01616868 0.026174167 -0.015647814 -0.011343222 0.002763383 -0.0042161793 0.0053959335 -0.025347969 0.010685537 -0.011472121 0.004538782 0.021015864 0.008281991 -0.036401536 0.007858418 0.027718473 -0.031446896 -0.012238671 0.035248864 0.012570752 -0.040287834 -0.027492639 0.04091576 0.020822708 -0.025037652 0.0072377883 0.037869792 0.0006481074 0.0070675574 -0.017566431 0.016064083 -0.037579298 -0.014511302 0.015727872 0.013313306 0.0021671653 -0.01548985 -0.038827732 0.04335079 -0.0058061904 -0.03153235 -0.035061304 0.0037687526 0.0040549226 -0.027642684 -0.01707976 0.020633321 -0.03358256 -0.045528896 0.014005747 0.014288531 0.021973092 -0.020185458 -0.031787276 -0.005379267 -0.030866548 -0.032792225 -0.035733223 0.03949464 -0.0044814274 0.025218632 -0.0132346265 -0.036828764 0.036649283 0.04265413 0.037334096 -0.026375176 0.043528322 0.042745095 -0.0061450116 -0.040870257 0.002763927 -0.038712047 -0.010168773 -0.014462851 -0.03577076 -0.040291056 -0.006307222 -0.016948396 0.012939379 -0.015011238 0.016810277 -0.010455523 0.039169375 -0.022750974 -0.025379514 0.04288474 0.024656508 -0.038917936 0.0012254231 0.02457593 0.0044761337 -0.0020986907 -0.03359046 -0.034330256 -0.026298443 -0.03934323 0.015718192 -0.023573412 0.023047742 0.040192436 -0.020447232 -0.0046828077 -0.031744037 -0.027708434 -0.005581148 -0.03542524 -0.009807713 -0.034728885 -0.027345465 -0.033948295 -0.0053216293 0.037732664 -0.0032860637 -0.0031630062 -0.011261597 0.014360327 -0.022459846 -0.013127932 0.015517585 0.024153803 -0.042124547 0.032643568 0.006251085 -0.035899814 0.013547536 0.016958855 -0.01157679 0.020053796 -0.005525808 -0.015216872 -0.0029232055 -0.011970304 0.025419477 -0.03050062 0.009198796 0.026279178 0.029260373 0.008441202 0.009719353 -0.035566144 -0.040806584 -0.03713089 0.035139162 0.037319448 0.008363593 0.04239707 -0.039652288 0.011577233 0.01936042 0.040519673 0.029418346 0.038018536 0.011906099 -0.02370171 -0.020198425 -0.023880476 0.017900081 -0.0040606917 -0.02567881 0.020414297 -0.023019219 0.032427546 0.020972896 0.010804407 -0.033392604 -0.030464742 -0.004045224 0.04126502 -0.0012638393 0.0036340281 0.026444439 -0.0253068 0.03559405 0.035087794 0.006639894 -0.013510995 0.006500756 0.014743984 0.017338518 0.008438721 0.022999104 0.035491105 -0.00784681 0.004255466 0.011713073 0.006140817 0.023154091 0.0023979656 0.020561222 0.007858983 0.025431897 -0.030138994 0.019420367 -0.014314113 -0.016162772 0.0055169165 -0.0380778 0.0053820345 -0.028282663 0.01761704 0.034979876 0.01258323 -0.019877564 -0.024635002 -0.03157778 -0.018224034 -0.03503635 0.042887677 -0.027677508 0.035332832 -0.029812247 -0.018574692 0.033409346 0.0019073195 -0.028023928 -0.039271433 -0.0235667 0.019739147 0.002710443 -0.042260528 -0.016044652 -0.035030495 0.033574026 0.024706889 -0.028708452 0.037139352 0.04184291 0.031382665 -0.00437021 0.0100207925 -0.025770258 -0.0057005733 0.014210469 0.006096989 0.022066358 -0.034385342 -0.022269225 -0.009087022 -0.008417161 -0.021687582 0.026579674 -0.02729087 0.034466658 0.030449929 0.03976505 0.034991 0.016128682 -0.018925313 -0.017419513 -0.024972113 -0.03603919 -0.004792088 0.035344582 -0.020439215 0.0101282 0.03002184 -0.009831723 0.00030825287 -0.03642028 0.028617673 0.009110485 -0.02183094 -0.03323897 -0.03231718 0.040214874 -0.0025124194 0.03631794 0.007068485 0.036935966 -0.0085853785 0.041573953 -0.029072832 -0.013274265 0.027997974 0.030597065 -0.015391629 0.03228799 0.0027242266 -0.016766522 -0.028531967 0.0028292388 -0.039626002 -0.024884623 0.040047657 0.037004557 -0.014852366 -0.002034787 0.0068252087 -0.010628138 0.018313441 0.03479809 -0.021937203 0.019403484 -0.017958604 -0.035022475 0.0033976845 -0.04223743 0.03826442 -0.022756753 0.038786456 -0.037548184 0.016897518 0.015978519 -0.031643927 -0.043133486 -0.022000697 0.037312496 -0.032268822 -0.022311768 -0.015074069 0.0045195706 0.015615016 -0.029994216 0.02180488 -0.026965858 0.0033244549 0.020663861 -0.00911155 -0.039370313 -0.0094436295 0.01178202 0.024587568 0.029659826 0.0029265396 0.020172331 0.019766923 0.014274791 0.04348291 0.017747395 0.019136298 0.026928838 0.03053886 0.019893683 0.027898606 0.036935363 0.031609792 
-0.011451924 -0.0037975088 -0.03844499 0.038918655 -0.025587874 0.024017636 0.018660191 -0.0333549 -0.034855876 -0.038546503 -0.027471168 0.028724315 0.008513207 0.011502627 -0.007393591 -0.02774754 -0.03101832 -0.020035231 -0.03847406 0.02297969 0.03074183 -0.028093481 -0.006070865 -0.012558885 -0.03092731 0.020073924 0.021888603 -0.023381997 0.021656526 0.028249275 -0.022244094 -0.033408795 -0.031302664 0.04389352 0.008758564 -0.031118184 -0.0428226 -0.02596409 0.04123203 -0.018608714 -0.037001345 0.016238037 0.003969364 -0.015541238 0.04378311 6.3132495e-05 -0.011416569 -0.013812296 0.008600887 -0.03488175 -0.018156951 -0.031113993 -0.015224263 -0.02737374 -0.026445687 0.0013484247 -0.009229839 -0.002196446 -0.032949854 -0.043877486 0.008619837 -0.011107426 0.03870858 -0.011669461 -0.009531621 0.025807044 -0.03500419 -0.017614776 -0.015186731 0.024685042 -0.0055292286 0.0071313907 -0.0198596 -0.009683628 -0.0005793348 -0.02244701 0.011004119 -0.014286375 0.03251255 -0.04010187 -0.022610888 0.019153763 -0.024180217 -0.026349233 -0.025835743 -0.006702069 -0.01631337 0.0011050068 -0.017774658 0.033771712 0.022800524 -0.039098874 -0.009911288 0.034288075 0.033259783 -0.017715411 -0.037458945 -0.03950532 -0.022155823 0.037349436 -0.01841823 0.04113559 0.023017924 -0.020698512 -0.020989869 0.028498743 0.02802729 0.002679581 -0.02676097 -0.025728796 0.022192735 -0.038507253 -0.024598576 -0.030383736 0.026355844 -0.018345574 -0.022810217 0.006161932 0.016691059 0.0208092 0.014744852 -0.0077604577 -0.004264341 0.029388245 0.031082917 0.04401588 -0.007342048 0.022073273 -0.012248732 0.006312445 -0.009810992 -0.024762185 -0.018195864 0.026731681 -0.04007566 0.043333534 -0.024963383 0.014138829 -0.0013033599 0.041411597 0.008974683 -0.02784293 0.037655067 -0.03512483 0.033274125 0.012286289 0.0301315 0.020296011 -0.041287135 0.020939816 0.017012138 0.004135333 0.027521897 -0.029058224 0.008014165 0.0083625605 0.040161382 -0.0047112964 0.005475778 0.027109634 -0.0073899725 0.011795796 -0.006490927 0.03414635 -0.009240601 0.025836993 -0.008891121 0.0119330995 -0.037542902 0.042535525 0.0004503429 0.0079050865 0.031701636 0.02661414 -0.031368706 0.02888788 -0.038436927 0.03982314 -0.0029398631 -0.018500354 0.013868187 -0.036452666 -0.005249981 -0.0026886575 0.03631104 0.018602718 -0.026780427 -0.018974084 -0.015274988 -0.011865865 0.0433315 -0.0057899505 -0.015444928 -0.017333986 0.03064644 -0.015932672 -0.010382497 0.040236864 0.039979856 0.030003082 -0.018526327 -0.02191262 0.009219326 0.02867081 0.041631933 -0.010980746 -0.008090835 -0.030258656 0.013771299 0.036201626 -0.0013561547 0.039747328 -0.03392994 0.022044692 0.027083946 -0.003489632 -0.026548283 0.041582536 -0.019813223 -0.037304644 -0.0074162628 0.02474222 0.038406234 0.035507135 -0.033024 0.0010306735 -0.010273582 -0.034023114 0.027409293 -0.027154556 -0.014455436 0.022241715 -0.019823913 -0.030928357 0.013575263 -0.020274093 -0.028919855 0.0011991076 0.014031403 0.0029013418 0.036016833 0.034830738 0.03441516 -0.017250556 0.039291654 -0.0140014365 -5.006045e-05 -0.009743433 0.01637073 0.00842606 -0.026376823 -0.011035889 -0.030811902 0.015030682 0.033910822 0.04035231 0.0012891329 0.033720966 -0.04263926 0.033083122 -0.0029368156 -0.01596079 -0.005978223 0.005952779 -0.041900977 0.029654345 -0.0027450435 0.019839462 0.025527608 0.04331829 0.017230239 0.0043924004 -0.017667552 -0.01663298 0.016399607 -0.026019951 0.007903591 -0.04654732 0.020041425 0.03959996 -0.017266205 -0.018061252 -0.020135889 -0.026234258 0.03907575 -0.010682039 0.035664532 -0.039512344 0.042912435 -0.025495725 0.032078896 -0.0033929385 0.03046824 0.028848093 0.029342558 0.006216798 0.0008113012 0.02249959 -0.03183623 0.036522236 0.023881389 0.032003332 0.0031885356 0.034870014 -0.027187286 0.03915867 0.02076352 -0.005957179 0.025737701 -0.0071402565 0.019105319 0.0011245832 0.04512054 0.035751898 -0.011798121 -0.021942692 -0.025942443 -0.02366102 -0.03036604 -0.011494322 0.030268487 0.026589882 -0.020768212 0.001982648 0.029060837 0.020666707 -0.0031058118 -0.030480636 -0.009461763 -0.024142897 -0.03705779 -0.01402329 0.020817354 -0.029968485 0.013393246 -0.019159842 0.013595823 0.019671697 -0.0016045161 0.030426953 -0.04352577 0.005405713 -0.013967787 -0.020824583 0.023304826 -0.03839566 0.00055936724 -0.028865349 0.014737636 -0.011986915 -0.011021096 0.006205566 0.032591373 0.02696864 -0.007182859 -0.029578805 -0.011469744 -0.016339658 -0.022050193 -0.03515542 -0.002153378 -0.035063185 0.015257128 0.0011520833 -0.029517435 -0.028223556 -0.022185149 0.017934917 0.041150548 0.04334716 0.03513018 0.039027225 0.013652574 -0.0055619874 -0.014974216 -0.013758495 -0.02383047 -0.0031394698 -0.02406368 -0.008517932 -0.042797152 0.03387126 0.017460665 -0.02770739 0.005919802 -0.041357923 0.0009311661 -0.040247075 0.0013249479 0.039622888 -0.024508951 0.013203405 -0.00496592 -0.01754734 0.008664366 -0.04274523 0.015330836 -0.023802767 0.019385133 -0.020703772 0.0012604899 -0.020311689 -0.044738144 -0.004611467 -0.01414867 -0.017172474 -0.018675847 0.021145646 -0.010111595 0.012731288 -0.041136272 -0.02663755 -0.03673857 0.032914046 0.026341503 -0.007172335 0.013274092 -0.028576337 0.03660019 -0.029522782 0.029794227 -0.03598954 -0.017941229 0.011559906 -0.0344147 -0.028899167 -0.02150014 0.027311929 -0.016161593 -0.019603685 0.037183937 -0.022103196 -0.01673589 -0.017832015 -0.015614966 -0.014805878 -0.010253585 -0.0069935583 0.03155345 -0.02121559 -0.041480172 -0.028648337 0.012364883 0.033615675 0.009737857 0.024229549 0.0167185 -0.011125181 0.0028760917 0.011235118 -0.014747614 0.04046061 0.032756347 0.04365829 0.0037281774 0.03448241 -0.03582637 0.013350699 0.0021943096 -0.0017666218 -0.036261957 0.0029028342 -0.02603993 0.011216562 0.019888949 0.027507525 -0.004036255 -0.008806989 -0.040726118 -0.03137356 -0.0017713942 -0.022396045 0.0027937368 -0.037393086 0.0111032985 0.020616964 -0.040510498 0.016161587 0.031796474 -0.00031238794 0.032548618 0.04302613 -0.020135762 0.021010652 -0.0087817535 -0.012484398 0.026190035 0.026486438 0.027322639 0.036105458 -0.0067703244 0.012125911 0.03523 0.011601262 -0.0035142712 0.024035137 -0.0036570467 -0.022720259 -0.043999087 -0.033339296 -0.03710206 0.00016384572 0.0023397245 0.026771259 0.03557053 0.027367126 0.014000155 -0.015599012 -0.02670303 -0.0039013848 0.03358563 0.0016174801 
0.008976252 -0.0064883754 0.0188548 -0.042588316 -0.030398356 -0.050228912 -0.032429814 -0.009706352 -0.023257121 -0.014480172 0.018793229 -0.039572097 0.008958367 -0.02246692 0.039308142 0.03557094 0.017336473 -0.03569612 -0.0006632805 -0.0048458423 0.025003847 0.035588812 0.033293907 0.03332894 0.03768195 0.024496105 0.042357143 0.01302908 -0.013749505 0.011620481 -0.020079132 0.010040291 -0.03592952 0.021527719 -0.004280545 -0.0214502 -0.028862763 0.032869544 0.043750387 0.042761285 -0.025130775 0.02684744 -0.012621511 -0.0121122645 -0.013836753 0.0030576177 0.020318035 -0.042442545 0.017008971 -0.012562338 0.015539829 -0.03235124 0.02768099 -0.025137477 0.036138523 -0.040613644 -0.0065326914 0.015704647 0.018058155 -0.023714624 0.0037749559 0.029892858 -0.042731546 -0.0072111003 0.010304682 0.00066013203 0.010392217 -0.01370438 0.013695329 -0.01718761 -0.0037336834 -0.03714864 0.0075491816 -0.009635981 0.03185213 -0.017148146 0.025914863 0.029483888 -0.021218093 0.007046867 0.014060646 0.01001858 -0.00013736944 0.025030578 0.0008893758 -0.0043911077 0.012832463 -0.034251284 0.03652912 -0.02668095 0.015361134 0.018259957 -0.022921281 0.04133809 0.026646819 0.010891948 0.008077022 -0.037819173 0.032259036 0.016547948 0.024086189 -0.006665256 0.010353599 -0.04346941 0.032553896 -0.019563418 -0.005776238 0.0058798706 0.0047941166 -0.005130404 -0.017919095 0.0110845305 -0.0366996 0.02319463 -0.03363417 -0.03474742 0.02354591 -0.03977204 -0.0013877004 -0.017055733 -0.02409282 -0.00012901798 0.010401329 0.0066016503 0.01235033 0.023215685 -0.021722896 -0.021975704 -0.025048282 0.04159281 -0.044005446 0.0048485994 -0.011644438 -0.016089799 0.0034505925 0.032275822 -0.017823549 -0.043311857 0.04219612 -0.016629685 -0.03330436 -0.03339457 -0.022976276 -0.04567366 -0.010661595 0.029574534 -0.00020927936 -0.043688927 -0.041616574 -0.02802051 0.0070623085 -0.004645221 0.00917615 0.0051284377 -0.040723518 0.03865804 0.0076035336 -0.007713657 0.024320688 -0.022878937 -0.016745554 -0.022285983 0.011908807 0.01580228 0.005372666 0.041647453 0.011645697 -0.010262698 -0.009933859 -0.03288889 -0.03828931 0.014902505 0.02805223 -0.006393794 -0.038976423 -0.017738232 0.025916107 0.006031234 0.03490893 -0.036148593 0.0095747 -0.016923709 -0.024367405 -0.019278057 0.04353193 0.03263418 -0.019079082 -0.018374456 -0.0058514215 -0.0049573854 0.007896777 0.01770579 -0.0017473603 -0.03491627 0.015210531 -0.0016220819 -0.011986709 0.010949492 0.038110573 -0.0026890377 -0.0141618475 0.009367976 -0.040716704 0.03891327 -0.0031258725 -0.008109807 -0.021561608 0.0061135255 0.009828829 0.02807776 0.00947991 -0.0008318899 -0.023303725 0.011213578 0.04034342 0.018532326 -0.031027108 0.014848825 -0.030153867 0.028932575 -0.010861794 -0.01392458 -0.022089442 -0.02918285 -0.030738223 0.0097874915 -0.010218486 0.008322239 -0.027809203 -0.013300454 0.03148276 -0.019867118 0.024326194 0.010088774 -0.040633414 0.025957432 0.010910384 0.013335001 0.011476502 -0.016918888 0.027613375 0.0038424581 0.03658324 0.03277069 -0.04207052 0.011726685 0.02552427 -0.0042889155 -0.041158814 0.017918719 -0.04240746 -0.028337238 0.02633297 0.016700134 0.037145954 0.036109474 0.003329856 -0.040351033 -0.037258394 0.03596854 -0.021384167 -0.028645083 -0.022899041 -0.028412923 0.03839815 -0.025173554 -0.020981729 0.008587815 0.032525618 -0.031547274 0.024568494 -0.034276288 -0.042425275 -0.005018726 -0.005729817 0.0330262 -0.004584416 -0.026690526 0.034552377 0.01576868 0.017936803 -0.042209145 -0.017769244 -0.017248388 0.0005937703 0.00550586 -0.02644398 0.036501188 0.018966954 0.03689483 0.018035632 -0.041109763 -0.043314405 -0.029771395 0.026433278 0.024565194 -0.04396162 0.02967239 0.023428015 0.016412832 -0.0011932898 0.0052192956 -0.016400976 -0.036410667 0.0042518987 -0.008720782 -0.011794191 0.0002287589 -0.02841919 -0.03909037 -0.0062302575 0.005783584 -0.026172247 -0.035597254 -0.013139948 0.007918298 0.028875504 -0.015481912 0.024481755 0.03580107 0.010264732 -0.033201423 5.8680773e-05 0.033186328 -0.015870005 0.0020185513 0.030319382 -0.025185011 0.01608405 -0.02462815 -0.0074040224 0.012506644 0.038335454 -0.02397011 0.015292909 -0.008644648 -0.01669313 0.004489884 0.011778127 -0.006134115 0.0221644 -0.03207383 0.036645528 -0.019937694 -0.051888473 0.03374407 -0.027621549 -0.00084748864 -0.009904958 0.0018144689 -0.020178046 -0.021252433 0.039134715 -0.0394107 -0.029142164 -0.0002670884 -0.015638351 -0.03302125 -0.005734928 -0.043982364 0.025787566 -0.0063503385 0.008253332 0.0015605353 -0.04413578 0.011901347 0.02386761 -0.030797845 -0.039903715 -0.009749316 -0.021608338 -0.0045597926 -0.029213551 -0.010136277 -0.01770773 0.010870416 -0.007959764 -0.018668672 -0.029951157 -0.039536934 -0.021867149 0.009098094 -0.016470976 0.043328453 0.009535409 0.008328166 0.023405645 -0.0007747924 -0.019635722 -0.0064466745 0.025556397 -0.029497994 -0.030405937 -0.025435306 0.02284332 0.042999316 0.022517662 -0.04099161 0.012916308 -0.039211784 -0.027784796 0.008165281 0.011373033 -0.029139455 -0.016943403 -0.039202992 -0.041883755 0.0147120245 -0.024822008 0.029957313 -0.0061497465 -0.028217778 0.037842955 0.041945923 -0.0065611303 0.040014815 -0.005307015 0.00813847 0.026415724 -0.04148713 0.011339553 0.031594742 -0.023398366 0.00022150004 0.001706234 -0.04360241 0.0056541488 0.0139002465 -0.033271752 -0.007517624 -0.0031688511 0.03531278 0.036064412 -0.011557471 -0.041379254 -0.011372209 0.013145002 0.027202595 -0.008205727 -0.024906917 0.039969467 0.009586814 -0.011611346 0.0010438722 0.019931588 0.0025142378 0.034556318 -0.009381581 -0.034564298 0.027199794 0.01835804 -0.018645972 0.014336595 -0.043776754 0.029186126 -0.027742641 0.000992775 0.039100315 0.026626144 -0.0065202997 -0.019586256 -0.01061775 0.042779785 0.040579144 -0.019181874 0.008645199 -0.03124985 -0.0039746165 -0.042807404 0.022535238 -0.038646366 -0.00039115507 0.042088483 0.009743419 0.020697314 0.03341729 0.036913026 -0.021978665 0.018624816 0.011962086 -0.0075766854 0.04218525 0.0024146512 -0.03597063 -0.02328401 0.018122004 -0.041991495 -0.014042439 -0.02850034 0.028676506 -0.00603639 -0.0055360547 -0.027181724 0.041116323 0.006237097 0.028208178 -0.005448941 -0.012584232 -0.013871217 0.040644486 -0.02094445 0.036700364 -0.029828478 0.0014093257 -0.0070445724 0.026451427 -0.043165263 0.006251484 -0.007332424 -0.0011964329 -0.015916435 0.004366204 
0.027510108 0.0007197559 -0.026224291 0.03060292 0.004973281 0.005400177 0.004888588 0.040274333 0.004605107 0.012511559 -0.033582117 0.038709972 0.021940641 0.040479284 0.023050804 -0.040555958 0.023834761 0.019988075 -0.024540814 0.0072058933 0.013225182 0.029595647 0.019406224 0.024182733 0.030570522 -0.001471594 0.02123836 0.038382363 0.012886251 0.03861766 0.03714818 -0.017546238 -0.041379858 -0.036130108 0.002783846 -0.029270152 0.0072540543 0.012139831 -0.028510464 0.016090218 0.0031203332 0.03508294 -0.009630181 -0.017783925 -0.028441515 -0.036680765 0.026440892 -0.039603394 0.03580718 -0.01844756 0.009277321 -0.028453633 -0.0025506318 0.04077549 -0.019960927 0.039745886 -0.038757913 0.038569685 -0.015911415 0.042832844 -0.010203917 -0.018622998 -0.031334322 -0.01120659 -0.034857593 -0.007181838 0.021033823 0.017595984 -0.027405666 -0.04136315 0.042106442 0.018174885 0.022060025 0.018269014 0.015440475 -0.033899873 0.016291099 0.032631304 -0.012596596 -0.019574277 0.0068322346 -0.0075080656 -0.041092053 -0.04124422 -0.00011901185 0.0049836985 -0.03709139 -0.011294376 -0.009486474 -0.04096148 -0.02574064 -0.026389081 -0.033414055 0.027916845 -0.04071091 0.01119766 0.011715533 0.0084251985 -0.03306637 0.0010125302 0.036800507 -0.033789523 0.015111029 0.012998592 0.039197423 0.033587728 -0.036875475 0.028690558 -0.024084486 0.03242317 0.041069772 -0.019685844 0.028504781 -0.008114416 -0.03445863 -0.041797668 -0.035443045 0.039702136 0.03561184 -0.007191144 0.03646365 0.013797471 0.035695076 0.027554553 -0.02858519 -0.0026544817 0.00062055886 0.015862802 -0.023019081 0.009146399 0.0046044104 0.04131415 0.008183926 -0.025868682 0.018391563 -0.0077305846 -0.027683308 -0.037707932 -0.02653356 -0.024228547 0.029469479 0.007421471 -0.029156357 -0.01461917 -0.035729803 0.019578427 0.038029533 0.036137786 -0.009314854 -0.02322776 -0.02237243 -0.024350027 -0.005896583 -0.018037725 0.023504402 -0.03663689 0.028359998 -0.024159342 -0.03711761 -0.009381242 0.013031166 0.008752355 0.0447034 -0.042659774 0.030344043 0.0011277981 -0.041102283 -0.022003679 0.02755205 0.017826863 -0.0033614337 0.03155177 0.028695744 -0.017261969 0.038156383 0.01735434 0.030972874 0.017726574 0.0056317197 -0.02486753 0.013439748 0.01242523 -0.04363955 0.04126853 -0.024742551 -0.037859175 -0.024315543 -0.03510737 -0.015332628 0.0046663447 -0.04380682 0.007561854 0.011929946 -0.004449215 -0.031053457 -0.0012152207 0.03569882 0.020002723 0.031497605 -0.030113166 -0.024082882 0.0057699718 0.019967675 -0.038344502 0.0041492097 0.03869455 -0.019513996 -0.0174731 -0.02140341 0.020517504 -6.5599495e-05 0.005940873 0.032592323 -0.03378221 -0.009882446 -0.01894681 0.013202343 0.03755465 0.009325917 -0.007857468 -0.02812827 0.0063885357 -0.021917237 0.0365642 0.0113950595 0.01766216 0.04044026 -0.02413393 -0.01666261 -0.0012997948 0.013826981 -0.021931011 -0.03900329 0.0103834625 -0.030916572 -0.005920306 -0.018353002 -0.009915126 0.036690693 -0.010398179 0.022469472 -0.024324395 0.008706935 0.0039074705 0.006022255 -0.0035657373 -0.025559934 0.009954475 0.007334796 -0.027455814 0.013362822 0.028316202 0.0014514253 -0.042404044 0.015102863 -0.025038213 0.038012743 -0.027687231 0.011981275 0.02037577 -0.006354604 -0.025379974 -0.008922121 -0.041367427 -0.039813064 0.012792474 0.01494569 -0.02895606 0.026584696 0.0067575797 -0.009343155 -0.025888247 -0.010801246 -0.026186923 0.039724175 0.02177542 -0.0027291623 -0.038937174 0.02319583 0.036674183 -0.003183689 -0.017838659 -0.019773284 -0.01171906 -0.018443458 -0.030693352 -0.022628259 0.022604663 -0.029385008 -0.017733429 0.032072496 0.03768601 0.042569432 -0.0018575072 -0.022312243 0.0022023136 0.010609299 -0.005827859 0.014257321 0.02822961 -0.018329205 0.014080513 0.031732585 -0.013979034 0.038503554 0.0034704767 -0.0011869781 0.0413228 -0.029157916 0.013851557 -0.04010627 0.029802684 -0.0136677185 0.0053446456 0.019463811 -0.03670831 -0.017915158 0.022765104 -0.009681152 0.028234672 -0.023389291 -0.0138966795 0.0273518 0.02846609 0.017553572 0.0006721781 0.039651055 0.015917756 -0.0077221245 0.019732382 0.009451109 0.01730655 -0.008891511 0.023616906 -0.021932824 -0.042938728 -0.023519656 0.04031052 -0.01868541 -0.033439882 0.035620157 -0.0067431964 -0.04099145 -0.004782175 -0.020893283 0.005012218 0.0075315507 -0.02047231 -0.034591965 0.0013693833 0.042126063 -0.0288491 -0.0336635 0.024831617 -0.025781546 -0.03820029 0.027605832 0.022626366 0.0039938083 0.014193431 -0.011050146 0.026099812 0.012411073 -0.030358177 -0.036188513 -0.027592827 0.0200959 0.0354162 -0.009142896 0.04163709 -0.0049531553 0.021094259 0.042734835 0.041872624 0.042999137 -0.037013736 0.042723205 -0.042232286 -0.008763853 0.019601528 -0.0036927052 0.0118082315 -0.04137012 -0.03192143 0.03925804 0.03457879 0.01426152 -0.032493442 -0.04252343 0.02821945 -0.023629503 0.036340594 0.034042526 -0.023451118 -0.0021014444 -0.023043621 0.010276314 0.034214195 -0.032281365 -0.016652022 0.015974274 -0.032451756 0.039430678 0.025127321 0.041694865 0.025363255 -0.021064125 6.970391e-05 -0.030542953 0.010962721 0.021277789 0.040419154 -0.034562945 -0.03085848 -0.019015033 -0.03777662 -0.0029285364 -0.038355432 -0.016163675 -0.010711066 -0.0011668839 -0.034413453 0.002920717 0.02059716 -0.032109406 0.007846737 0.003389936 0.030732403 -0.016698813 -0.021053908 -0.039872773 -0.0036666878 -0.019206045 -0.0035231486 -0.024658699 0.040004823 0.03505323 -0.0062552267 -0.0024649426 -0.020043524 -0.025865821 -0.0063678445 -0.0069044866 -0.011923141 0.012745295 0.023939978 0.04320891 0.037325438 0.01542902 0.0340891 0.013346594 0.024736272 -0.033105407 0.012939587 0.0326791 0.01156579 -0.015727991 -0.020239007 0.0109039955 -0.0119762 0.00094958395 0.025764309 0.022443958 -0.015347829 -0.01698499 0.0011024252 0.038698204 -0.007564068 0.020060193 0.012593653 0.005324334 -0.000662909 0.02389421 -0.031444892 -0.008502014 -0.031269982 -0.043013126 0.0024201146 -0.00056033174 0.011613522 -0.019703357 0.029987194 -0.015574476 0.03793072 0.036368217 -0.035720296 -0.02807328 0.012611099 0.030074915 0.025380272 -0.042054757 0.0057256385 -0.027083244 -0.030576326 -0.015140813 0.028466912 0.02708276 -0.03653018 0.026992578 -0.040111672 0.03896771 -0.0016972497 0.021747831 0.04045211 -0.027325118 -0.042414714 -0.002420429 -0.019074794 -0.024086887 -0.043129686 -0.02362533 0.019991007 
