128 1
-0.013534123
0.051543545
-0.0051913294
0.04311456
0.018343637
-0.0045592524
-0.0005734141
0.025571492
0.029498879
0.009973297
-0.008414689
-0.006415557
0.040058754
0.020667095
-0.032112017
0.03161082
-0.0119484635
0.03516228
0.0023303882
0.03763314
-0.034171157
-0.008084894
0.013742308
-0.0018170791
0.0045934888
0.010853979
-0.019598803
0.004996143
0.03619033
-0.02210976
-0.033442445
-0.002726444
-0.019845678
0.015616455
0.023098288
0.043699227
0.016117029
-0.04883104
0.018323872
-0.040624544
-0.026733443
0.009700754
0.01576994
-0.040088356
0.0020442237
-0.0030415396
0.012479753
0.01933653
0.001286712
0.0065411576
0.032707494
0.0051197
0.043916095
0.003998654
-0.0037945197
-0.032056145
-0.037200347
-0.0031036302
-0.038020752
-0.010032241
0.027531853
0.015827501
-0.033970073
0.022525916
0.019550575
-0.03350789
0.002982892
0.015371889
-0.045570254
-0.0044620885
0.014134405
0.03931867
-0.03863596
0.0080253845
0.009791439
-0.032671914
-0.027219243
0.0025425502
-0.0058100093
-0.0367051
-0.0050250045
0.01818796
-0.026083358
-0.03231463
0.015814865
-0.009725467
0.012582071
0.0016929435
-0.041991692
0.0012504215
0.024112958
0.01077521
-0.030297412
-0.03302677
0.01186138
-0.008983667
-0.0015590228
0.014078053
0.013686244
-0.020535944
0.031400442
0.005348155
-0.02659023
-0.023872217
-0.0050884
-0.027935252
0.0147681935
-0.009637241
0.0012972787
-0.033992678
-0.033149686
0.014018445
0.023661125
-0.019227356
0.006676235
-0.0055884942
-0.007061495
0.005462028
-0.0059430385
-0.038465146
0.026622921
-0.045240454
0.034820184
-0.035720684
-0.017845374
-0.03585028
0.038446944
-0.017472299
