16 128
-0.07284431 -0.057567034 -0.037712097 0.046626292 -0.032178678 0.02527655 -0.014195355 -0.020915583 0.06781478 -0.05612049 -0.06146215 0.013396045 -0.038505293 -0.011350764 -0.08252897 0.085964166 -0.06722549 0.008360091 -0.042988364 0.08217151 0.04894907 0.016085384 0.059533495 0.0068680975 0.03829141 -0.056718256 0.081275694 0.07423367 0.024528094 0.047394898 0.054192297 -0.06551417 0.01933847 0.033399567 0.04789696 -0.065632224 -0.08418886 0.02621288 0.015206851 0.028549135 0.038450666 -0.030637441 -0.05804321 0.009681099 0.0398317 -0.036620658 0.05456703 -0.010372674 0.041382886 -0.0714424 -0.06217218 0.007447103 -0.05605291 -0.028033074 -0.047010355 0.06626206 0.059364535 0.026983932 0.06931156 0.08059951 -0.011828313 0.06587933 -0.018358096 0.056264386 -0.018707888 -0.0014920905 0.06724716 0.0461447 -0.0446832 -0.06694621 -0.048698213 -0.022227872 0.007290557 0.021398114 -0.08202845 0.02456699 0.06932731 0.023316812 -0.063293695 -0.022025604 -0.011214575 0.05132106 0.030053204 -0.016164066 0.0096480325 -0.007896158 0.04857274 0.02205205 0.00033106533 0.064504884 0.0152311195 0.04179714 0.07046584 0.032671858 -0.08399887 0.07934446 0.029264487 -0.05550175 -0.048564594 0.050572194 -0.07355526 -0.008143234 0.013689414 0.022590471 0.07928212 -0.089461364 -0.0054834215 -0.05394039 0.009232159 -0.07032607 -0.005699738 0.066989854 0.008705453 0.07501667 0.07581752 0.001027517 0.07533137 -0.057626583 -0.07336573 -0.013279862 -0.031417858 -0.08950947 -0.026850985 -0.04095867 0.018803926 -0.08252533 0.015422596 -0.059298396 
0.07459391 0.07974611 0.01722407 -0.007972627 -0.057221524 -0.024433002 -0.02026264 -0.038962066 0.07266578 0.037420243 -0.054917328 0.021712929 -0.025700474 0.02694032 -0.077379785 -0.025149727 0.034901544 0.033444054 -0.0058698133 -0.04090063 0.021146245 -0.069663845 0.030981563 0.07702156 0.05081836 0.0057421396 -0.020274656 0.046844084 -0.047819346 0.0077890134 0.052980617 0.049086984 -0.0057913084 -0.017750256 -0.06808983 -0.037076104 -0.015012176 -0.06498875 -0.06636447 0.041559223 0.023720222 0.0046689776 -0.06739416 0.03355894 0.03817449 -0.012123196 0.014280342 -0.08653241 0.020897226 -0.06655496 0.015971292 0.028072989 -0.057801213 0.061368722 -0.015334169 -0.0638004 0.07112434 0.008242205 -0.05980714 -0.063316405 -0.024497418 0.049863752 -0.021812424 -0.07727489 -0.024213895 0.0138717815 -0.059497133 0.076581545 -0.077892944 0.052529022 -0.02543826 0.044471625 -0.075620465 -0.052670345 -0.0019845301 -0.041815635 -0.002414899 0.044476256 0.07108941 0.0086727245 -0.02878014 0.005534258 0.0932707 0.0009990262 0.04432139 -0.027923746 0.005683057 -0.050202403 -0.05437961 0.037961345 -0.045278613 0.0026706303 0.025318304 -0.03389731 -0.005356949 -0.047704276 -0.031437397 -0.031128025 0.039478526 0.02206282 0.009870457 0.051318634 0.049864642 0.025361044 0.019754682 0.016157217 0.042878576 0.07912385 0.060356073 -0.0047831465 0.052193176 0.020380843 -0.026442124 -0.0012362816 0.047168843 -0.040147897 -0.0061580935 -0.016782016 0.086917065 -0.08140709 0.036988977 0.06445119 -0.033284526 0.075131066 0.053142194 -0.062018644 -0.07301455 0.059344266 
-0.063197136 0.067395285 -0.066878155 0.01933116 0.08397041 -0.04141007 -0.061652612 -0.024149807 0.06658097 -0.040744357 0.03886373 0.07434945 -0.018723134 -0.066629715 -0.05400261 -0.049586903 -0.015971119 0.011794142 -0.06679686 0.041074 0.011128716 -0.059810422 0.039360803 0.060234062 0.056497913 -0.013449591 -0.07736599 0.0003235744 0.040615357 -0.07786096 -0.013699183 -0.0097691035 0.047639772 -0.046998233 -0.016351815 -0.044445187 -0.008381419 -0.058216367 0.060642924 -0.059660133 0.047952123 0.03104012 0.045609992 0.00040395086 0.0071909004 0.059712097 0.08631947 -0.0073816986 0.011884346 -0.007070065 0.0030412728 0.07340267 0.022404468 0.04825046 -0.051732525 0.04353347 0.039300323 -0.055093173 -0.072829485 -0.017746748 0.02007159 -0.07832944 -0.08619737 0.03645091 -0.046671543 -0.077064395 0.08593189 -0.058633953 0.038985692 -0.044699963 -0.023937615 -0.06524843 -0.06201093 -0.04051003 -0.017368045 -0.019979496 -0.00065720273 0.0022818695 0.0065319613 0.07883154 0.006886424 -0.026018227 -0.06266212 -0.029111443 0.05457671 -0.06870327 0.07376855 -0.06609432 -0.07809287 0.052881368 0.007378619 0.08177699 -0.012013415 -0.0750488 -0.001054913 -0.09061862 0.07497471 -0.049893077 -0.007401668 -0.050996337 -0.051618896 -0.02400944 0.07583698 0.0011008765 0.07413205 0.012791013 -0.03849205 -0.07704957 0.021416256 0.055772867 0.00021568882 0.038620744 -0.08737964 0.04587904 0.075671926 0.0074472874 -0.031222565 -0.07549377 -0.015745556 -0.024927381 -0.013787399 -0.026832256 0.05925947 0.022191996 0.059574377 -0.029388566 0.0768839 0.08135308 
-0.045164272 0.024078023 -0.029507184 0.045939345 -0.070608385 0.00290519 0.067612894 -0.023359768 0.0462393 -0.03820483 -0.022446044 -0.062489275 0.072364956 -0.009183529 -0.036707968 0.06816233 -0.0682355 0.013811708 0.0014634293 -0.012852259 0.057100378 0.07003412 -0.007329885 0.04792669 0.05468821 -0.06765742 -0.027783588 -0.015608991 -0.07488762 0.041779764 0.060582913 -0.034910697 0.084534794 0.0024705199 -0.080090106 0.077961065 0.06092205 -0.054009233 0.0311184 0.06896566 -0.00559231 -0.0499211 -0.05945187 0.0128106605 -0.04223417 0.0026287748 0.014156343 -0.0807039 -0.06208833 -0.0631405 -0.013243168 0.04576965 0.026045201 -0.071453676 0.07647049 -0.05043374 -0.03243852 0.07120974 0.03816361 0.066572994 0.071534194 -0.07418704 0.08039652 -0.01503908 0.03842116 0.013107635 -0.010612195 -0.06670487 -0.009227907 -0.009808758 -0.02092362 0.08733862 -0.06019245 0.06727769 -0.049268093 0.046091728 -0.04591005 0.047654383 0.08846428 -0.010927157 -0.0015998302 -0.06778899 0.002873725 0.021190522 -0.040516097 -0.06124159 -0.059272364 -0.061534096 -0.059813514 -0.06929238 0.016318925 0.03783232 0.035391793 0.048409365 -0.04341917 0.07009806 -0.04082859 -0.07040641 -0.05297664 0.033995476 -0.047625057 0.07450236 -0.045238096 0.03009074 -0.014799701 -0.021010414 -0.074811175 -0.047514856 0.0003948227 0.06589017 0.0071117054 -0.07237491 0.026210733 0.03981166 0.004091358 -0.055328432 0.03298694 0.095256425 0.015075632 0.058594942 -0.0477905 0.032855704 -0.047387257 0.013751137 0.08015002 0.006889865 0.0015946592 0.028986538 
-0.022355758 -0.069764 0.0615412 -0.034871116 0.096811414 -0.04634954 0.07288771 0.04460934 -0.047375746 -0.08733314 -0.057107892 0.046003025 0.037942726 0.07429547 0.06492837 0.0926948 0.059584025 0.034525894 -0.053986024 -0.047442917 -0.047514405 0.016383454 -0.017495282 0.06911659 4.1275798e-05 -0.021796579 -0.02976338 -0.07793346 -0.05487936 -0.040392537 0.014405236 -0.03389225 -0.025507605 -0.03451102 -0.0077235126 -0.04709991 -0.0010860405 0.076648496 -0.072248794 0.08134109 -0.06817692 -0.036230136 0.035643697 -0.056455966 0.016316295 0.02811869 0.002642524 0.07258987 0.031210532 0.048686586 -0.02395727 0.06598102 0.055975504 -0.004193676 0.032081254 -0.01172524 -0.016097343 -0.083839476 0.013551687 -0.05135902 0.010122065 0.06650619 0.050951246 -0.063152656 -0.06623489 -0.08569078 -0.016850999 -0.039154366 0.010136907 0.061871905 -0.04850072 0.035557684 -0.02540261 0.025437951 0.03560944 0.07526638 -0.0842389 -0.0061425255 0.01301272 -0.05525635 -0.011663846 -0.031355813 0.0011553266 0.08685141 -0.018817935 -0.015714759 0.077784576 -0.07308634 0.085839115 -0.008279489 0.016241413 -0.07003858 0.025112884 0.026674382 0.03096752 0.014885799 0.06521926 -0.018792251 -0.037230294 -0.06858698 -0.019386409 0.029890714 0.08234685 0.0754022 -0.0652115 0.015081081 0.003953959 0.054708 -0.049824376 -0.022199258 0.051081266 -0.027853554 0.07506418 0.0273075 -0.07767418 0.035771653 -0.064932264 -0.03458679 0.013492096 0.019471379 0.0020802335 -0.054443296 -0.018615233 -0.058265008 0.0097921975 0.026888296 0.04653336 -0.05737347 
0.062519886 0.021483118 0.035264786 -0.03403243 0.034007326 -0.032250263 0.0218838 -0.0647143 -0.0039016523 0.063499495 0.055752378 -0.017272582 0.023875512 0.024139889 -0.079461455 0.0035874352 -0.044483293 -0.038023084 -0.099912815 -0.045258466 -0.029073663 -0.010306562 0.058710113 0.06959552 0.03682766 0.037629906 0.043339767 -0.08778804 -0.016368423 -0.033358496 0.083423086 -0.06266134 0.008185362 0.02281935 -0.061098136 -0.106394686 -0.009291806 -0.033527486 0.050840035 0.020762168 0.017119683 0.0110652475 0.063025795 0.03574427 0.010474742 0.04048191 0.04863649 0.060834147 0.076656714 -0.013009546 0.044218123 -0.01803888 0.023123052 0.015042089 0.060261346 -0.07140423 0.020718526 -0.05758079 -0.013131665 -0.017236514 0.0073488485 -0.029401394 -0.07765856 0.07668035 0.047545213 -0.06692517 0.049961578 -0.07942819 0.011200838 -0.083184116 -0.08732784 0.07079839 0.07258397 -0.018374778 -0.06732644 0.050630774 -0.06889302 0.072147526 -0.038305312 -0.05975204 0.03230883 0.06636229 -0.054832496 0.047295287 0.072997995 0.014981581 -0.070745304 0.047457796 0.07671929 0.05898683 0.05395844 -0.0043124575 0.047591515 -0.04113205 0.032411262 -0.07265183 0.042994373 -0.04127201 -0.07728363 -0.07957759 0.07539369 -0.0019935577 -0.07476811 -0.0071004615 0.04203127 0.08330234 0.024438098 -0.023178186 -0.058580156 0.06971908 0.0049631377 0.06255879 -0.0032427595 0.06255556 0.026158053 -0.031010978 0.025851155 -0.00981913 -0.06392405 0.06070661 0.043821517 -0.033317 0.011128645 -0.058049884 0.08533228 0.008063473 -0.0903439 -0.015254142 
-0.040238056 0.038981713 -0.0081872195 0.02700312 0.057078067 0.020539246 0.035924274 0.042000458 0.043074694 -0.04894474 0.044385504 -0.050221562 0.0037354 0.083954945 0.010281583 0.0043960824 0.0804211 0.06282416 0.04786048 -0.06379582 -0.08739746 0.0490024 0.023845099 -0.008940141 -0.032852776 -0.068435386 0.03550677 -0.011019141 -0.072412364 0.052818008 -0.065443605 -0.01988088 -0.027267478 0.04159024 -0.06907253 0.020032093 -0.045970816 0.021086851 -0.09708809 -0.042331368 0.06400473 0.045206893 -0.00093989493 0.07883645 -0.018955559 0.085295305 0.03431013 -0.063569106 -0.0053465343 -0.08552605 -0.075732514 0.050091352 -0.021203179 -0.07991656 -0.031301666 0.06394468 -0.03857544 -0.00687 -0.01698363 0.06455695 -0.05606231 -0.01349053 -0.003934788 0.02981635 -0.043341734 -0.013262361 0.08024211 0.08464329 0.040079225 0.034619845 0.07223882 0.032030474 -0.02833257 -0.013155851 0.05538549 -0.049484923 -0.0577623 0.0628287 0.02506935 -0.038650274 0.087499954 0.029951148 -0.049508065 0.07270445 0.064912945 0.044196583 0.0077361614 -0.012195896 -0.06688477 0.018920878 0.026971065 0.024294093 -0.07728499 -0.008537519 -0.070591085 -0.07317344 0.07023623 0.05318029 -0.050970346 -0.05696074 -0.052306667 0.09117279 -0.03909469 -0.030447628 0.0014912477 -0.0663747 0.06311899 0.0015403857 -0.008160281 0.003090372 -0.015238778 0.05513534 -0.06377269 0.04263675 -0.012047094 0.032398164 -0.028328022 0.05282956 0.039506685 -0.085014306 0.048119366 0.034764346 -0.006112095 -0.014237533 0.08456596 0.051388286 0.030501183 0.040328022 
0.08601344 0.051007967 -0.014222241 0.048440192 0.035028707 -0.04073283 -0.070899576 -0.03088033 0.050652068 0.02809016 -0.028768722 0.06509853 0.093120165 0.044772476 0.08520284 0.09249953 -0.015841817 -0.045367077 0.023171099 -0.021771953 -0.038426094 0.031571105 0.02944798 0.0059263813 0.078477554 0.065472916 0.022566788 -0.025360359 -0.039971948 -0.037686504 -0.075608134 -0.02544665 -0.05735375 0.05467657 0.01794195 0.054120727 0.041625235 -0.06938635 -0.025854927 -0.077292174 -0.005663108 -0.063379675 -0.045548443 0.009163507 -0.054602545 0.07236745 0.011929232 0.01613525 -0.043756615 0.075959116 -0.006116888 -0.022069678 -0.015706604 -0.07745274 0.016934607 -0.011473816 -0.023143666 -0.020803012 0.066996686 -0.013065694 0.007389568 -0.07746712 0.01016856 0.07550022 -0.045650426 -0.0667447 -0.025167052 0.027893929 -0.06287755 -0.07035269 -0.004395594 -0.08188179 -0.071301356 -0.07517499 0.014096097 0.01824368 0.08171617 0.06930248 0.04432535 -0.03506785 0.036813453 0.05198425 -0.06941534 0.076157294 0.06391409 0.017876884 -0.045452002 0.06566172 0.079186015 -0.06584013 0.11745663 -0.062071793 -0.050865866 -0.022528226 -0.01532031 0.0649802 0.025296718 0.05603077 -0.073324144 0.03636523 -0.066464655 0.038400628 -0.024549894 -0.06714486 -0.02058212 0.019670235 0.06555672 -0.0014114218 -0.035462465 0.012580292 -0.017286653 0.014074328 -0.06642532 -0.08070386 -0.06847481 0.07964144 0.00086977304 0.053597476 -0.009498073 0.027383884 -0.05563014 0.074292526 0.027030831 0.019955805 0.036209136 0.059026383 0.024305195 0.02806411 
-0.057813182 0.010625963 -0.082217805 -0.084580354 -0.003818294 -0.043870147 -0.04952302 -0.013010328 0.060526803 0.07179961 0.03172308 -0.07785997 0.011097533 -0.0052168253 -0.008747012 0.04410698 0.06445197 0.06692491 0.041877456 0.022713445 -0.048987966 0.0021328384 0.090916336 0.054902002 0.04423757 -0.061669238 0.031244267 -0.046773963 -0.052081298 0.07947118 0.002068539 0.04554786 -0.030386882 0.020133171 0.073989086 -0.031035667 -0.06361472 0.034544278 -0.008971086 0.03645599 0.021513272 -0.017852865 -0.027732866 0.0052911323 0.07422491 0.021551834 0.064115494 0.074360095 0.029581768 -0.076531835 0.017903265 -0.0759838 0.008442386 -0.017848216 -0.0465284 0.0684994 0.056539785 0.0005705579 -0.024146568 -0.0051262183 0.08943594 -0.028085716 -0.029846389 -0.07731225 -0.02273388 0.083270274 0.022815619 -0.0252288 -0.033653628 -0.007977045 -0.047911454 0.044619046 0.0049254894 0.04578727 -0.016386338 0.0023266985 -0.042925786 0.03524264 -0.072952546 0.048623346 0.04901684 -0.08200299 -0.04866498 0.007009311 -0.052756123 -0.08684406 -0.024338178 0.075718634 -0.0069467654 -0.02025391 0.06783317 0.085163765 -0.020579446 0.074821115 0.019948205 -0.081954755 0.080366604 0.081124574 0.07077049 0.051667254 -0.055508032 -0.05059818 -0.019196697 -0.011361985 0.07476337 -0.028555304 0.0441706 0.04633945 0.0602933 -0.019927736 0.042191077 -0.042011574 -0.019822158 -0.010081248 0.08416853 -0.06629746 0.028332688 0.03032063 0.04203706 0.020541228 -0.06893017 0.022964882 0.014265065 0.027354203 0.01468937 -0.087676704 -0.053543933 0.0035343438 
-0.0056948746 0.020756563 0.0049584494 0.073171966 0.061933853 0.06853167 0.05184537 -0.04187435 -0.054683194 -0.048287466 0.032389745 -0.017467294 0.073140465 -0.026091918 0.016844336 0.08327451 -0.002208278 -0.032921176 -0.09786455 -0.023047827 0.059169687 -0.083068065 0.0562844 0.055921026 0.071800075 -0.07037926 0.050961245 0.077509075 0.033173017 -0.069879115 -0.018626502 -0.030427082 -0.06927784 -0.03607526 -0.022815164 -0.016931266 -0.04994843 -0.07882364 -0.087903686 0.052469503 0.00990563 -0.0010418767 -0.035028175 -0.0874079 -0.011161681 0.036699086 0.048300806 -0.03924872 -0.040713742 0.044654902 0.0052547227 -0.016016977 0.015213365 0.07147716 -0.07861874 -0.029195052 -0.07479697 0.08307098 0.0017990549 0.033393122 -0.056357224 0.07332152 -0.044953477 -0.040781867 -0.007931676 -0.040597435 -0.0061848066 -0.040217552 0.0209138 -0.0418618 0.03266766 0.07232329 0.04660986 -0.016445648 -0.057751402 -0.0073473775 -0.032053813 0.08055102 0.041352946 0.017651232 -0.052294105 0.072307624 0.039666828 0.013990317 -0.030329565 0.0617338 -0.063277096 -0.08943416 -0.06745379 -0.040340565 0.035107005 0.010610698 -0.06582236 0.008871657 -0.047280304 0.05520991 -0.0034771338 0.032934565 0.021404514 0.05577543 -0.025821643 0.014269589 -0.06550334 0.10163716 0.06629485 -0.058812533 -0.081234656 0.08056888 -0.0015960094 -0.08445653 0.030438086 -0.04890879 -0.078813076 0.0065282993 0.06522474 0.05023875 0.08948516 -0.057046175 0.047372263 -0.019482719 -0.052079108 -0.07307899 -0.042584572 0.05392842 0.002765234 0.078545146 0.07029347 -0.07514517 
-0.060904805 -0.026657531 -0.041186027 -0.069141194 -0.075227626 0.077104054 0.0764424 -0.0038850736 -0.07916403 -0.08752045 -0.048679218 0.086384 0.07009819 0.008835375 0.034240976 -0.06017291 0.071197286 -0.036610253 0.02778821 0.080402665 0.023844555 0.05237866 0.04635855 -0.040747292 -0.07781387 0.052578848 -0.050894883 0.009755164 -0.012247318 0.06451512 0.017440613 -0.090547375 0.020707496 -0.010370406 -0.07932632 0.0033037416 -0.005377066 0.030814594 -0.08673952 -0.0024110728 0.014445501 0.037799235 -0.08814205 0.03463636 -0.028778484 0.0024956032 0.033075828 0.083655916 -0.051155522 0.045651615 -0.07161837 -0.057499193 0.046819255 -0.021619767 0.08594584 -0.045167606 -0.027197799 0.031194454 -0.07306867 -0.07658912 0.065677024 -0.0053907684 0.02528142 0.0034107363 0.054371044 0.079953976 -0.04932117 -0.0087405285 -0.03393013 0.068029515 0.05660889 0.07066291 -0.0738827 -0.015071614 -0.060434822 0.012704628 0.0406318 0.016364459 0.008110367 0.055220976 0.034262896 -0.02950311 -0.02515384 0.04248654 -0.020781362 -0.059564617 0.085324876 0.008961902 0.030188074 -0.005580718 0.024577744 -0.01576531 -0.05917178 -0.057003614 0.048534997 -0.008700244 0.065067045 0.06929479 -0.05345407 0.06782136 -0.040564127 -0.07169692 -0.07503506 0.0029232383 0.0650942 0.07899133 0.018719638 -0.026612453 -0.046776716 0.021393184 0.0077963797 -0.052185472 0.07236645 -0.05116193 0.05572 -0.021103404 -0.046189573 -0.094886586 0.028855694 0.029442279 -0.017076623 -0.0684202 0.06755868 -0.06441004 0.07754609 0.027494177 -0.026398415 0.018457133 
-0.05067915 -0.0015819849 0.06900901 -0.069873706 0.06013318 0.004540272 0.0115798665 0.007441177 0.057098143 -0.011767215 -0.073753715 -0.010448867 0.064183205 -0.0130107375 0.07875512 0.053130846 -0.042308547 0.05149953 0.007837046 0.057953008 -0.07712883 -0.055368036 -0.035808805 0.01596631 0.008144266 -0.05549732 -0.06371524 0.049468227 0.01739574 -0.09954359 0.07050071 -0.07977117 -0.00321631 -0.02000734 -0.0105633475 0.033702634 0.04794683 -0.028452702 0.032390796 -0.08020154 -0.033939935 0.017019002 0.06243141 0.06388967 -0.05839948 -0.063237034 -0.094517745 0.08032311 0.055837814 -0.04894739 0.028939307 -0.044770606 0.054737482 0.047863953 -0.02614639 0.041616812 0.082636796 -0.039999656 -0.087146595 -0.06016494 0.038067825 0.06318537 0.06695625 -0.009195127 -0.022378065 0.06865945 -0.039100535 -0.06124386 0.07507062 0.062162325 0.02061631 -0.03806956 0.04879342 0.05172064 0.016687661 -0.046149228 0.081357986 0.04508119 0.0042957636 -0.06766574 -0.053158704 0.023348441 -0.07804944 0.024537066 -0.064922385 0.043357674 0.032686226 -0.01979808 -0.07793113 -0.06544672 0.026371602 -0.05340664 -0.034581628 0.025245693 -0.072659254 -0.04976543 0.07076887 0.03199495 -0.08375879 0.021039622 0.0028262676 -0.054607306 -0.024062045 -0.05586881 0.03231933 0.0370116 -0.07023789 -0.07827625 0.07258086 0.06933281 -0.00018574 -0.07896649 -0.078627184 0.040853567 -0.06643838 0.0152477175 0.023080187 0.06639325 -0.045231253 0.032497074 -0.04087752 -0.0008731562 -0.0029467805 0.032694913 -0.08651635 0.048430853 -0.07649404 0.047916144 
0.030831339 0.03569637 -0.053877607 0.010688736 -0.07709815 -0.025620028 0.063409515 0.012553536 0.05668218 0.044270325 -0.035573166 0.0036467395 0.07800094 0.050875053 -0.011441043 0.008677506 -0.006831172 -0.0648447 -0.065495916 -0.02545201 -0.0015287697 -0.016887993 -0.046419527 -0.060879875 0.029938806 -0.040222663 -0.063361265 -0.042834453 0.05304847 0.0644755 -0.0113315005 -0.044978973 0.009064712 -0.06832094 0.03353721 0.013937741 0.023032147 0.013709373 -0.017318532 0.08366154 0.018370027 0.005145467 0.024532825 -0.000105462066 -0.057889048 -0.019649092 0.07675488 -0.0847911 -0.047216233 0.019945541 -0.0154244015 -0.049692962 0.024474971 -0.0011172947 -0.04927894 0.045181703 -0.05137181 -0.07494758 0.024867805 0.057581395 -0.029743886 0.05822841 -0.056679063 0.06598677 -0.025356054 -0.01186201 -0.03602888 0.012616313 -0.005856276 0.055176314 -0.023560567 0.028596912 0.06259062 -0.052971724 0.005551357 0.013904873 -0.01725086 -0.030326962 0.06397005 -0.05509891 -0.018847544 0.060005896 0.021904245 -0.03579092 0.047557898 -0.07053382 -0.020943433 0.03695701 0.080566026 0.0877413 -0.020779451 0.064274006 -0.027135983 -0.055498783 -0.06445236 0.087786525 -0.02920821 -0.072264574 -0.01947585 -0.051086873 0.009004286 0.023688458 -0.041701123 -0.06815172 -0.054372568 -0.02709965 0.036036532 -0.051268112 0.015225465 0.029047135 -0.024682185 0.048794776 -0.053571206 -0.06765194 0.025712684 -0.0709253 -0.024669474 0.06395028 0.026547654 -0.02535485 0.017179158 -0.07143461 -0.075054646 -0.0659144 0.034116138 -0.07645945 0.05571866 -0.07979934 
0.056282032 -0.013062684 -0.013066749 -0.038211185 -0.05893965 -0.043151986 0.051784616 -0.012377923 -0.025567701 0.05054421 0.08860788 -0.052383605 0.015116526 0.019465726 0.050708164 -0.067152 0.059270278 -0.07820383 -0.010233051 -0.06341169 -0.061272874 0.0035621189 -0.07630701 -0.064142674 -0.025116084 -0.062047806 0.048088476 -0.07891734 0.005108721 0.048971936 0.007123345 -0.036396243 -0.08432775 -0.03641967 -0.028397588 -0.02586523 0.079337016 -0.036669016 -0.063607454 -0.012926792 0.054280315 -0.04153137 0.07867563 0.022759238 -0.026695456 -0.014198398 -0.048395876 -0.08244301 0.006992209 0.07696198 -0.03589073 0.008498549 -0.030781984 0.025793353 -0.07479846 0.060967844 -0.08348238 0.07406865 -0.06707541 -0.07191772 0.0024799395 0.032842394 -0.007719746 0.046232913 -0.03617423 0.054416858 -0.05354212 0.03864315 0.066559814 0.034787286 -0.044078037 0.007792727 0.046289694 0.04868431 0.011624713 0.008678759 -0.04517429 -0.08282533 0.021506475 0.09024855 0.01265729 0.0897377 -0.06312512 0.034843028 -0.057579923 -0.06549479 0.08223722 0.046754554 -0.061653264 -0.071354054 -0.03274463 0.00044905843 0.033685856 0.072446436 -0.075557105 -0.09046568 -0.012408622 0.030402139 0.038804322 0.069210425 0.098521106 -0.062357653 -0.08004902 -0.007996145 -0.008343186 0.014766098 0.08350811 -0.014318695 -0.023110367 -0.016785929 -0.07240894 0.06319454 -0.07555794 -0.058171272 -0.013287396 -0.016995758 0.06044546 -0.057691634 0.04682605 -0.029540807 -0.0700287 0.068070285 -0.06090999 -0.07343211 -0.083544746 0.01551234 -0.018779676 -0.0049439035 
0.036863532 0.07776854 0.010399086 0.013298922 0.040324718 -0.06369676 0.021015173 0.05332869 -0.081836775 0.028529063 -0.07479147 0.048302103 0.06405358 0.0665893 0.07075261 -0.05592691 -0.006720909 -0.077478655 0.016131878 -0.01581996 -0.021083958 -0.051023893 0.0025749048 0.019240431 -0.01881472 0.013697319 0.033919223 0.011553773 0.042101454 -0.020500768 0.06933018 -0.04981109 0.011106955 0.069163546 -0.09086341 -0.03461146 -0.06610052 -0.04695851 -0.036781598 0.0014142124 -0.0476069 -0.049012933 0.062546566 -0.019746775 0.067068435 0.048384648 -0.008992712 0.012625607 -0.002768558 -0.063121825 -0.057611145 0.012339477 0.04554098 0.009793733 0.020192146 -0.07102536 -0.056248758 0.069223486 0.07082139 -0.027271684 -0.011028132 0.08510407 0.011826315 -0.012285724 -0.046212338 0.061056636 -0.011053113 0.058052145 -0.037645232 0.035927005 0.058962543 0.08284175 0.013649292 -0.03233864 0.039677564 0.07514392 0.05416428 0.02476285 0.063819766 -0.06717029 0.07176273 0.023165302 -0.043828193 -0.040302593 0.047233626 0.053127624 -0.075941496 -0.063340016 0.0026527331 0.06433875 -0.028920779 -0.007277605 0.078624316 0.066808105 0.04680516 0.011535901 0.071828045 -0.02715194 0.01961764 0.05738078 -0.008199826 -0.037910078 0.035351425 -0.08122721 0.03271507 0.020309573 -0.07991265 0.04237371 0.0035899216 -0.055686817 0.063847885 0.014367981 -0.03762525 -0.0037389921 -0.082146265 0.059526376 0.075189754 -0.023422716 -0.02352956 -0.051422395 0.0074337977 0.03889747 -0.06254435 -0.050928317 0.034372237 -0.006203197 -0.06890627 0.060401887 
0.07485727 0.029622706 -0.016576413 -0.050493877 0.013436271 -0.02441407 -0.051279906 -0.0015633292 -0.06773538 -0.03301284 -0.0113051925 0.03442339 0.05148135 0.051402014 0.05715751 -0.006646101 -0.031472344 -0.025029711 0.031095427 -0.0028366968 -0.085732505 -0.031635996 -0.016668616 -0.0682377 -0.04275461 -0.03485131 0.0043185963 -0.075899646 0.040952425 -0.0301113 -0.040563367 -0.021305257 0.08957762 0.06073065 -0.0016082005 0.05638194 -0.010677274 0.028894365 0.043686546 -0.023192875 -0.050003 0.054625243 -0.05917404 0.014180699 0.058664918 0.06261806 0.060928226 -0.013015938 0.04521611 -0.030342147 -0.08148991 0.0055902586 0.0025711744 0.03351514 0.035305485 0.001978345 0.05772012 0.083578624 0.047996044 -0.074982874 -0.04407233 -0.03179566 -0.008931513 -0.08527018 -0.05240093 -0.08200871 0.07378257 -0.046208944 -0.0052079074 0.05118323 0.0134920105 0.06519837 0.025957469 0.04445629 -0.040378038 0.0002769709 0.07258824 -0.017553773 0.07442248 0.0427057 -0.043392587 0.042684853 0.050933413 0.0832185 0.023917422 -0.07147373 -0.010535292 0.07277383 -0.08349843 -0.05689205 0.045756478 -0.012433896 0.016935024 -0.013419054 -0.041431878 0.065141045 0.011182003 -0.04008732 -0.07177823 0.082894124 0.012514068 0.07042128 -0.00064805895 0.050283574 0.040086217 0.10120444 0.06027574 -0.022293989 0.015697077 -0.05421235 0.09688739 0.06256147 0.027533814 0.062699676 -0.08691627 -0.08468278 0.00791682 -0.066095345 0.039193 -0.08984124 0.061249208 0.020811006 -0.08205375 0.0027047936 -0.052431993 -0.06242616 -0.017511752 -0.009670317 
