16 128
-9.1978574e-05 -0.029040411 -0.0527579 -0.08570307 -0.04221701 -0.06985882 -0.09232249 -0.0014886044 -0.026491314 0.05049318 -0.012876774 0.043631192 0.025932325 0.0093526775 -0.022207739 -0.055920504 -0.015752867 -0.058387868 -0.01066118 -0.006393373 0.08532194 0.058566686 0.031239193 0.043713905 0.0349992 -0.047877837 0.046657283 -0.020548718 0.008163978 -0.05591488 0.08592408 -0.05758129 0.060551442 -0.065037854 0.017356563 0.03170472 0.0022517932 0.0022311967 0.08737415 0.08832008 0.031111123 0.015196122 0.056030333 -0.056229245 0.03519146 -0.046001192 0.08656912 0.03764214 -0.05207847 0.015517708 -0.045718092 0.069481805 0.01149441 -0.025589056 0.013110597 0.033604007 0.016922258 0.07393332 -0.0031176868 -0.05650432 -0.059512313 -0.06352277 0.01534254 0.037775893 0.0056333565 0.073606305 0.012100166 -0.025962584 0.009364777 -0.00034513042 0.03498666 -0.046376284 -0.0025566898 -0.070874855 0.055992216 -0.017381128 0.046771307 -0.0135173155 0.0657133 0.009117885 -0.03420013 0.07913756 -0.005696981 -0.09094665 0.0070151356 0.0225236 -0.022030957 0.029959243 -0.016276859 -0.06080744 -0.023024477 0.011607158 0.07295015 0.02005046 -0.04968851 -0.06065852 -0.041834667 -0.071595564 0.0009630647 -0.044890348 -0.035447747 0.058744375 0.0797605 0.0005098603 0.04809583 0.07563152 0.045106698 0.060777713 -0.07973575 -0.048142537 -0.0959661 0.045254614 -0.00062235474 -0.04316612 0.0031858275 -0.023960136 -0.10729182 -0.06849349 0.0057875696 -0.06932977 -0.05143656 0.07869863 0.017585013 -0.056786556 0.07709299 0.019875765 -0.03423821 -0.02263874 
0.06000881 -0.002194616 -0.08216604 -0.03935277 -0.079463355 -0.017757468 -0.0101821115 -0.063392416 0.01540983 0.0428369 -0.058994897 0.07293079 0.08150303 0.06232516 0.011138239 0.047582284 0.021274261 -0.06160905 -0.0620648 0.070000134 -0.032678705 -0.0368746 0.06774456 0.0935062 0.008221563 -0.026460717 0.00044053452 -0.012204951 0.07233299 0.019152056 0.06469296 -0.04114952 0.018087182 0.0733486 -0.0107569005 0.03146217 0.015118234 -0.09095091 -0.07058862 0.034668647 -0.06002165 0.07994402 -0.06233619 -0.054661173 -0.017744051 -0.04055375 -0.0019104683 0.061520465 -0.009785579 -0.04686319 -0.038981967 0.06507475 -0.017919565 -0.06050742 0.057963453 -0.001850269 -0.062189367 0.048020463 -0.01708178 0.07778803 0.06571904 0.0351284 0.03418441 -0.038083024 0.048069235 -0.0030175447 -0.04024186 -0.016454736 -0.021243604 0.069267385 -0.010810685 0.019672366 -0.0005856808 0.024922641 0.010435267 -0.0333139 -0.0609507 0.011660006 -0.08544692 -0.0018569862 0.07992081 0.036423765 -0.06955591 -0.085377775 -0.004039737 0.06327179 0.03172148 -0.017846042 0.05359961 0.007422249 0.007951076 0.032827113 0.05227358 0.08231005 -0.0057905666 -0.055714265 0.08736654 -0.039549652 0.052124258 -0.046577733 -0.06403369 0.08665911 0.018134505 0.037205227 -0.006250645 -0.06898796 -0.0316934 0.041323826 -0.069505796 -0.04785725 -0.03466583 -0.07130433 -0.08944184 -0.06814603 -0.048970893 -0.002886489 -0.07151692 0.013332183 0.03151679 -0.042633083 -0.09250869 -0.043598574 0.057774063 -0.055686146 -0.07061542 0.018504173 -0.005090631 -0.03562074 
0.08436527 0.025948877 -0.0055546826 -0.043524742 -0.032375827 -0.030459959 -0.052675802 0.057439 0.027002156 0.05981944 0.07777854 0.066049665 0.058720294 0.021445557 -0.07578697 0.049113814 0.035413522 -0.011740332 -0.004709907 -0.06305732 -0.033175554 0.034458626 -0.032955833 -0.07547876 -0.039974537 -0.06867532 0.029353783 0.023271468 -0.08513584 -0.00028359905 0.052230112 -0.05367435 -0.042996414 0.050379813 0.0032096803 0.0731224 -0.0094813835 0.052231424 0.016449712 0.007917977 0.067634955 0.062374182 0.003157751 -0.07204828 0.034974203 -0.08348152 0.062199757 -0.05401367 0.065835185 -0.028333668 0.016040195 -0.033469427 -0.04320639 -0.08289171 -0.076815814 -0.08481382 0.062592454 0.011846902 -0.0025965031 0.04545001 0.07062443 0.008808739 0.01671092 0.0033131547 -0.045449663 -0.054718737 -0.021891467 -0.06296737 -0.0591417 -0.032689355 -0.052083917 0.041188546 -0.023631552 -0.07133034 -0.025832519 0.014778701 -0.059095405 0.0571365 -0.015329988 0.0032536134 0.013612034 -0.061313763 -0.055949543 0.08082817 -0.0502922 -0.058035545 0.035270147 -0.09333813 -0.068116456 -0.0026024801 -0.0015197512 0.07992978 0.074083365 -0.030806398 0.013053386 0.0023358888 0.034861304 0.01958494 -0.0012608505 -0.0736756 0.020093618 0.05657257 -0.008727044 -0.009179261 0.031441417 0.01257644 -0.06062702 -0.049364325 -0.031768017 -0.005017408 0.039919045 0.044731528 0.0002634572 -0.03517513 0.05178203 -0.051230673 0.019061288 0.009556685 0.030866608 0.071412854 -0.07639083 -0.02401205 -0.015773192 -0.017772255 -0.047379456 -0.07731933 0.040991433 0.05153274 
0.01216874 -0.0015912446 0.089617684 -0.07174236 0.016958367 0.026811138 -0.0016699972 0.0053267586 -0.0020581163 0.043145552 0.037688345 0.08326017 0.05121335 0.03308052 0.072278015 -0.03513947 -0.047735386 -0.0035129199 -0.01049156 -0.013763018 -0.08579135 0.0060758176 0.010941186 -0.023718238 -0.035630397 -0.01452618 -0.07955082 -0.061039865 0.028591543 -0.019043315 0.023271127 -0.036959343 -0.06484187 -0.021323055 -0.012516835 -0.10229008 0.0654517 -0.041216135 -0.07078597 0.004032346 0.01568965 -0.06879404 0.06274936 -0.051877007 0.07010996 0.04486182 0.020302176 -0.012315744 -0.036667634 -0.01688821 0.011457207 0.0621297 -0.063995905 -0.06534609 -0.08090055 -0.07361107 -0.043977346 -0.08664017 -0.029844888 0.040155455 -0.074676335 -0.061103176 -0.014938206 0.0334793 -0.049793262 -0.055831403 0.054588452 -0.009544454 -0.0064515565 -0.07731327 -0.030433169 0.06399276 -0.07656881 0.023789413 0.09770879 -0.08325921 -0.055239353 -0.042159196 0.02460823 -0.07198438 -0.050963115 0.06310742 0.03923214 0.06283673 -0.012656034 -0.03649389 0.016344346 -0.05132306 0.02335147 0.051227555 -0.038289122 0.054846466 -0.018265178 -0.0030804377 -0.10077131 0.015523344 0.0030832216 0.04323346 -0.028187038 -0.087040745 0.022985555 -0.053779226 0.08381047 -0.027254399 -0.010786327 -0.0049458654 -0.08134256 0.03824029 -0.07452129 0.0245222 0.00049057364 -0.0050259684 -0.047081687 0.049887806 -0.06897381 0.018254392 0.016051296 -0.04249779 -0.031018483 -0.034867704 0.02420913 0.013657266 0.060007647 0.033591416 -0.00883826 0.07153431 -0.049246605 0.0136047155 
-0.030815406 -0.030841151 -0.043892726 -0.01796825 -0.04984982 0.051800303 -0.009062692 -0.07642115 -0.01091905 0.073185004 0.07903187 0.07542923 -0.056697156 0.044229627 -0.014172509 -0.027914142 0.0072490033 0.014668607 -0.066127114 0.0579148 -0.015725538 0.037940033 -0.07365251 0.025914542 0.058453474 0.061219238 0.08513519 0.02113021 0.0011095479 -0.07963835 -0.05885595 -0.048675362 0.0070191408 0.070701115 -0.080280155 -0.015205223 -0.018044261 0.0119372895 -0.0066584335 0.081812985 -0.054016784 0.088020146 0.021652652 -0.01747942 0.006438711 0.041806553 -0.04630389 -0.04310048 -0.021440981 -0.0329247 0.02714432 0.06251296 0.01740378 0.041455373 0.03758847 0.008667398 -0.06248003 0.058177024 -0.06361575 -0.0454315 -0.09118743 0.05763802 0.026186492 0.07939328 0.061836015 0.0073415264 0.04040623 0.028949665 0.05552271 -0.024918698 -0.01105675 -0.021776084 0.09020757 -0.07396972 0.046843823 0.08158179 0.03204878 -0.068207055 0.056498118 0.07425231 0.01796953 0.004867572 0.07337949 0.006224084 -0.057120007 -0.082071975 0.0067094937 -0.01933244 0.06820878 -0.069386646 -0.08699487 0.041551992 -0.07813651 0.060698118 -0.013268742 0.012734877 0.042542316 -0.09258534 -0.014892565 0.041960143 -0.098539956 -0.0046175034 -0.07346436 -0.039466955 0.033680927 -0.049372166 -0.02569079 0.023023352 -0.054774463 -0.042547513 -0.093922704 -0.06369758 -0.021780549 -0.08948956 0.062415082 0.022223935 0.0034093482 0.016885247 -0.06717038 0.04020372 -0.044464946 0.039428122 0.02895048 0.07036902 0.07997013 0.07616492 0.05243479 0.0542082 
0.06728144 0.0012408956 -0.062718555 -0.036593087 -0.010460796 0.044390224 -0.045960795 0.054941334 0.016848465 -0.05709195 -0.012526135 -0.05458282 -0.03439933 -0.04639314 -0.011175589 0.048056018 -0.041294213 0.050487716 0.080953136 0.019882932 0.0034830794 0.06471419 0.021224223 0.060342606 0.068677396 -0.027174104 -0.06814213 -0.09356369 0.055812135 -0.062037542 -0.024140399 -0.003846605 -0.05618396 -0.016089903 0.052413978 0.0410656 -0.079418056 -0.0069270646 0.07581868 0.039785042 -0.04932194 -0.068079114 -0.07356043 0.053504895 -0.09345369 0.08449322 -0.01008614 -0.027491845 0.06567449 0.0028588208 0.012277729 0.057693735 0.010211787 -0.049462453 0.011308216 0.003041851 -0.07932405 0.02439215 -0.012083636 -0.008468703 -0.061676875 -0.039508406 -0.0077900393 -0.039261725 0.032965563 -0.026736949 0.038985733 0.06621871 0.0817334 -0.019460117 -0.024760365 0.029584642 0.062708594 0.04840891 -0.089983866 0.060262997 0.07876158 -0.059618726 -0.07512552 -0.06543181 0.04313717 0.04428581 0.05205348 0.057425056 0.044134066 0.039899647 -0.025646262 -0.055034935 -0.061385058 -0.05338483 0.023935452 0.04245674 -0.08828274 0.007433244 -0.08190523 0.02773995 -0.014730841 -0.037270393 -0.026038473 -0.07416282 0.02111051 0.08090189 -0.06956072 -0.044667605 0.009939151 -0.011489843 0.025366288 0.076652855 -0.07651756 0.0050432757 0.0093727205 0.0723269 -0.0007762861 -0.07225735 -0.03910654 -0.07230655 0.037972976 0.00026831357 0.010437072 0.0129017765 -0.027493704 0.019048171 -0.07887654 -0.04683394 -0.07305198 -0.023822471 0.046941232 -0.08819983 
0.056506243 -0.06638537 0.061988227 0.06276374 -0.023532549 0.058840998 -0.028145265 -0.061658967 0.060776956 -0.04443945 0.010216688 -0.025820902 0.0690404 0.07179216 0.04942069 -0.082644 0.09570827 -0.017358094 0.10535866 0.018470459 -0.030809399 0.013790252 0.083799675 0.054124698 0.03413618 0.02015691 0.004340758 0.07576981 0.00017100653 -0.07127068 0.06909626 0.017762503 -0.08185647 0.038928017 0.020673277 -0.048357163 -0.044981323 -0.064446695 -0.03903863 -0.029103085 0.07634553 0.01014386 -0.07435686 -0.037785698 0.025803182 0.09358296 0.041378807 -0.02968761 -0.045938905 -0.05019291 -0.043919086 -0.07699988 0.063156515 0.035926368 -0.007439019 -0.02976798 0.015059699 0.048678 -0.05596034 -0.03021121 0.032626886 0.07655522 -0.07362219 0.0610229 -0.055474106 0.02679503 0.06347496 0.052599654 -0.027591737 -0.064461395 -0.02452406 -0.019590724 0.0794256 0.0025513144 0.005454456 -0.058904503 -0.05458398 -0.030362032 -0.078721605 0.015936838 -0.08838748 -0.04522104 -0.0036453956 -0.028194377 0.05221709 0.030298572 -0.028415814 -0.093639225 -0.07212156 -0.032993928 -0.032035373 0.0007906179 -0.051578823 0.018133035 -0.0829322 -0.056315083 -0.0013139918 0.024577826 -0.020277074 -0.027265027 0.011782827 0.018614417 0.07978662 -0.059760675 -0.08953964 0.080517516 0.022951523 0.041687876 0.07006642 -0.05253023 0.018639894 -0.073723696 0.0137251085 -0.029061468 -0.026211184 -0.0037403405 -0.021109687 0.054184336 -0.01985606 0.016513731 -0.059286606 -0.044639513 -0.010079 0.035826843 0.024263939 -0.004447639 0.02218266 -0.0066548223 
-0.012302386 0.05090895 -0.07163591 0.063620366 0.03328987 -0.015780568 0.037178095 0.04081131 -0.019417735 0.0044705197 0.06725236 0.07699992 -0.03136039 -0.07301239 0.004145464 0.09086693 0.075632356 -0.038256638 0.05213976 0.065057226 -0.010931067 -0.0003943441 0.05731603 -0.020756235 -0.025190882 0.050307404 -0.014511554 0.0878021 0.0073003997 -0.02525017 0.06361037 0.031457942 0.040852137 -0.06541811 -0.02816608 -0.030980863 -0.053090286 0.0028039746 -0.06366206 0.05029358 0.06624204 0.053827826 0.07439602 -0.03081393 0.030807566 -0.07559046 0.037809104 -0.020714033 -0.05212893 0.025775695 -0.038165756 0.07047845 0.029994538 -0.051897008 -0.07075588 -0.07833244 0.04630687 0.06875391 -0.03788695 -0.050280906 0.037334763 -0.023711532 0.039126117 0.034725185 0.078612484 -0.047683783 -0.0120757595 0.0340494 0.071353935 -0.02220182 -0.05449955 0.08329936 -0.08471171 -0.059235368 0.017803192 0.04262244 0.04745883 0.07224255 -0.0023642215 0.05169895 0.007949943 -0.07053465 0.039303236 0.012274553 0.017986739 -0.010635375 0.07684099 -0.08463108 -0.0020445841 -0.06335153 0.027591687 -0.0009898962 -0.051658325 0.0040517044 -0.035105474 -0.06426396 0.01788751 -0.0634069 0.040352467 -0.01933115 -0.016710233 -0.009144085 -0.057531364 -0.025806656 -0.01954071 -0.03913641 0.07026247 0.04570116 -0.087415375 -0.035056558 0.06062157 0.034531426 -0.08531886 0.04293456 0.063206315 0.087652646 0.019488852 -0.020460604 0.00181226 -0.036862917 0.048437875 -0.04997031 0.08030236 0.06543663 -0.055209685 -0.042412806 0.0040840693 0.0621705 
-0.06794579 -0.021067008 -0.0057838107 -0.00970109 0.017381212 0.025699139 -0.021534353 0.087153435 0.028695308 -0.036130868 0.07715233 -0.05811968 0.06345525 -0.04335837 -0.056843545 -0.05147801 -0.015679868 0.028050572 0.03002361 0.06930085 -0.06257386 -0.07787388 0.060096245 0.049800295 0.002140363 -0.06690609 0.028980656 0.022628412 0.031176083 -0.08539023 0.03425549 0.0023503557 -0.00063161674 0.03904788 0.00026298108 -0.0539502 -0.014853041 0.0036255086 -0.056222755 -0.039465096 0.006275883 -0.04016305 -0.08314815 -0.02920384 0.06866602 -0.06378339 0.04283047 0.03792467 -0.007160298 0.00846759 -0.053285737 0.009146711 0.006133551 0.04890379 -0.07073412 -0.05727833 -0.03861995 -0.0015397148 -0.018178774 -0.078835554 0.08679759 -0.03479832 -0.008948327 0.012684253 -0.009112804 -0.03753316 -0.048113097 0.06703307 -0.08347052 -0.090552956 -0.022920145 -0.07641022 0.04901821 -0.040498026 -0.031532478 0.07546497 -0.022904625 0.06829157 -0.037415758 -0.08048136 -0.04980127 0.07487864 -0.036192767 -0.053420033 0.032757565 0.028170107 0.03652353 -0.032000225 -0.075163804 -0.07053648 -0.0010533558 -0.0021245456 0.009910392 -0.0123488065 0.01967249 -0.02910355 0.08726805 0.03013853 0.055243462 -0.014172169 0.03231956 0.007546236 -0.04931001 -0.034346737 -0.028270718 -0.066688545 0.021334102 -0.050001398 0.041314766 0.038846742 0.029938325 -0.038358897 0.037046447 -0.010949393 -0.051903658 0.06676311 0.016913539 -0.027704468 -0.023422513 0.04942344 0.030814841 0.044804905 0.05447378 -0.076370046 0.029675612 0.036610924 0.02130702 0.056188177 
0.08377612 0.005139477 0.026074955 0.04667262 -0.010618017 -0.02043961 -0.020329777 0.054464795 0.0035955277 0.030139472 0.056500353 -0.044358667 0.1268764 -0.04204284 -0.051533144 0.023003906 0.045688856 0.050335456 -0.025248133 0.021658085 0.013404816 0.026840236 0.06887894 0.026694465 -0.05897185 0.043337397 0.085631736 -0.02415228 -0.0021838802 0.09980077 0.07682196 -0.055005573 -0.007651939 0.049628675 0.005151964 -0.0095768515 0.06921005 0.0530245 -0.010899853 0.04638118 -0.06808416 -0.032909263 0.03231502 0.023610324 0.010456436 0.044507485 -0.03790057 0.06124077 -0.031593204 0.03130438 0.01971597 -0.0015334088 -0.00834905 -0.037845906 0.022194194 0.0016946404 -0.06882095 0.060163062 0.0015109497 0.07373038 0.05194144 0.06933693 -0.000542469 -0.021054508 0.055297527 -0.009474203 0.06459406 0.002191428 -0.0110528 -0.042054556 0.015347171 0.07232062 0.044314835 0.024604207 0.005575303 -0.0850349 0.048444945 -0.0004983883 0.050703578 0.0045901737 0.035056315 -0.039713316 0.06612362 0.0392106 0.012449348 -0.008211829 0.073478885 -0.061372854 0.069857605 0.006215387 -0.04262605 0.019453894 0.07641745 -0.022293422 -0.043780062 -0.03815902 0.081568904 -0.055965893 0.087557666 0.0023827339 -0.05248337 0.07189816 -0.084583305 0.0032778769 -0.085030586 0.036109045 -0.004864605 0.05504051 0.07742566 -0.011397543 0.00969069 0.007878834 -0.010986034 -0.008253249 -0.015054402 -0.051148992 -0.036985286 -0.055043064 -0.04512043 0.05592053 0.061748955 -0.0473864 -0.009337832 0.08460698 0.06260956 -0.034292433 0.017964618 -0.027360884 
-0.015994934 0.03214316 -0.029162666 0.057122223 -0.040923785 0.021797054 -0.010666221 -0.032914024 -0.08441153 -0.049071282 0.06970582 -0.036655907 -0.03854617 -0.02424557 0.03588725 0.029807286 -0.08087764 -0.04253599 0.032392684 0.058909826 0.03603147 -0.054767318 0.055929214 -0.050915506 0.062018238 -0.033025257 0.07605621 0.08036043 -0.040688876 -0.02258984 0.006056665 -0.0628724 -0.061012752 0.061439056 0.034451008 0.005603157 -0.036676634 0.07496952 -0.05319692 0.044563226 0.0680673 -0.036643367 -0.036764264 -0.035655968 -0.0035093983 0.04121506 0.03065529 -0.050810717 0.043088727 -0.02817047 -0.058049686 0.025478788 -0.0014464472 -0.010595191 0.0010406042 -0.067093305 -0.056033943 0.032051314 -0.056502424 0.0060803513 0.08390815 -0.06342294 0.087315515 0.060669716 0.013032393 -0.03756321 -0.0721077 -0.0737067 -0.008972697 -0.04515381 0.002934917 0.03916783 0.067328565 0.0485212 -0.02923041 0.012611498 -0.070063114 -0.018972937 -0.06545267 0.042100634 0.008134002 -0.04325803 -0.016901853 -0.03875675 -0.03355042 0.062185723 -0.014277622 -0.023743765 0.08321249 0.041570254 0.05325913 0.068449534 0.04488591 0.011912955 -0.03831473 0.0356807 0.041658454 0.009711385 -0.08495911 0.0063265446 -0.012897134 -0.07663746 0.071081065 0.0081037115 0.005646719 0.05282719 -0.07379627 0.086272694 0.036292806 -0.097763345 -0.0732868 0.0149870105 -0.013711473 0.045402553 -0.03135309 -0.017623715 -0.061497714 -0.0072524077 0.005043415 -0.04018472 -0.04165196 0.044582006 0.05319764 0.06402398 0.034919687 -0.06221395 -0.08314482 -0.07811837 
-0.08482205 -0.05710584 -0.06788536 -0.0292489 0.059059143 0.068239994 -0.031171788 0.074540935 0.05034637 -0.018767955 -0.056302853 0.027012616 0.025936281 -0.013023266 -0.06923771 -0.022105178 0.089755744 -0.04166207 -0.07365604 0.023979157 -0.01134447 0.020258436 -0.06455951 0.07552326 0.066159725 0.07476059 -0.022000384 -0.037830263 0.06333655 -0.040994585 -0.070121996 -0.03110243 0.03909017 0.016959574 -0.0072528278 0.02889731 -0.034052484 -0.028361158 0.030946368 -0.03802282 0.07545049 -0.0027984236 0.035135895 0.033015803 -0.019259872 -0.061245654 -0.040592033 -0.0014500772 0.05225893 0.028668515 -0.01215466 0.060896836 0.018647308 0.03228341 -0.07437828 -0.018654102 0.06066881 0.045167528 0.013534492 0.033700775 0.01877071 0.059277397 -0.040159162 0.050201714 0.034735747 0.08684345 -0.030664323 0.079208925 0.024341002 -0.013782025 -0.015861347 -0.05313166 0.04391872 -0.054457817 -0.05437924 -0.016686017 -0.041936103 0.08401797 -0.05162456 -0.04378533 0.04246669 0.08480843 -0.0028961345 -0.084849946 0.018392058 0.07127074 -0.07144367 -0.08408856 0.07091689 -0.05380835 0.034445755 -0.05006867 -0.07530714 -0.01917712 0.010764318 0.012641748 0.043807454 -0.038050298 0.06949289 0.07191438 -0.07828833 0.030528378 -0.0123388395 -0.04881837 0.06603237 0.0032185533 0.0026448956 0.06927462 0.012139383 -0.08452413 -0.058352698 0.08952737 0.026385346 0.010656896 -0.0659573 0.026557617 -0.0025906358 -0.0018637734 0.023146506 -0.08560514 -0.08161028 -0.056220345 -0.037835333 -0.05081333 0.0017415659 -0.06292435 -0.023232067 0.085172415 
-0.05278509 -0.02116963 0.080855414 -0.062906176 0.056402665 0.06935846 -0.024011122 -0.0652123 -0.049799845 -0.031168204 -0.024240285 0.08120439 0.027894786 0.019384319 0.009127162 0.07375706 -0.05080955 0.08562707 0.03769399 -0.01020319 -0.058095835 -0.07381712 0.008383957 0.05416523 -0.06501309 -0.052758172 -0.083308026 0.036621653 -0.005736556 0.116130255 -0.054493137 -0.08972778 0.07958837 -0.033074073 0.026756994 0.042462736 0.07597224 -0.048602916 0.01143933 0.06709043 -0.010049688 -0.029479546 -0.005230939 0.027503228 0.066329144 0.009622614 0.022655753 0.075723745 0.08768736 0.018333316 0.023149896 0.06975904 -0.044481486 -0.042982854 0.044991475 -0.01571319 -0.014006126 -0.030610539 -0.06620225 -0.026523534 -0.04530166 0.01531503 0.004056413 0.053585645 0.0164307 0.067161135 -0.0773233 0.07398999 -0.024754573 0.06318328 0.031995565 0.0007783455 -0.041378405 0.06606653 -0.05460203 -0.053178787 -0.06878557 -0.080290586 -0.07955823 -0.07123713 -0.025895013 -0.07746624 -0.053457834 -0.0027206049 -0.014940935 -0.058895756 -0.08368183 -0.09019934 -0.020291537 -0.034229737 -0.06444974 0.041182596 0.001968418 -0.0426914 -0.073213 -0.056698512 0.08224168 -0.059478715 -0.03043496 0.039541874 0.024927432 0.008308092 -0.04265854 -0.006579977 -0.056149088 0.025665207 0.022778302 0.09717922 0.031752665 -0.11538721 0.025638888 -0.090936095 0.0012842709 0.009085072 0.078243665 -0.07468806 -0.03638752 -0.0051939893 -0.016131168 0.030676182 0.011634455 -0.05371647 0.052708223 0.038871553 0.050467707 -0.07855514 -0.046810813 -0.038444076 
0.08165818 0.0060514007 0.0049856314 0.043441657 0.0098328795 0.018084057 -0.04545066 -0.052414432 -0.07587421 -0.014913289 -0.02370908 -0.01835606 -0.031246884 -0.008437322 0.003479264 -0.07483312 -0.07335962 -0.019188544 0.058946867 0.026082337 0.03744275 -0.015001732 -0.06321483 -0.028224386 0.020418432 -0.0047850814 0.05458605 -0.018728577 -0.030538715 -0.0013879306 -0.027031517 -0.092884235 -0.0657632 -0.0544771 0.0011330458 -0.015981816 0.046292916 -0.051169127 0.057890225 0.0580429 -0.008744134 -0.051278904 -0.058615778 -0.028317336 -0.07099804 -0.06383183 0.04470716 0.06988407 -0.0699248 -0.021322105 0.001934303 0.04488603 -0.06312698 -0.0078111226 -0.09032999 0.024167484 0.07955846 0.01015277 0.017404776 0.036411997 0.03350609 0.024441145 -0.05775968 0.056995198 0.06788648 0.05993993 -0.061115913 0.063429564 -0.030694544 0.02957121 -0.08198255 -0.08171246 0.08741803 -0.049970552 0.048994336 -0.081288286 0.020682868 0.001501255 0.00051531603 -0.06492388 0.074608356 0.074660376 0.054628912 -0.019720228 -0.014216088 -0.059330177 0.03585756 -0.042937066 0.008292459 -0.0047094678 -0.052275676 0.077138215 -0.06492444 -0.06450904 0.0013583901 0.02784339 -0.059493206 0.008232065 0.018081237 -0.057971276 -0.04100302 0.073609695 -0.06046173 -0.071739 0.019696582 -0.06938247 -0.041226245 -0.0017700698 -0.032076698 0.0013794714 -0.00515093 -0.04091244 0.05051508 0.00048715709 0.022109441 -0.07361004 -0.041950405 -0.063520014 -0.019034455 -0.05876261 -0.08202398 -0.0045790384 -0.082895644 -0.040852547 -0.078760386 0.0012581572 0.00069552526 0.09032752 
0.034558628 0.008436149 0.0430998 -0.071899004 -0.057627454 -0.040316474 -0.013902166 0.06560942 -0.0057964735 -0.04936094 -0.057046667 -0.05380931 -0.049603272 -0.034683824 -0.013931851 -0.03278703 -0.048464686 -0.081793174 0.039035413 -0.07519502 0.010335766 -0.03259706 -0.059133057 -0.042566385 -0.06858429 -0.013755736 -0.010030765 -0.010349105 -0.09260451 -0.10744745 0.08582229 0.044728745 -0.00049650826 0.051847424 0.07037224 -0.042146426 -0.02250544 0.07463027 0.07318406 -0.0013730326 0.014756173 -0.08152819 0.07222758 0.051549386 0.04410407 0.037257046 -0.030822305 -0.03698102 -0.022651058 -0.047665026 0.010799848 0.06591164 0.009437793 -0.035610575 0.006126726 0.0013993498 -0.042432822 -0.020641893 -0.015837716 0.07164362 -0.079834975 0.086391196 -0.058251556 0.07042586 -0.027242668 0.019725345 0.077102855 0.05401837 -0.003179337 0.034019206 -0.05198963 -0.05450793 0.058280587 -0.039795574 0.03592515 0.003917228 -0.038743753 -0.016482338 0.08030993 -0.014809663 -0.036545765 0.07730922 0.046627216 -0.016989341 -0.012316053 0.032194816 0.07991066 0.02930704 0.0314837 -0.021943659 -0.05731471 -0.019285465 0.030828234 -0.055958997 0.0013065222 -0.041644197 -0.00041436404 -0.04554716 0.083732955 0.053476878 -0.01889477 0.007817694 -0.06707301 -0.02428082 0.008437705 0.07591519 0.034206945 0.011393272 0.03674067 0.047178395 -0.0003544099 0.08787001 -0.03715804 -0.05003474 0.06040923 0.004987225 0.038662713 -0.04773594 -0.024175374 -0.04611729 0.06920428 -0.048878785 0.012785358 0.03967129 -0.027188618 0.030907862 0.04064389 -0.08374296 
-0.04577712 0.045207847 0.020721655 -0.02113297 -0.05464985 0.010457329 -0.032955762 0.033184487 -0.0021551813 -0.05500747 -0.08193714 -0.081769004 0.027594304 0.063146345 0.050836757 0.01846657 0.04611157 0.064553455 -0.0077227643 -0.00935851 -0.065712206 0.060691394 -0.004575427 0.0018274856 0.033195287 0.004613472 -0.023843696 -0.076324664 -0.015287946 -0.031153794 -0.054840554 0.013149132 -0.01915393 0.029333498 -0.05391929 -0.039025135 0.067946605 0.04581531 0.08511528 0.0648735 -0.06854818 -0.018146466 -0.062391795 -0.08069737 0.041964818 -0.031947926 0.08806299 0.0024244504 0.05041381 -0.0042027547 -0.0012624187 0.08740517 0.040643413 -0.035990633 -0.037727136 0.030614523 -0.024995036 -0.023391526 0.02912969 0.08544175 -0.026968325 0.05941507 -0.03712597 0.024157947 -0.058239255 -0.06488396 -0.015639778 0.061635766 0.081993304 0.06390728 0.0001883518 -0.038768567 0.039591394 0.074915245 0.06875179 0.0086209215 0.074643955 0.04624183 0.075198956 -0.017910823 -0.07794584 0.0057245726 -0.045946706 0.015472923 0.012382109 0.041185964 0.022196852 -0.0395301 0.02736527 0.002226656 0.009073911 -0.022289557 -0.037463572 0.035202503 -0.088779874 -0.050312158 0.051143117 -0.045173854 -0.08288297 0.031479433 -0.054527108 -0.059399057 -0.013950631 -0.06545165 -0.07650513 0.015551564 0.02879502 0.0808052 0.097632825 0.010503987 0.021403842 -0.07735773 0.003153164 -0.011800209 0.011181671 -0.04039616 0.017004825 -0.0697666 -0.033316575 0.05399279 -0.06265025 -0.06978727 -0.04122044 0.08127262 0.07696711 -0.06570931 0.019443735 0.031648837 
